#pragma once

const int HIDDEN_SIZE = 128;

const float L1_WEIGHTS[] = {
5.535943061e-02, -1.613297616e-03, 2.815920673e-02, 5.121040624e-03, 2.707831934e-02, 9.402531199e-03, -9.998981841e-03, 5.574493483e-02, -1.066476554e-01, -4.521391541e-02, -1.152449250e-01, -5.112216249e-02, -6.304396782e-03, -5.351988971e-02, -8.276274428e-03, 2.357936930e-03, 5.261690915e-02, -1.904474571e-02, 5.506751686e-02, 2.097793669e-02, -4.661856219e-02, 2.044112608e-02, 4.774438590e-02, 6.094361097e-02, 2.182806842e-02, 5.006894469e-02, 5.973594636e-02, -1.343741361e-02, 1.976717496e-03, 3.829253465e-02, -5.053645873e-05, 4.720529169e-02, 1.950570755e-02, -1.584351412e-04, 8.422650397e-03, 2.042190405e-03, 7.821323723e-02, 2.020581439e-02, -3.311502561e-02, 9.066282772e-03, 5.342185497e-02, 2.076106519e-02, -1.761307009e-02, 2.941812761e-02, 2.727747709e-02, 4.801569879e-02, 1.186424121e-02, 4.969917610e-02, 6.602074020e-03, 1.184190996e-02, 8.857781999e-03, -1.504699467e-03, -1.043590950e-03, -8.985595405e-02, -3.654640540e-02, -5.081740022e-02, -8.490835130e-02, 5.427218042e-03, -2.825225890e-02, -2.384839393e-02, -3.832260147e-02, 6.304004788e-02, 5.805896595e-02, -2.103547938e-02, 1.095122192e-02, -5.709512904e-02, -5.894551054e-02, -1.782457903e-02, -7.986826450e-02, -4.124363139e-02, -7.586203516e-02, -5.511671770e-03, -7.296875864e-02, -6.433539838e-02, -9.932278842e-02, -1.111503616e-01, -2.543517202e-02, -8.822817355e-02, -8.275408298e-02, -1.008339375e-01, -7.328874618e-02, -8.641929924e-02, -8.415183425e-02, -7.810305059e-02, -8.646654338e-02, -9.340807796e-02, -4.481267557e-02, -8.224540949e-02, -2.458244748e-02, -3.407223150e-02, -4.675969854e-02, -6.214891747e-02, -6.712039560e-02, -8.564223349e-02, -8.044690639e-02, -5.889014155e-02, -3.986214101e-02, -5.568639562e-02, -1.007846966e-01, -8.626691252e-02, -8.313789964e-02, -5.347099900e-02, -4.949945584e-02, -7.749330252e-02, -5.366348475e-02, -3.434104472e-02, -6.142969429e-02, -3.520058468e-02, -8.195473254e-02, -2.780559659e-02, -1.157032549e-01, -2.291587181e-02, -6.893470138e-02, -1.105820462e-01, -6.791476160e-02, -3.033114783e-02, -3.809783980e-02, -4.624411464e-02, -3.862579912e-02, -5.227798969e-02, 5.763031915e-02, -4.672321677e-02, -7.033962756e-02, -2.593190223e-02, -1.465278864e-02, -7.112023234e-02, -1.167046186e-02, -7.350558043e-02, -5.718395114e-02, -6.315830350e-02, 2.698052675e-03, -9.578604251e-03, -7.711952180e-02, -4.630864412e-02, -6.224350631e-02, -3.980521858e-02, -1.390374750e-01, -7.475494593e-02, -5.433196947e-02, -9.327786416e-02, -1.103805155e-01, -1.039200202e-01, -8.534274250e-02, -1.991891675e-02, -4.218921438e-02, -9.370715916e-02, -6.207801029e-02, -1.190962791e-01, -7.137390971e-02, -7.601834834e-02, -5.582107976e-02, -9.202604741e-02, -4.361147061e-02, -9.248536080e-02, -5.079042166e-02, -5.103298277e-02, -7.166509330e-02, -6.685412675e-02, -9.873004258e-02, -1.748222858e-03, -4.101359472e-02, -8.142036945e-02, -9.046622366e-02, -1.103060916e-01, -8.860422671e-02, -7.995343208e-02, -4.575857893e-02, -4.415069148e-02, -9.655532241e-02, -2.345099300e-02, -4.473193735e-02, -5.162358284e-02, -1.163619459e-01, -6.650374830e-02, -2.809717506e-02, -3.478899971e-02, -7.299038768e-02, -3.475323319e-02, -9.806407243e-02, -3.498721495e-02, 2.339783870e-02, -1.089925095e-01, -3.973406926e-02, -1.043779254e-01, -8.011341840e-02, -3.195758164e-02, -6.640899926e-02, -4.455329105e-02, -1.129002795e-01, -3.511779010e-02, -1.272371858e-01, -1.142678782e-01, -1.374186426e-01, -1.086243317e-01, -6.849525869e-02, -1.363238096e-01, -1.110434085e-01, -1.668984443e-02, -1.153383404e-01, -9.236859530e-02, -9.431712329e-02, -9.675920010e-02, -9.566288441e-02, -3.250044584e-02, -9.337936342e-02, -1.119609177e-01, -1.497763544e-01, -1.158360988e-01, -1.311786473e-01, -9.008268267e-02, -4.977438599e-02, -1.435596198e-01, -8.932458609e-02, -1.817188784e-02, -1.231568009e-01, -1.344907731e-01, -6.587272882e-02, -4.220739380e-02, -2.065776847e-02, -4.393520206e-02, -1.065504998e-01, -7.674024254e-02, -4.094971716e-02, -8.965747058e-02, -1.119555980e-01, -1.243326813e-01, -7.007320970e-02, -4.472946376e-02, -1.083421558e-01, -7.765572518e-02, -1.194261834e-01, -8.519691974e-02, -1.385696381e-01, -1.251889020e-01, -8.852359653e-02, -1.324312240e-01, -7.010895759e-02, -8.948981762e-02, -1.010735780e-01, -1.100197285e-01, -1.034796014e-01, -1.029908732e-01, -1.013658419e-01, -4.942851141e-02, -6.462008506e-02, -4.804083332e-02, -6.525668502e-02, 1.389804762e-02, -1.159185320e-01, -9.744142741e-02, -7.192678750e-02, -7.405527681e-02, -1.289782077e-01, -6.872347742e-02, -9.747179598e-02, -5.256531760e-02, -1.462737620e-01, -2.801382840e-01, -2.356958687e-01, -2.341071367e-01, -2.070232779e-01, -8.600738645e-02, -2.610763907e-01, -2.477637380e-01, -2.401521802e-01, -2.150370181e-01, -2.328497469e-01, -1.625038981e-01, -2.194775790e-01, -2.279009670e-01, -2.247624546e-01, -2.645787001e-01, -3.267441094e-01, -2.221603245e-01, -2.329625040e-01, -2.500692308e-01, -2.153547257e-01, -2.518790364e-01, -1.662715971e-01, -1.654285938e-01, -2.665136158e-01, -1.806740314e-01, -2.389482707e-01, -2.062102556e-01, -2.048995644e-01, -1.849432737e-01, -2.262424529e-01, -1.359471977e-01, -2.381792068e-01, -2.761074901e-01, -2.308309823e-01, -2.850229144e-01, -1.857712865e-01, -2.076792568e-01, -2.147705555e-01, -1.886737347e-01, -2.379849404e-01, -1.579270065e-01, -2.264158130e-01, -1.741008013e-01, -1.960778534e-01, -2.099020928e-01, -2.632329166e-01, -2.193090767e-01, -2.553429008e-01, -2.660844326e-01, -1.949251592e-01, -2.796211243e-01, -2.451324165e-01, -2.746440470e-01, -1.612217575e-01, -2.271953225e-01, -1.830878109e-01, -2.589132786e-01, -1.831273139e-01, -2.559674680e-01, -2.043985724e-01, -2.450615466e-01, -2.430284023e-01, -2.473809868e-01, 4.587737843e-02, 2.496215142e-02, 5.067114905e-02, 4.504286125e-02, -4.081963748e-02, 2.010032348e-02, 5.887767300e-02, 6.105947867e-02, 4.371644929e-02, 2.636387758e-02, 8.507101983e-02, 4.603672400e-02, 2.938241698e-02, 4.936316237e-02, 3.181948885e-02, 3.311675042e-02, 2.667838335e-02, 6.831611693e-02, 1.202982590e-01, 5.745343491e-02, 3.801342100e-02, 3.059208160e-03, 4.502623156e-02, 5.758625269e-02, 7.963686436e-02, 5.919857696e-02, 1.881095953e-02, 7.553349435e-02, 3.411117941e-02, 3.873691335e-02, 9.104441106e-02, 8.782555163e-02, 5.126941577e-02, 3.548214585e-02, 7.830671966e-02, 6.286212057e-02, 3.812276572e-02, 8.603142202e-02, 7.073541731e-02, 3.772899136e-02, 7.461532950e-02, 7.483922690e-02, 4.650092870e-02, 1.698211581e-01, 1.232739259e-02, 6.295359135e-02, 2.283192240e-02, 1.312147081e-02, 6.584285945e-02, 3.380895779e-02, 5.549080670e-02, 4.153840616e-02, 4.261633009e-02, 5.838082358e-02, 3.230698034e-02, 8.461519331e-02, 4.676505551e-02, 6.872826070e-02, -3.346888721e-02, 4.205846786e-02, 2.353586629e-02, 1.214244682e-02, 1.109561417e-02, -4.087029491e-03, -1.730928384e-02, 9.829866700e-03, -1.909951493e-02, -7.405917346e-02, 2.326025069e-02, -2.912098542e-02, -2.051786147e-02, 1.439476851e-02, 1.116235275e-02, 2.487651259e-02, 3.105903417e-02, 1.454496663e-02, 1.684228703e-02, 4.373707622e-02, 6.689633429e-02, 5.086550117e-02, 6.215198897e-03, 1.348050833e-01, 3.454898670e-02, -8.726283908e-03, -1.625166833e-02, -4.170782492e-02, 1.167689562e-01, 1.200739965e-01, 5.850746855e-02, -1.171677280e-02, -1.091470290e-02, 1.372233182e-01, 7.146897167e-02, 1.885668188e-01, 1.025975570e-01, -2.437465265e-02, 9.088002145e-02, 1.521694064e-01, 1.107559055e-01, 2.204027399e-02, 1.380567104e-01, -1.509837992e-02, -2.919483371e-02, 1.174112409e-02, 1.004106477e-01, -3.536877455e-03, 1.014391258e-01, 1.032051072e-01, 1.069790125e-01, 8.386238664e-02, 3.561845794e-02, 1.281611919e-01, 6.182835996e-02, 1.585068703e-01, 1.612585410e-02, 6.994452327e-02, 1.871150285e-01, 1.400641650e-01, 6.798597053e-03, 1.314149052e-01, 5.321916193e-02, -1.601485349e-02, -1.621557176e-01, 4.745539650e-02, 6.051695719e-02, 6.705334038e-02, -4.089203849e-02, 4.322480783e-02, 2.037041262e-02, 1.666026860e-01, 1.222939342e-01, 1.096490398e-01, 1.388288289e-01, 6.519380957e-02, 1.474775076e-01, 1.026329026e-01, 5.836133286e-02, 1.086004451e-01, 7.222706079e-02, 9.247561544e-02, 9.213484824e-02, 2.223981917e-01, 1.321285665e-01, 5.146376416e-02, 9.990280122e-02, 1.697552055e-01, 1.596052796e-01, 7.759115845e-02, 4.206527770e-02, 6.541503221e-02, 1.626775861e-01, 1.832271516e-01, 1.317171305e-01, 1.406237483e-01, 1.463941038e-01, 2.392504215e-01, 7.100930065e-02, 2.177848481e-02, 9.443245828e-02, 1.132437065e-01, 1.281403750e-01, 1.206784099e-01, 1.251723170e-01, 8.445350081e-02, 1.578060985e-01, 1.641519964e-01, 1.544927657e-01, 1.442545094e-02, 1.363867223e-01, 1.787134111e-01, 9.795059264e-02, 1.383282989e-02, 2.460580021e-01, 1.832242906e-01, 1.549663395e-01, 1.796020716e-01, 1.409689039e-01, 9.749329835e-02, 8.642642945e-02, 1.543096751e-01, 1.319562048e-01, 1.420139521e-01, 1.054196805e-01, 1.814343035e-01, 4.729028791e-02, 1.352825314e-01, 9.868023545e-02, 1.120415330e-01, 1.763944775e-01, 8.697783202e-02, 1.639214903e-01, 1.928836666e-02, 8.747801930e-02, 1.526964307e-01, 6.246888638e-02, 6.007713079e-02, 1.537335515e-01, 3.061988950e-02, 1.131471843e-01, 8.002806455e-02, 7.916638255e-02, 1.965787560e-01, 1.380683333e-01, 1.368371993e-01, 1.084887758e-01, 9.435102344e-02, 1.335619837e-01, 2.019532025e-01, 1.058461294e-01, 9.503301233e-02, 5.617917329e-02, 1.251241416e-01, 1.734680086e-01, 7.627759129e-02, 1.507839411e-01, 5.582344532e-02, 9.980388731e-02, 2.231759876e-01, 1.071113348e-01, 1.171198264e-01, 5.569018051e-02, 1.617386341e-01, 1.114124879e-01, 2.181001306e-01, 2.672205865e-02, 1.462149471e-01, 9.816239774e-02, 2.005125433e-01, 1.143259481e-01, 1.116596609e-01, 1.251581162e-01, 1.184998080e-01, 1.232354864e-01, 9.623534232e-02, 9.507589787e-02, 1.098891348e-01, 6.423859298e-02, 1.764632463e-01, 2.328854352e-01, 1.730993241e-01, 8.383987844e-02, 1.137750149e-01, 1.120424047e-01, 8.764743805e-02, 1.159734055e-01, 1.286847144e-01, 8.919728547e-02, 1.499008685e-01, -4.178463295e-02, 1.174111962e-01, 1.374182254e-01, 1.415054649e-01, 9.176920354e-02, 7.522118092e-02, 1.347233057e-01, 1.234854534e-01, 1.363164037e-01, 1.407096237e-01, 1.172910556e-01, 1.253212988e-01, 2.215529084e-01, 1.588770151e-01, 1.042816564e-01, 1.486239135e-01, 6.592954695e-02, 2.111277580e-01, 1.004272252e-01, 2.064289004e-01, 7.633857429e-02, 1.902633756e-01, 1.345764995e-01, 2.336403131e-01, 1.208053753e-01, 1.199044734e-01, 4.775192961e-02, 1.040636599e-01, 5.309718102e-02, 2.273300141e-01, 1.645154804e-01, 1.744240522e-01, 8.297356963e-02, 1.953586042e-01, 1.937571913e-01, 1.299623996e-01, 7.253235579e-02, 1.694829762e-01, 1.401462108e-01, 5.149314925e-02, 1.038551927e-01, 1.591027528e-01, 1.372422874e-01, 1.824544221e-01, 1.733832508e-01, 8.544594049e-02, 1.783220619e-01, 1.516810209e-01, 1.039508060e-01, 1.803873852e-02, 7.305029780e-02, 1.877356917e-01, 1.317996085e-01, 1.136329845e-01, 1.102717370e-01, 1.492268145e-01, 1.276999712e-01, 1.546543539e-01, 2.421519905e-01, 1.059931889e-01, 1.826988012e-01, 2.277606726e-01, 1.340912580e-01, 2.164283544e-01, 1.670095026e-01, 1.398139149e-01, 1.021889299e-01, 9.451540560e-02, 1.074771658e-01, 2.262381762e-01, 4.649839178e-02, 1.039464697e-01, 2.098737508e-01, 2.252285331e-01, 2.601768970e-01, 2.558805346e-01, 3.431282938e-01, 1.828686297e-01, 2.153023779e-01, 2.316803783e-01, 2.403339595e-01, 2.679613531e-01, 2.174864411e-01, 2.443512082e-01, 3.470586240e-01, 3.004362881e-01, 2.871739268e-01, 3.154122829e-01, 3.640816808e-01, 1.993017346e-01, 2.226186395e-01, 3.039696217e-01, 3.484423757e-01, 3.000163436e-01, 2.444619089e-01, 2.425707132e-01, 2.387517244e-01, 3.651646078e-01, 4.055163860e-01, 2.251584977e-01, 2.590070665e-01, 3.239540458e-01, 3.330502808e-01, 3.072004616e-01, 2.327476740e-01, 4.113337100e-01, 2.080865651e-01, 2.907756567e-01, 2.795950174e-01, 2.921326458e-01, 2.810313404e-01, 2.530170977e-01, 2.581638694e-01, 3.445068300e-01, 2.576836646e-01, 2.368913442e-01, 2.869592607e-01, 2.186338454e-01, 2.992841303e-01, 2.619334161e-01, 1.692030579e-01, 3.183591962e-01, 2.713278532e-01, 2.131458223e-01, 2.279065400e-01, 2.756744921e-01, 2.728377283e-01, 2.927837968e-01, 3.195073307e-01, 2.031380087e-01, 2.398080230e-01, 2.371862680e-01, 2.577348351e-01, 2.473846078e-01, 3.336552083e-01, 2.696982026e-01, 4.126729444e-02, 4.149262607e-02, 1.060175821e-01, 4.095996544e-02, 4.797833040e-02, 1.194339804e-02, 4.849495366e-02, 3.004192747e-02, 5.303586274e-02, 6.055957079e-02, 1.116823256e-01, 3.483814653e-03, 4.383550212e-02, 6.616326421e-02, 4.393947497e-02, 3.578177094e-02, 8.156146854e-02, 4.037260637e-02, 7.919690758e-02, 2.612460777e-02, 3.832419217e-02, 2.967277542e-02, 4.219521955e-02, 8.428475261e-02, 7.627103478e-02, 9.432847053e-02, 7.140980661e-02, 4.538778216e-02, 5.721124634e-02, 6.771165133e-02, 6.648965180e-02, 6.652867794e-02, 1.080721542e-01, 7.384132594e-02, 4.915021360e-02, 9.370403737e-02, 7.605330646e-02, 5.567766353e-02, 1.016194224e-01, 5.524244905e-02, 4.945175722e-02, 9.239887446e-02, 6.271962821e-02, 4.535136744e-02, 7.744964957e-02, 4.474938661e-02, 7.299119979e-02, 6.966467202e-02, 1.068000197e-01, 6.015078723e-02, 8.530618995e-02, 3.845578060e-02, 7.906521857e-02, 1.012924984e-01, 7.833983749e-02, 1.244535670e-01, 3.461962566e-02, 5.622065440e-02, 9.026741236e-02, 3.043181263e-02, -6.058246363e-04, 2.445527911e-02, 6.287689507e-02, 1.873399876e-02, -2.934802882e-02, 4.048758186e-03, -1.033659000e-02, 2.752995305e-02, -5.834252387e-02, -1.268767565e-02, -2.427136339e-02, 4.894417711e-03, -3.082302026e-02, -3.619134799e-02, -1.129788719e-02, -3.466163948e-02, -7.756418735e-02, -1.083986834e-01, -7.291860878e-02, -3.835290670e-02, 4.955153540e-02, 2.237115428e-02, 1.936008781e-02, -1.927629299e-02, -1.960004307e-02, -4.730441421e-02, -2.021384798e-02, -5.237876996e-02, 1.929487661e-02, -3.250603378e-02, 7.429952919e-02, -4.007058218e-02, -2.075755596e-02, -6.464854628e-02, 6.982742995e-02, -6.277011707e-03, -1.779337763e-03, -1.143459580e-03, 3.802822530e-02, 3.560009971e-02, -2.553485520e-02, -5.526941735e-03, 2.974284347e-03, 2.074354887e-02, -1.071206946e-02, -2.168019302e-02, 6.825377233e-03, 5.819676071e-02, -8.926330134e-03, -1.804789901e-02, -3.035833873e-02, 9.930364322e-04, 3.711277992e-02, 2.152242139e-02, -5.228170753e-02, 5.498528481e-02, -1.168661658e-02, -3.609777614e-02, -7.504072785e-02, -9.867349872e-04, 5.670078471e-02, 8.821598021e-05, 8.088761009e-03, -3.570659831e-02, 2.691817842e-02, -6.800139789e-03, 1.255273167e-02, -2.073935419e-02, -8.942915499e-02, -9.804908186e-02, -1.561269909e-02, -5.123932287e-02, -1.388037503e-01, -2.440518513e-02, -1.330424249e-01, 1.612203196e-03, -8.068466932e-02, -5.271347612e-02, -2.931863070e-02, -3.659432754e-02, -1.181953102e-01, -1.413200796e-01, 2.968064323e-02, -6.062784791e-02, -1.088307127e-01, -4.748433456e-02, -6.393869966e-02, -6.531161070e-02, -7.167698443e-02, -1.249074936e-01, -6.934840977e-02, -1.284655035e-01, -3.044997901e-02, -4.753105715e-02, -8.604422212e-02, -4.567399621e-02, -1.153327152e-01, -8.908738941e-02, -4.277969152e-02, -7.589267194e-02, -1.040701270e-01, -5.704380572e-02, -7.844420522e-02, -4.775539041e-02, -2.634265646e-02, -1.058423594e-01, -9.289354831e-02, -5.523766577e-02, -2.238475718e-02, -9.783499688e-02, -4.937141016e-02, 8.327596821e-03, -7.489030063e-02, -6.328746676e-02, -1.088650897e-01, -4.172720388e-02, -6.520460546e-02, -7.171592861e-02, -7.758677006e-02, -4.139473662e-02, -3.853087127e-02, -4.828607291e-02, -9.785879403e-02, -5.090462789e-02, -5.210516229e-02, -4.997425899e-02, -1.210601768e-04, -9.824851900e-02, -7.727144659e-02, -2.453479171e-02, -1.108283326e-01, -8.906967938e-02, -4.425845295e-02, -9.062438458e-02, -9.625571221e-02, -4.334516451e-02, -1.265888512e-01, -7.909132168e-03, -2.919666097e-02, -5.109289661e-02, 5.673103442e-05, -3.876904398e-02, -5.881854519e-02, -4.550081119e-02, -1.034753993e-01, -5.698239803e-02, -2.046060981e-04, -6.116193160e-02, -5.097698420e-02, -9.683430195e-02, -8.135315031e-02, -9.717544168e-02, -9.428269416e-02, -9.012687951e-02, -1.278165728e-01, -8.626387268e-02, -7.887472212e-02, -7.127546519e-02, -5.883495137e-02, -3.127872571e-02, -7.668250799e-02, -1.436993629e-01, -2.760490775e-02, -7.205507159e-02, -8.584286273e-02, -8.454354107e-02, -4.460556805e-02, -3.018763103e-02, -6.992831081e-02, -2.479713969e-02, -1.476841718e-01, -3.846558556e-02, -8.335502446e-02, -7.564909756e-02, -8.439809084e-02, -1.982468367e-01, -8.483827114e-02, -7.118413597e-02, -6.021980941e-02, -1.414601342e-03, -9.587904811e-02, -9.140869975e-02, -3.463802487e-02, -5.282456428e-02, -5.016297847e-02, -4.744404927e-02, -1.656139493e-01, -9.266950190e-02, -6.201779470e-02, -1.267909259e-01, -4.383486137e-02, 8.134666830e-03, -9.067253768e-02, -6.405549496e-02, -5.421962589e-02, -5.692559481e-02, -8.768595010e-02, -5.471329018e-02, -1.084726825e-01, -1.057771519e-01, -1.495051682e-01, -1.073856205e-01, -1.171099916e-01, -9.634697437e-02, -1.197462901e-01, -1.438340098e-01, -5.953587964e-02, -9.483190626e-02, -7.618717849e-02, -9.663324058e-02, -6.746707857e-02, -7.226212323e-02, -7.510142773e-02, -1.111064330e-01, -1.071044207e-01, -9.755256027e-02, -1.137508824e-01, -3.512293845e-02, -1.018451825e-01, -7.753984630e-02, -6.432581693e-02, -7.831835747e-02, -5.016120896e-02, -1.031289473e-01, -9.629832208e-02, -8.014154434e-02, -6.901745498e-02, -7.828738540e-02, -9.150461107e-02, -7.495342195e-02, -1.170708835e-01, -5.193250999e-02, -8.477518708e-02, -6.640245765e-02, -6.917382777e-02, -1.153415591e-01, -5.542937294e-02, -7.433763891e-02, -7.305379957e-02, -7.007999718e-02, -8.952665329e-02, -1.176769808e-01, -9.375039488e-02, -6.487887353e-02, -8.613476157e-02, -7.493812591e-02, -1.241507307e-01, -6.275433302e-02, -8.341226727e-02, -1.129614040e-01, -1.036049724e-01, -7.429527491e-02, -1.056878492e-01, -1.572273225e-01, -9.357499331e-02, -7.243006676e-02, -1.357731074e-01, -8.833666146e-02, -8.332864195e-02, -1.005778462e-01, -2.065741718e-01, -1.971721649e-01, -2.473344505e-01, -2.777557671e-01, -2.821277678e-01, -2.045593411e-01, -2.406578660e-01, -2.618293166e-01, -2.104437202e-01, -2.094304860e-01, -2.669394910e-01, -2.488090843e-01, -3.268208206e-01, -1.738854647e-01, -2.288800776e-01, -2.551046610e-01, -2.566803396e-01, -3.223223388e-01, -1.010981053e-01, -2.049360424e-01, -1.928889900e-01, -2.309150249e-01, -2.213509232e-01, -1.743045449e-01, -2.210507542e-01, -2.122367173e-01, -1.892039627e-01, -1.551476121e-01, -2.295090258e-01, -2.566218972e-01, -2.192663103e-01, -2.103963643e-01, -1.783998013e-01, -2.651736140e-01, -1.965473890e-01, -2.169383317e-01, -2.513563633e-01, -2.404542267e-01, -1.914286911e-01, -1.660208851e-01, -2.115054876e-01, -1.680916846e-01, -2.239948064e-01, -2.092590034e-01, -2.286148220e-01, -2.346942127e-01, -3.126254082e-01, -2.324554622e-01, -2.461670637e-01, -2.323004603e-01, -2.095932961e-01, -2.467791289e-01, -2.772044837e-01, -1.894488484e-01, -2.165904492e-01, -2.285625488e-01, -2.362076938e-01, -2.307620496e-01, -1.775714457e-01, -2.172879726e-01, -2.034185678e-01, -2.336852103e-01, -2.131456286e-01, -1.762654632e-01, 4.433222115e-02, 7.704194635e-02, 1.605301723e-02, 8.580479026e-02, 1.135075167e-01, 7.152665406e-02, 3.103856929e-02, 3.549277037e-02, 8.902671933e-02, 1.117297783e-01, 8.364134282e-02, 6.879562885e-02, 1.000577733e-01, 4.662936926e-02, 1.130731702e-01, 9.338480979e-02, 1.195617989e-01, 5.318086222e-02, 1.180278808e-01, 2.823938616e-02, 1.177978814e-01, 8.546238393e-02, 6.265068799e-02, 1.080777049e-01, 1.095350385e-01, 1.088045314e-01, 9.026920050e-02, 1.133151874e-01, 9.217114747e-02, 6.353810430e-02, 6.844419241e-02, 1.086671874e-01, 8.818654716e-02, 5.246181786e-02, 8.458661288e-02, 6.338290125e-02, 9.062319249e-02, 9.686768055e-02, 8.870565146e-02, 7.566750795e-02, 2.930081077e-02, 7.063625008e-02, 6.178826839e-02, 1.545485258e-01, 6.331121922e-02, 4.541273043e-02, 1.183747202e-01, 6.983564794e-02, 5.054146424e-02, 9.724011272e-02, 3.294868022e-02, 9.646094590e-02, 1.278641969e-01, 4.803944752e-02, 3.041961789e-02, 8.467416465e-02, 3.374549001e-02, 5.478184670e-02, 7.786568254e-02, 1.256494075e-01, 3.418894485e-02, 1.563366503e-01, 1.111309975e-02, 1.960707270e-02, -1.816698909e-01, -4.793127533e-03, -2.634871379e-02, 2.394679189e-02, -1.256089658e-02, 4.507442936e-02, 8.406513371e-03, -8.094584942e-02, 8.140140772e-02, 3.017314523e-02, 7.919935882e-02, 1.902326941e-02, -1.187226363e-02, -1.995222177e-03, 1.200033054e-01, 7.581369579e-02, 9.583451785e-03, 2.102732472e-02, 1.498888880e-01, 5.883060396e-02, 1.196596548e-01, -5.164111033e-02, 5.401185527e-02, 6.486963481e-02, 6.814988703e-02, 7.770670205e-02, 9.383367747e-02, 1.076431498e-01, 3.740117699e-02, 5.331323296e-02, 7.067796588e-02, 1.330018938e-01, 2.643920854e-02, 5.352210999e-02, 1.055230498e-01, 4.456438869e-02, 7.824762724e-03, 1.561489403e-01, 3.041705489e-02, 8.970795572e-02, 6.671468914e-02, 8.366598934e-02, 9.787983447e-02, 6.866914034e-02, 1.479761302e-01, 9.398075938e-02, 1.082887352e-01, 6.120492145e-02, 1.352036837e-02, 5.830214173e-02, -6.482350826e-02, 6.333820522e-02, 4.272009060e-02, 8.811305463e-02, 9.994713962e-02, 9.760890901e-02, 6.594099849e-02, -2.613356896e-02, 4.753533751e-02, 2.790932916e-02, -6.855733693e-02, -9.269211441e-02, 1.656053588e-02, -1.598726511e-01, 1.154249310e-01, -2.157339454e-02, 1.216640770e-01, 4.883329943e-02, 6.061149016e-02, -4.631829634e-02, 6.157153845e-02, 1.499384344e-01, 8.397631347e-03, 1.663574278e-01, 1.467363238e-01, 1.437219232e-01, 5.876805261e-02, 8.389177918e-02, 1.259398162e-01, 4.322279617e-02, 8.571334183e-02, 3.663914651e-02, 1.425891519e-01, 1.610586792e-01, 9.100607783e-02, 1.274506003e-01, 1.352849305e-01, 1.290561110e-01, 1.319091171e-01, 7.077737898e-02, 4.025700316e-02, 1.737956107e-01, 6.142929941e-02, 1.588547826e-01, 1.323241293e-01, 8.295899630e-02, 1.069028601e-01, 3.799160197e-02, 6.509879977e-02, 6.348586082e-02, 1.760568917e-01, 1.623917818e-01, 8.067296445e-02, 1.585255750e-02, 1.265111119e-01, 1.752457172e-01, 1.568122506e-01, 1.946821362e-01, 9.455669671e-02, 2.265506685e-01, 7.627584040e-02, 1.109314486e-01, 2.013417929e-01, 1.360942572e-01, 8.764603734e-02, 1.327265650e-01, 5.093435198e-02, 1.347383857e-01, 1.635812968e-01, 1.009118333e-01, 2.404246945e-03, 6.726612151e-02, 1.035270318e-01, 1.165605113e-01, 1.796761006e-01, 9.741293639e-02, 6.558067352e-02, 3.686632216e-02, 1.121344045e-01, 7.361035049e-02, 1.304109693e-01, 2.078221738e-01, 1.184007376e-01, 1.023600325e-01, 1.012265831e-01, 1.807160079e-01, 7.186474651e-02, 1.177541539e-01, 1.680755764e-01, 1.931486651e-02, 5.741453171e-02, 2.515741885e-01, 9.049049020e-02, 6.684456021e-02, 2.015865296e-01, 7.854642719e-02, 1.461454928e-01, 1.166611314e-01, 1.618570387e-01, 8.851908892e-02, 1.499014199e-01, 1.209595986e-02, 1.135634556e-01, 1.894746721e-01, 2.280495912e-01, 1.614344269e-01, 1.190210879e-01, 2.830740064e-02, 1.136393547e-01, 1.352478415e-01, 1.044882610e-01, 2.381295562e-01, 1.108378693e-01, 1.110897437e-01, 1.659069508e-01, 8.709690720e-02, 3.647287562e-02, 1.486352682e-01, 7.036285847e-02, 1.249065697e-01, 5.855367333e-02, 1.547210366e-01, 1.036255285e-01, 6.454287469e-02, 2.124208063e-01, 1.493893266e-01, 1.891779304e-01, 1.705167443e-01, 1.053629220e-01, 2.046657652e-01, 6.100507453e-02, 1.319689900e-01, 9.171340615e-02, 1.610508263e-01, 1.360974908e-01, 6.864636391e-02, 9.640643001e-02, 7.822149992e-02, 1.620224863e-01, 7.227435708e-02, 1.229866892e-01, 1.522464305e-01, 9.276023507e-02, 1.969448477e-01, 1.968532801e-01, 1.619720608e-01, 1.870869696e-01, 1.900564134e-01, 9.721060097e-02, 1.763385832e-01, 1.734397113e-01, 9.561129659e-02, 1.369543225e-01, 1.309246272e-01, 1.629738808e-01, 4.779294133e-02, 2.055705488e-01, 1.253684163e-01, 1.544563174e-01, 1.485474110e-01, 1.900941879e-01, 1.820620894e-01, 1.641730368e-01, 8.719229698e-02, 1.835049391e-01, 1.637766361e-01, 1.713610739e-01, 2.229856551e-01, 1.070051119e-01, 2.148959637e-01, 2.275642455e-01, 1.850913167e-01, 2.020992339e-01, 1.181430146e-01, 1.126776412e-01, 8.426545560e-02, 1.180971265e-01, 1.094778106e-01, 6.134008616e-02, 1.450178772e-01, 1.377321333e-01, 9.628685564e-02, 1.517726928e-01, 1.777615100e-01, 1.458198279e-01, 1.431856900e-01, 1.758422703e-01, 2.683412135e-01, 1.518784612e-01, 1.474146545e-01, 1.227687895e-01, 9.912220389e-02, 1.329956800e-01, 1.543537527e-01, 1.436499357e-01, 1.660641879e-01, 1.115815490e-01, 1.428811103e-01, 6.784769148e-02, 1.011226475e-01, 2.140282542e-01, 1.652139127e-01, 1.819010824e-01, 2.206232548e-01, 5.922103673e-02, 1.786050647e-01, 2.714806199e-01, 2.843999267e-01, 3.048627079e-01, 2.415332943e-01, 2.747433484e-01, 2.618426979e-01, 2.211384326e-01, 2.168131620e-01, 2.348304093e-01, 2.920906842e-01, 2.611559331e-01, 2.160114646e-01, 3.192060292e-01, 2.930629849e-01, 4.250122905e-01, 2.893893421e-01, 2.718817890e-01, 2.893029749e-01, 3.410021961e-01, 2.094067782e-01, 2.382266968e-01, 2.962626815e-01, 2.636860013e-01, 3.922359943e-01, 3.446081877e-01, 3.523683846e-01, 3.106805384e-01, 3.219361007e-01, 1.695766896e-01, 2.471968681e-01, 3.535724580e-01, 2.165221870e-01, 2.902293205e-01, 2.762440145e-01, 2.707207501e-01, 2.640326917e-01, 3.183689415e-01, 2.469047606e-01, 1.875338405e-01, 2.055967450e-01, 2.894852459e-01, 3.126921952e-01, 2.933484018e-01, 2.387260497e-01, 2.885441482e-01, 2.531480789e-01, 2.789041996e-01, 2.726863325e-01, 3.148202896e-01, 1.889257878e-01, 2.513109446e-01, 2.825346291e-01, 3.221262097e-01, 2.928306162e-01, 3.074581623e-01, 2.945213914e-01, 2.967295945e-01, 3.189777732e-01, 2.983769178e-01, 2.417766601e-01, 2.888359427e-01, 3.855987191e-01, 2.620999217e-01, 3.461787403e-01, 6.354161352e-02, 5.058282241e-02, 3.682862967e-02, 4.691965133e-02, 1.500595827e-02, 6.658567488e-02, -6.236036774e-03, 3.255880252e-02, 2.742109122e-03, 1.031770930e-01, 1.910373010e-02, 4.234554619e-02, 1.573089883e-02, 3.647861630e-02, 5.818035081e-02, 3.978707269e-02, 4.667716846e-02, 1.294067409e-02, 4.815365747e-02, 6.259414554e-02, 3.410377353e-02, 4.179159179e-03, 2.853725106e-02, 7.274498791e-02, 6.957834959e-02, 9.426216781e-02, 3.735416755e-02, 6.004430726e-02, 5.214900523e-02, 3.960784152e-02, 2.846257947e-02, -2.431494184e-02, 3.872199729e-02, 7.138673216e-02, 9.511198848e-02, 1.034973711e-01, 5.832563341e-02, 5.226199329e-02, 6.675654650e-02, 1.019537225e-01, 8.937891573e-02, 8.531594276e-02, 5.209913477e-02, 9.124910086e-02, 1.371201724e-01, 1.024214923e-01, 1.215451807e-01, 7.543398440e-02, 8.878723532e-02, 6.369311363e-02, 5.720926076e-02, 2.203829773e-02, 3.219736740e-02, 8.489974588e-02, 8.873062581e-02, 7.620071620e-02, 6.233998388e-02, 1.474708915e-01, 6.100317091e-02, 3.821865842e-02, 2.873595804e-03, 7.008457184e-02, 8.883759379e-02, 8.886462450e-02, 9.597671032e-02, -4.646774009e-02, -1.339371223e-02, 6.348665804e-02, 7.582718879e-02, 4.560826346e-02, 9.537009150e-02, -6.817193702e-03, 4.434418306e-02, -3.935976699e-02, 4.819608852e-02, 7.250662148e-02, -5.865392275e-03, 1.513969153e-02, 2.659135871e-02, 2.915275656e-02, 1.174418852e-01, 1.058226004e-01, 7.462178171e-02, 4.320244491e-02, 1.466063783e-02, 5.390699580e-02, 1.043642908e-01, 2.252310887e-02, 8.076330274e-02, 6.454159319e-02, 1.517634988e-01, 3.261489049e-02, 1.820135675e-02, 5.220079422e-02, 8.113378286e-02, 5.321247503e-02, 4.472693056e-02, 1.525954716e-02, 7.215426862e-02, -1.489350479e-02, 8.203808218e-02, 5.693101138e-02, 6.217497960e-02, 4.640283808e-02, 8.771555871e-02, 8.061946929e-02, 1.520904480e-03, 4.567786679e-02, 1.261475682e-01, 8.711927384e-02, 6.008100510e-02, 8.502057940e-02, -1.622809912e-03, 6.451912969e-02, 5.459868163e-02, -1.577019542e-01, 9.243044257e-02, -6.789431442e-03, -4.048093408e-02, -3.186879307e-02, 6.175883487e-02, 1.107279733e-01, 1.002269238e-02, 1.252422342e-03, -4.393482581e-02, -1.196484044e-01, 4.873747379e-02, -6.212340668e-02, 4.950990528e-02, 5.835373327e-02, 1.216837093e-01, 1.171056181e-01, 1.160413548e-01, -2.804143820e-03, 1.637134105e-01, 1.962239742e-01, 1.597315371e-01, 9.454503655e-02, 1.420699209e-01, -4.581186455e-03, 8.073649555e-02, 8.449026942e-02, 7.077185065e-02, 7.830083370e-02, 1.502592117e-01, 1.357250959e-01, 7.707847655e-02, 1.816385686e-01, 1.111943498e-01, 1.103565916e-01, 1.629277319e-01, 1.131909043e-01, 8.250697702e-02, 1.583931297e-01, 1.798042208e-01, 1.244515702e-01, 1.387365311e-01, 1.242286041e-01, 9.950641543e-02, 1.475491524e-01, 1.086429283e-01, 1.516586691e-01, 6.334201247e-02, 1.600632668e-01, 1.403282434e-01, 1.620784700e-01, 1.267668605e-01, 1.723148525e-01, 2.136795670e-01, 4.252569377e-02, 1.201501191e-01, 1.299514920e-01, -5.932598142e-04, 9.533652663e-02, 1.514557749e-01, 1.772781275e-02, 1.338573843e-01, 1.385949105e-01, 1.741293520e-01, 1.174511388e-01, 1.592146456e-01, 1.821587831e-01, 1.559649408e-01, 1.481926814e-02, 4.211024195e-02, 7.433359325e-02, 9.680571407e-02, 8.771587908e-02, 1.074771583e-01, 1.310403198e-01, -4.904044792e-03, 8.413446695e-02, 2.505003102e-02, 1.062994152e-01, 5.112057552e-02, 1.112874970e-01, 5.095877498e-02, 6.536274403e-02, 1.227959394e-01, 1.441769451e-01, 6.238116324e-02, 6.325048953e-02, 7.059828937e-02, 1.976903677e-01, 1.487908661e-01, 3.677410632e-02, 1.302273571e-01, 3.696502373e-02, 8.191817999e-02, 1.869398355e-01, 1.364776492e-01, 5.479767174e-02, 1.867977828e-01, 1.434632540e-01, 1.682944298e-01, 9.116826206e-02, 1.478967369e-01, 1.452340633e-01, 3.834795440e-03, 2.492139041e-01, 1.492306292e-01, 1.564998329e-01, 8.383499831e-02, 2.087655813e-01, 7.814955711e-02, 1.075481251e-01, 9.721249342e-02, 1.303037852e-01, 1.297735572e-01, 1.050814288e-03, 9.426708519e-02, 1.298505962e-01, 1.505558938e-01, 1.588270813e-01, 1.443060935e-01, 1.879823655e-01, 1.159675196e-01, 1.377818584e-01, 5.929188803e-02, 3.578242660e-02, 1.923830658e-01, 6.800799072e-02, 1.461945474e-01, 1.502987593e-01, 1.499542892e-01, 1.145812944e-01, 1.375361830e-01, 9.465144575e-02, 1.418353766e-01, 2.078832239e-01, 1.715425998e-01, 1.428342164e-01, 1.070161462e-01, 3.048469126e-02, 1.817369759e-01, 1.465568095e-01, 2.205796540e-01, 2.131870985e-01, 2.043061703e-01, 1.917857677e-01, 9.846948832e-02, 1.131662726e-01, 1.840633750e-01, 7.676954567e-02, 1.640573740e-01, 1.118375510e-01, 1.551927924e-01, -1.266749669e-02, 2.185866684e-01, 1.991719306e-01, 1.774963289e-01, 1.872009933e-01, 1.640595496e-01, 8.680904657e-02, 8.021423966e-02, 1.055238098e-01, 3.137995303e-02, 1.857767999e-01, 1.040158570e-01, 1.636713594e-01, 1.008788943e-01, 1.779139638e-01, 1.059197262e-01, 1.463174820e-01, 1.620537192e-01, 1.570172906e-01, 1.595711112e-01, 1.528677940e-01, 9.169585258e-02, 2.428019941e-01, 1.514461637e-01, 1.172464937e-01, 1.229805499e-01, 1.302139610e-01, 2.274990976e-01, 1.043217406e-01, 1.479370147e-01, 1.864930093e-01, 1.217318401e-01, 7.884708047e-02, 1.302271783e-01, 2.534919679e-01, 5.235436186e-02, 1.457251012e-01, 1.976109147e-01, 1.289461851e-01, 2.330864221e-01, 1.131446362e-01, 1.124094948e-01, 1.956798285e-01, 1.868074089e-01, 7.489258051e-02, 1.877706051e-01, 1.836414188e-01, 1.857635379e-01, 1.563680768e-01, 1.137832925e-01, 1.698022634e-01, 1.424062252e-01, 1.870549768e-01, 2.090041786e-01, 2.713071108e-01, 2.801064253e-01, 1.933776289e-01, 2.736037076e-01, 2.670824230e-01, 4.148961604e-01, 3.558814526e-01, 2.759113312e-01, 3.189811707e-01, 2.206232101e-01, 3.010337651e-01, 4.108779132e-01, 2.739218175e-01, 3.018018603e-01, 3.007775247e-01, 2.754644752e-01, 2.642295063e-01, 3.657478988e-01, 2.356448621e-01, 3.567364216e-01, 3.157580197e-01, 3.710217178e-01, 2.947188318e-01, 3.690060079e-01, 3.598622084e-01, 3.654728532e-01, 2.770403326e-01, 3.215368688e-01, 2.664901912e-01, 2.699355185e-01, 3.324422836e-01, 3.578393459e-01, 2.902385294e-01, 2.988653183e-01, 3.154748678e-01, 2.698307335e-01, 3.108615875e-01, 2.787561417e-01, 2.621949017e-01, 2.529620230e-01, 2.477849871e-01, 3.166226447e-01, 2.939432561e-01, 3.208897710e-01, 2.764109671e-01, 3.715127110e-01, 3.069784939e-01, 2.315844893e-01, 1.571188271e-01, 4.205875993e-01, 2.562504113e-01, 3.319625556e-01, 2.486605197e-01, 3.649545312e-01, 2.244873196e-01, 3.332146108e-01, 2.631972432e-01, 3.196535110e-01, 3.483577669e-01, 2.125124335e-01, 3.654333353e-01, 1.789030135e-01, 2.576407194e-01, 8.919588476e-02, 1.039128453e-01, 1.366879493e-01, 7.575138658e-02, 1.140931505e-03, 6.182065234e-02, 7.251533866e-02, 7.936914265e-02, 1.654703617e-01, 6.155982614e-02, 6.836669892e-02, 7.296094298e-02, 8.337201923e-02, 1.340935230e-01, 6.605991721e-02, 9.618637711e-02, 9.703765810e-02, 9.015382826e-02, 8.538746089e-02, 4.370427504e-02, 9.922190011e-02, 1.455830634e-01, 8.389756083e-02, 6.712958217e-02, 8.381979913e-02, 7.065224648e-02, 3.638214618e-02, 1.886105910e-02, 7.561565936e-02, 9.199198335e-02, 9.174912423e-02, 7.421302795e-02, 3.875342384e-02, 9.351328015e-02, 8.387061208e-02, 6.417546421e-02, 8.454082161e-02, 6.194720417e-02, 3.775770590e-02, 7.358254492e-02, 4.933833610e-03, 2.524481714e-02, 3.621194139e-02, 8.683516830e-02, 1.443256810e-02, 6.038569659e-02, 8.074785769e-02, 6.475220621e-02, 8.675677329e-02, 6.080855057e-02, 5.114128068e-02, -3.098331206e-02, 8.284197748e-02, 1.010398865e-01, 1.193929240e-01, 4.004032165e-02, 5.653631687e-02, 9.440708160e-02, 7.921587676e-02, 8.354390413e-02, 6.180381775e-02, 5.113994703e-02, 3.121747263e-02, 1.606229320e-02, -1.351007074e-02, 4.990342632e-02, -4.300397635e-02, -2.427194826e-02, 4.125361890e-02, 3.090892918e-02, -1.288246550e-02, -9.585667402e-02, -4.497930408e-02, 6.003595889e-02, 6.319362670e-02, -2.954860218e-03, 1.593302004e-02, -5.302176811e-03, -7.196076959e-02, -3.017390333e-02, -8.682383224e-03, 6.032305770e-03, 4.403461702e-03, 4.027824476e-02, 2.463649027e-02, -1.507229730e-02, -3.690251848e-03, 5.890770629e-02, 1.633438282e-02, 3.055406734e-02, 6.059241667e-02, 4.389512539e-02, 3.974630497e-03, 2.017782070e-02, 1.310896128e-02, 1.835429855e-02, 1.202217396e-02, 3.703940287e-02, 1.048435345e-01, 5.032756552e-02, 3.269306570e-02, 2.828469686e-02, -6.719138939e-03, 6.519414485e-02, 7.772685494e-03, -3.514349693e-03, -1.459323335e-03, 6.163031980e-02, 4.930004478e-03, -1.326540951e-02, 8.335181512e-03, 3.276054561e-02, -6.025634706e-02, -1.329353545e-02, -2.585038543e-02, -1.993714087e-02, -5.225595087e-02, -3.638458252e-02, 1.908069104e-02, -2.650147304e-02, 6.359249353e-02, 7.372003514e-03, 4.018812627e-02, -5.500839557e-03, 1.834042929e-02, -4.443496838e-02, 4.507601634e-02, -6.797670852e-03, 8.449890465e-02, -7.847478241e-02, -8.387098461e-02, -3.945530951e-02, -2.109639719e-02, -6.438873708e-02, -6.821747869e-02, 1.578035392e-02, -6.604233384e-02, -6.943406910e-02, -3.527092189e-02, -4.354538023e-02, -1.262930632e-01, -3.177237138e-02, -6.606728584e-02, -2.776619233e-02, -6.759452075e-02, -5.263875425e-02, -6.611746550e-02, -5.220247805e-02, -5.362066999e-02, -7.249424607e-02, 4.032005556e-03, 1.967371628e-02, -3.935489431e-02, -6.849326193e-02, -6.944701076e-02, -8.427755535e-02, -1.099019647e-01, -7.716286927e-02, -3.161670268e-02, -5.259629712e-02, -7.512541115e-02, -7.709329575e-02, -6.143090129e-02, -6.119107828e-02, 1.785800979e-02, -5.446050689e-02, -6.819808483e-02, -8.088313043e-02, -9.016335011e-02, -8.138218522e-02, -1.277107596e-01, -5.755516887e-02, -5.227169767e-02, -7.029594388e-03, -9.057157487e-02, -9.798389673e-02, -2.152528614e-02, -5.854111537e-02, -8.805323392e-02, -5.630249903e-02, -7.121492177e-02, -8.948272467e-02, -8.621434867e-02, -2.575904131e-02, -4.145892337e-02, -8.805530518e-02, -5.751622468e-02, -3.461081907e-02, -7.184937596e-02, -2.018002793e-02, -4.705356434e-02, -3.232112527e-02, -5.713061243e-02, -7.091049105e-02, -2.063600533e-02, -7.285698503e-02, -6.331381947e-02, -9.080043435e-02, -9.658441879e-03, -6.826461107e-02, -6.234222651e-02, -8.754102886e-02, -5.961035937e-02, -3.422478214e-02, -3.018094599e-02, -5.396322906e-02, -7.470820844e-02, 9.387193248e-03, -6.852498651e-02, -6.693772227e-02, -3.153422615e-03, -6.164142117e-02, -5.835535005e-02, -6.266909093e-02, -1.503703371e-02, -9.390828013e-02, -2.665630542e-02, -5.798470601e-02, -4.054532200e-02, -5.924186483e-02, -7.748997211e-02, -6.650654227e-02, -8.317075670e-02, -1.314177513e-01, -7.376268506e-02, -2.074398845e-02, -6.300474703e-02, -5.977004766e-03, -2.862736210e-02, -1.391382664e-01, -5.885451287e-02, -8.364672959e-02, -8.340431005e-02, -8.937206864e-02, -1.494197398e-01, -6.393185258e-02, -7.647030056e-02, -7.037107646e-02, 4.011518136e-02, 9.894036921e-04, 2.308942378e-02, -5.066980049e-02, -3.464803845e-02, -1.042917594e-01, -2.017444558e-02, -1.258228123e-01, -1.172211990e-01, 1.004588790e-02, -1.984609850e-02, -6.054428220e-02, -8.054160327e-02, -6.890512258e-02, -9.679265320e-02, -5.473358929e-02, -8.333561569e-02, 1.419400796e-02, -1.305194497e-01, -9.053926915e-02, -1.090581864e-01, -9.579474479e-02, -6.246656179e-02, -1.037858501e-01, -4.935622215e-02, -7.374150306e-02, -3.638819978e-02, -9.018721431e-02, -1.191731691e-01, -9.884130210e-02, -4.711817950e-03, -8.787976578e-03, -9.504986554e-02, -4.317653924e-02, -1.377347857e-01, -9.413999319e-02, -1.354561895e-01, -6.041004136e-02, -1.379293650e-01, -7.647113502e-02, 1.146551594e-02, -9.880374372e-02, -7.000339031e-02, -3.414451703e-02, -7.899111509e-02, -2.317436226e-02, -5.962003022e-02, -6.497640163e-02, -9.732432663e-02, -7.748237252e-02, -4.792158678e-02, -4.489090759e-03, -1.237938777e-01, -1.207880527e-01, -1.265289783e-01, -2.622216754e-02, -8.668228984e-02, -5.247877538e-02, -1.111234501e-01, -1.130372807e-01, -4.727130011e-02, -6.353002787e-02, -1.214351207e-01, -9.055671096e-02, -9.680616856e-02, -1.328875273e-01, -9.688761830e-02, -1.024113894e-01, -1.002429798e-01, -1.695562005e-01, -9.832001477e-02, -1.123385727e-01, -7.910414785e-02, -1.159209162e-01, -1.584159285e-01, -1.048032641e-01, -1.448534727e-01, -1.403439939e-01, -1.555213034e-01, -7.634228468e-02, -8.677201718e-02, -1.462041289e-01, -2.084261924e-01, -1.991954893e-01, -2.221127599e-01, -1.222093850e-01, -1.892960817e-01, -2.067260444e-01, -2.346090674e-01, -2.273611724e-01, -2.602428794e-01, -2.838779092e-01, -2.304584384e-01, -1.720884740e-01, -2.023357004e-01, -2.082632631e-01, -1.601217687e-01, -1.822990626e-01, -2.223375589e-01, -1.629726142e-01, -2.183177173e-01, -2.030900419e-01, -2.024210989e-01, -2.242451608e-01, -2.546013892e-01, -2.228644490e-01, -1.589178294e-01, -2.410980016e-01, -2.003186643e-01, -2.987725139e-01, -2.099254280e-01, -1.966777295e-01, -2.720131278e-01, -2.340090871e-01, -2.549901605e-01, -2.098188996e-01, -1.679179519e-01, -2.417954952e-01, -1.814454496e-01, -2.359764725e-01, -2.610185742e-01, -2.614416778e-01, -2.306881398e-01, -2.146419585e-01, -2.516137958e-01, -2.538784742e-01, -2.687711120e-01, -2.854368687e-01, -2.034064084e-01, -2.039622962e-01, -2.587203979e-01, -2.025568485e-01, -2.278385609e-01, -3.020242155e-01, -2.372457683e-01, -2.069481164e-01, -1.882329434e-01, -2.456158847e-01, -2.710229754e-01, -2.020105273e-01, -2.826823294e-01, -2.539353073e-01, -3.053921461e-01, -2.272406965e-01, -2.089478076e-01, -2.371672094e-01, 2.153277397e-02, 7.916912436e-02, 9.971153736e-02, 1.615576297e-01, 4.954503849e-02, 4.341313243e-02, 4.957543314e-02, 5.331738666e-02, 5.259761959e-02, -1.222482789e-02, 9.832105786e-02, 2.157197706e-02, 1.028673723e-01, 3.879206255e-02, 1.150170490e-01, 3.775862977e-02, 1.587518901e-01, 3.862560913e-02, 4.316928610e-02, 1.006673127e-01, 8.052812517e-02, 6.438416988e-02, 3.628726676e-02, 8.095175028e-02, 9.024956822e-02, 1.362133957e-02, 7.087037712e-02, 7.434681058e-02, 4.452551529e-02, 6.229951605e-02, 5.626615509e-02, 6.951025873e-02, -4.606185481e-03, 1.353542805e-01, 1.026347429e-01, 9.864289314e-02, 6.936681271e-02, 8.280804753e-02, 8.248825371e-02, 1.264213864e-02, 9.831279516e-02, 1.349453330e-01, 4.679665342e-02, 9.661994129e-02, 6.447097659e-02, 8.511405438e-02, 9.518651664e-02, 1.116400138e-01, 9.358992428e-02, 6.203527376e-02, 4.396147653e-02, 8.826487511e-02, 6.567928195e-02, 7.662066072e-02, 6.063148752e-02, 7.857420295e-02, 9.143012017e-02, 7.756786048e-02, 7.756324112e-02, 4.144981131e-02, 2.237220528e-03, 7.498322427e-02, 7.062312216e-02, 2.718607523e-02, 3.635314107e-02, 6.343179196e-02, 7.618546020e-03, 3.411148489e-02, 3.480289504e-02, -8.755329251e-02, -8.835118264e-03, -1.527943835e-02, -2.912246250e-02, -3.838121146e-02, -4.818289541e-03, -4.239122197e-02, -7.966624945e-02, -6.074880809e-02, -9.963903576e-02, 7.198897004e-02, -1.104157791e-02, -2.694331855e-02, -1.498999074e-02, -2.037532255e-02, 7.778450102e-02, 4.357553553e-03, -3.563771024e-02, 3.269467736e-03, 3.183768317e-02, 2.199382894e-02, -3.236276656e-02, 5.503636226e-02, 7.335460186e-02, 1.189323608e-02, -2.090282366e-02, -1.719244407e-03, 1.906489022e-03, -1.740720682e-02, 2.494589984e-02, 9.130199440e-03, -2.776946058e-04, 6.838574074e-03, 4.845001735e-03, -4.200088605e-02, 3.449006006e-02, -7.237023860e-02, 1.427385304e-02, 3.970832005e-02, -3.053829819e-02, 1.964773424e-02, -5.273813382e-02, -1.999786496e-02, 6.617906690e-02, -1.511453371e-02, 6.661263853e-02, -9.080146439e-03, -1.041980740e-02, 7.019799203e-02, -9.789170697e-03, -4.996204004e-02, 6.692205556e-03, 4.576752335e-02, -2.253902517e-02, 1.538131945e-02, 3.789355606e-02, -3.067156114e-02, 1.257787198e-01, -4.898798093e-02, -4.361500964e-02, 3.574955463e-02, -7.396266609e-02, 2.156338654e-03, -5.920933932e-02, -8.744698949e-03, -1.299582515e-02, -5.103700608e-02, -3.031577542e-02, -2.710881457e-02, -6.179792434e-02, -4.429693520e-02, -6.730327755e-02, -7.569350302e-02, -2.791498043e-02, -7.064159960e-02, -6.343995780e-02, -1.097666845e-01, -3.957449272e-02, -6.461876631e-02, -7.198866457e-02, -7.609564066e-02, -6.508879364e-02, -8.904930204e-02, -9.763643891e-02, -7.340575010e-02, -5.314770620e-03, -3.484975547e-02, -7.554501295e-02, -3.261205554e-02, -7.562175393e-02, -4.734737054e-02, -9.071503580e-02, -8.897005022e-02, -3.847736865e-02, -7.216145098e-02, -3.697660193e-02, -7.421669364e-02, -9.219686687e-02, -3.135273233e-02, -6.280203909e-02, -2.942184545e-02, -1.209329814e-01, -7.683654875e-02, -8.528440446e-02, -5.264773592e-02, -4.503464699e-02, -1.485593617e-02, -9.681265801e-02, -2.681860887e-02, -6.223993748e-02, -1.520889997e-01, -4.699475318e-02, -4.289386794e-02, -1.617146730e-01, -4.633497819e-02, -2.114576660e-02, -1.004846767e-01, -6.150770932e-03, -8.226863295e-02, -1.200503930e-01, -7.905937731e-02, -7.887033373e-02, -5.348291248e-02, -3.810438886e-02, -8.068115264e-02, -6.801910233e-03, -6.323862076e-02, -7.966159284e-02, -8.029204607e-02, -9.556027502e-02, -4.058328271e-02, -4.945089296e-02, -7.524663955e-02, -8.837228268e-02, -9.094327688e-02, -3.294669837e-02, -9.774926305e-02, -6.293188035e-02, -1.192853749e-01, -6.921392679e-02, -4.591903463e-02, -8.885820955e-02, -1.048529595e-01, -7.884337008e-02, -8.238980174e-02, -8.599506319e-02, -6.701280177e-02, -2.080414072e-02, -7.433858514e-02, -9.734906256e-02, -7.444827259e-02, -7.119885087e-02, -1.117369905e-01, -1.005477309e-01, -1.433787644e-01, -4.344160482e-02, -7.452811301e-02, -1.097111627e-01, -1.058153436e-01, -1.322800070e-01, -6.698390841e-02, -2.817974612e-02, -1.900537312e-02, -5.909919366e-02, -4.599972442e-02, -5.851162598e-02, -7.998046279e-02, -8.790091425e-02, -7.544726133e-02, -6.901042163e-02, -1.000159234e-01, -8.047360927e-02, -6.470546126e-02, -8.230841905e-02, -1.294485331e-01, -1.106473058e-01, -5.236592516e-02, -4.757165909e-02, -9.146717936e-02, -6.843214482e-02, -1.054631099e-01, -6.549103558e-02, -1.144078560e-02, -8.479169011e-02, -8.202250302e-02, -9.896419197e-02, -7.312407345e-02, -1.431767642e-01, -1.368702501e-01, -9.267730266e-02, -1.113013327e-01, -8.736585826e-02, -1.052767187e-01, -1.247160509e-01, -9.716339409e-03, -8.357399702e-02, -1.087054089e-01, -1.310244054e-01, -1.156254858e-01, -2.330588177e-02, -8.516772091e-02, -1.018125042e-01, -9.162978083e-02, 1.842111349e-02, -1.345157027e-01, -1.390958577e-01, -1.104046032e-01, 1.479913201e-02, -1.105566770e-01, -9.279014170e-02, -1.415607333e-01, -9.697440267e-02, 3.635110334e-02, -9.146694094e-02, -1.051015630e-01, -5.294723064e-02, -1.068852097e-01, -8.394364268e-02, -1.314348634e-02, -9.010682255e-02, -8.361175656e-02, -9.393745661e-02, -3.643227741e-02, -5.077173188e-02, -6.538038701e-02, -1.164470613e-01, -1.034999043e-01, 2.283916809e-02, -1.349381804e-01, -8.961039782e-02, -1.196046844e-01, -8.755721152e-02, -6.212700624e-03, -1.108615324e-01, -8.166590333e-02, -1.227096766e-01, -1.306451112e-01, -1.096793190e-01, -1.090989336e-01, -1.193087026e-01, -8.128465712e-02, -1.277289093e-01, -1.012422368e-01, -1.152162775e-01, -1.233576760e-01, -1.047683656e-01, -9.853043407e-02, -7.424238324e-02, -1.409247518e-01, -8.491854370e-02, -7.138095051e-02, -2.347231805e-01, -3.208968937e-01, -2.296326756e-01, -3.586123288e-01, -2.610650957e-01, -2.477414012e-01, -2.036382854e-01, -2.201071382e-01, -2.809849381e-01, -2.182224691e-01, -1.853589714e-01, -2.475785911e-01, -2.636228502e-01, -2.483651042e-01, -2.438859195e-01, -2.276798338e-01, -2.353201509e-01, -2.350053638e-01, -2.059402168e-01, -2.724978030e-01, -2.278275043e-01, -2.422495037e-01, -2.727239132e-01, -1.950635463e-01, -2.110644132e-01, -2.000450790e-01, -2.036210597e-01, -2.715721726e-01, -2.544975281e-01, -2.078917176e-01, -2.939997613e-01, -2.267418057e-01, -2.251319736e-01, -2.685299218e-01, -1.892119050e-01, -2.540439069e-01, -2.874197662e-01, -2.245673537e-01, -2.021513581e-01, -2.436844856e-01, -2.027427405e-01, -1.925500631e-01, -2.139289230e-01, -2.630440593e-01, -2.068653554e-01, -2.051246166e-01, -2.796211243e-01, -1.917280257e-01, -2.614274621e-01, -2.027604282e-01, -2.524341643e-01, -1.774749607e-01, -2.183100134e-01, -2.272871435e-01, -1.945696622e-01, -3.160353601e-01, -2.338300198e-01, -1.587019116e-01, -3.072581887e-01, -2.178747654e-01, -1.983429193e-01, -2.424331605e-01, -2.248850614e-01, -2.059568316e-01, 7.416400313e-02, 1.128802672e-01, 8.581420779e-02, 4.386234656e-02, 3.081835806e-02, 1.043847352e-01, 3.484927863e-02, 4.626620933e-02, 5.150380731e-02, 4.926022515e-02, 1.017854512e-01, 2.914767899e-02, 3.227427602e-02, 8.644275367e-02, 1.024252400e-01, 3.986781836e-02, 8.102267981e-02, 7.734186202e-02, 4.729150236e-02, 5.547400564e-02, 1.267838776e-01, 2.938342839e-02, 2.826902084e-02, 4.867300391e-02, 1.904792152e-02, 4.859707505e-02, 7.120719552e-02, 1.000949517e-01, 1.386770457e-01, 1.356967241e-01, 4.914095253e-02, 7.760953158e-02, 9.053798765e-02, 5.531113222e-02, 8.588615060e-02, 8.266008645e-02, 8.098502457e-02, 7.751058042e-02, 1.396689713e-01, 8.567541838e-02, 5.888633803e-02, 7.081927359e-02, 3.269291669e-02, 7.290117443e-02, 4.857809469e-02, 1.175225079e-01, 3.223363776e-03, 1.152651161e-01, 1.140759364e-01, -2.231566422e-02, 2.331246808e-02, 1.000474468e-01, 4.327617586e-02, 2.487400174e-02, -7.519407570e-02, 3.048460186e-02, 7.130599767e-02, 6.231561303e-03, -2.146130614e-02, 6.185884774e-02, 5.262928084e-02, 1.702924632e-02, -1.615497097e-02, 3.893907368e-02, 7.034898154e-04, 3.951676935e-02, -3.888893500e-02, 3.818117455e-02, -4.341210797e-02, -9.300676174e-03, 6.430189312e-02, -1.044024248e-02, 2.116774395e-02, 2.511347458e-02, 6.518900394e-02, 5.353532359e-02, -6.195406243e-02, -3.494913224e-03, 1.128023397e-02, -1.078880485e-02, 7.543353736e-02, 7.813802920e-03, 8.870541304e-02, 1.129600108e-01, 1.733263135e-01, 3.055244312e-02, 4.985720664e-02, 6.364384294e-02, 4.035331775e-03, 1.100544035e-01, 6.938260049e-02, 1.699899882e-02, 7.994024456e-02, 1.646559536e-01, 1.187727973e-01, 9.775169194e-02, 4.848440737e-02, 4.193942994e-02, 3.200668842e-02, 8.229182661e-02, 3.357493132e-02, 7.479030639e-02, 1.436706912e-02, 9.428505599e-02, 5.058482755e-03, 6.929641962e-02, 9.112716466e-02, -1.129968930e-02, 7.598820142e-03, 3.384405375e-02, 1.761958376e-02, 3.579257429e-02, 7.333448529e-02, 1.529503912e-01, -5.440853536e-03, 7.657170296e-02, 1.259626541e-02, 1.295083463e-01, 2.579716220e-02, 1.510100365e-01, 4.879160225e-02, 7.076999545e-02, 2.326995507e-02, -6.510923058e-02, 5.223808112e-04, -1.363535132e-02, 1.997983269e-02, -6.666215509e-02, 1.175904125e-01, 1.086705253e-01, 7.393164188e-02, 8.191835135e-02, 1.481230929e-02, 6.759627908e-02, 8.315853029e-02, 1.703391671e-01, 1.437587887e-01, 9.649082273e-02, 1.146420762e-01, 1.306688637e-01, 1.302821934e-01, 1.239191182e-02, 6.712131947e-02, 1.075177491e-01, 9.972035885e-02, 1.533453912e-01, 2.007485032e-01, 7.084232569e-02, 1.542575657e-01, 2.037450671e-01, 7.953228056e-02, 1.318075657e-01, 1.623464078e-01, 8.561143279e-02, 1.228316724e-01, 1.358362008e-02, 1.231619865e-01, 3.367669880e-02, 1.072711349e-01, 1.630091369e-01, 1.239604205e-01, 6.666262448e-02, 1.221978515e-01, 1.188347936e-01, 1.911274791e-01, 1.653578281e-01, 1.192448139e-01, 2.484599361e-03, 7.768720388e-02, 1.088918895e-01, 1.394855678e-01, 1.198619679e-01, 9.189272672e-02, 1.174083725e-01, 1.348677278e-01, 1.156783849e-01, 5.853962526e-02, 1.056069434e-01, 1.246282235e-01, 1.635992825e-01, 6.166246533e-02, 1.101770774e-01, 4.681229964e-02, 1.224317774e-01, 8.610241115e-02, 8.819337189e-02, 1.429805607e-01, 1.769966185e-01, 1.542552710e-01, 9.895913303e-02, 1.305460371e-02, 1.667990088e-01, 1.151607782e-01, 5.936974287e-02, 1.723141819e-01, 3.119232319e-02, 9.095556289e-02, 8.325974643e-02, 1.321128607e-01, 1.435211450e-01, 2.072729729e-02, 6.924954802e-02, 1.164588183e-01, 1.338515729e-01, 1.331794411e-01, 6.307466328e-02, 1.533917189e-01, 9.845516831e-02, 1.535867453e-01, 1.631990671e-01, 1.006551385e-01, 1.881486326e-01, 1.900827140e-01, 8.400222659e-02, 1.816809773e-01, 4.282465205e-02, 1.584500372e-01, 1.199566051e-01, 1.313114464e-01, 1.345439106e-01, 9.096231312e-02, 5.212997273e-02, 7.533755153e-02, 1.567643881e-01, 1.256437004e-01, 6.272134930e-02, 5.354800820e-02, 1.678552777e-01, 8.630212396e-02, 1.078952998e-01, 1.706675738e-01, 1.833877759e-03, 1.338769048e-01, 1.648875326e-01, 1.611624062e-01, 1.451855004e-01, 1.103805229e-01, 4.963740706e-02, 2.062432319e-01, 1.088466644e-01, 1.538182050e-01, 1.545636803e-01, 1.085507721e-01, 8.883391321e-02, 1.322924793e-01, 1.411815286e-01, 1.073724926e-01, 1.481255889e-01, 1.104288250e-01, 4.189071432e-02, 8.021312207e-02, -9.888313711e-03, 1.045403853e-01, 9.265154600e-02, 2.266820371e-01, 1.393712461e-01, 9.851748496e-02, 7.367792726e-02, 2.261643857e-01, 1.936451644e-01, 1.436025351e-01, 8.318121731e-02, 1.746007055e-01, 1.552302390e-01, 2.505604029e-01, 2.034769505e-01, 1.602289826e-01, 1.386294067e-01, 1.353401095e-01, 7.959377766e-02, 1.567760557e-01, 2.180077434e-01, 1.518258750e-01, 1.694695950e-01, 1.475095600e-01, 1.261543185e-01, 1.714178175e-01, 1.572061777e-01, 2.083642781e-01, 1.974199116e-01, 1.650692821e-01, 1.374807507e-01, 2.099114805e-01, 7.563606650e-02, 2.860933840e-01, 2.103751451e-01, 1.681524217e-01, 2.372191697e-01, 1.300006211e-01, 1.542055309e-01, 1.325093806e-01, 1.489396989e-01, 1.078229994e-01, 1.809125394e-01, 1.427713931e-01, 1.031529456e-01, 1.576751918e-01, 2.184908539e-01, 1.431430727e-01, 1.841214895e-01, 1.770582944e-01, 1.871192455e-01, 1.606640220e-01, 1.534182280e-01, 1.395829618e-01, 1.669316888e-01, 1.506101936e-01, 1.379113346e-01, 1.283346266e-01, 1.073755994e-01, 1.538489908e-01, 2.136927694e-01, 1.910654753e-01, 1.651250869e-01, 2.323322743e-01, 7.481916994e-02, 2.012067586e-01, 2.022561282e-01, 1.693899930e-01, 1.525252163e-01, 3.424224854e-01, 2.723978460e-01, 2.370337248e-01, 3.068151772e-01, 3.024612963e-01, 2.480793148e-01, 3.094435334e-01, 3.116305172e-01, 2.084417194e-01, 3.371338248e-01, 3.196550608e-01, 2.619557083e-01, 2.657738328e-01, 3.293572366e-01, 3.049811721e-01, 2.837061286e-01, 2.091519386e-01, 3.164809048e-01, 3.156696558e-01, 3.628983498e-01, 2.965462208e-01, 3.134559691e-01, 3.887101710e-01, 2.788898349e-01, 2.948560119e-01, 2.692064643e-01, 2.502956688e-01, 2.606807053e-01, 2.238966972e-01, 3.465536833e-01, 2.095536143e-01, 2.682382762e-01, 1.683992445e-01, 2.771025002e-01, 2.749912143e-01, 2.819669247e-01, 3.467754424e-01, 2.589483857e-01, 2.613022923e-01, 2.561564445e-01, 2.500681281e-01, 3.609603345e-01, 2.603334486e-01, 2.965766788e-01, 2.561843395e-01, 3.418859243e-01, 2.872312665e-01, 2.749240100e-01, 2.397277653e-01, 3.631942272e-01, 2.171367705e-01, 2.227293700e-01, 3.367248178e-01, 2.878782749e-01, 2.602947354e-01, 2.782498002e-01, 1.880079061e-01, 2.847647369e-01, 1.658527255e-01, 2.555495203e-01, 3.072577715e-01, 2.744060755e-01, 2.799490690e-01, 2.702182531e-01, 3.601745516e-02, 7.662926614e-02, 5.551306158e-02, 1.413045265e-02, 5.962742493e-03, 5.574181676e-02, 4.060776532e-02, 3.567601368e-02, 8.158318698e-02, 4.975897074e-02, 4.293378443e-02, 6.973429769e-02, 3.486258909e-02, 5.651811883e-02, 9.434535354e-02, 6.969749928e-02, 3.614088520e-02, 5.260112137e-02, 8.839788288e-02, 2.506189421e-02, 3.300359100e-02, 8.721053600e-02, 8.047358692e-02, 6.012979150e-02, 6.023452803e-02, 1.097886637e-01, 6.926420331e-02, 6.451282650e-02, 9.481404722e-02, 5.284911767e-02, 8.415322006e-02, 7.975231111e-02, 7.399802655e-02, 4.921752214e-02, 8.308102936e-02, 1.496727914e-01, 6.647706032e-02, 7.685905695e-02, 9.926869534e-03, 9.240388125e-02, 7.802089304e-02, 6.592173129e-02, 3.728146106e-02, 5.277296901e-02, 6.793411076e-02, 9.931661934e-02, 1.330619585e-02, 1.295063049e-01, 4.003212973e-02, 7.425735891e-02, 4.335788637e-02, 6.518001109e-02, 7.561959326e-02, 6.333447248e-02, 1.236519441e-01, 3.975625709e-02, 3.841819987e-02, 9.402699769e-02, 1.088539138e-01, 8.731723577e-02, -3.886422515e-02, 6.319118291e-02, 5.182860047e-02, 1.113060191e-01, -3.630221635e-02, -4.914094135e-02, -1.127592027e-01, 4.701115191e-03, -5.586550012e-02, -5.168059468e-02, -7.570507005e-03, -8.498576283e-02, -4.325117171e-02, -1.221827194e-01, -4.690725356e-02, 1.505789463e-03, -2.897380851e-02, 1.191122085e-02, 5.193367600e-03, 2.282975614e-02, 3.032733221e-04, -4.662266874e-04, 2.145041153e-02, -3.250955138e-03, -4.513472319e-02, 1.441569626e-02, 1.260646805e-02, -3.308485821e-02, 1.652398519e-02, 1.119917538e-02, 6.217579171e-02, 7.690510154e-02, -3.349417076e-02, 9.470983408e-03, 4.699106142e-02, 8.375461213e-03, 5.761610344e-02, 1.429999340e-02, 3.310682625e-02, 4.767117277e-02, -1.641153358e-02, 2.202275023e-02, -3.753094003e-02, 2.140056156e-02, 7.580038160e-03, -1.278651599e-02, -5.277066305e-02, 5.124022136e-04, -3.718044981e-02, 8.600207977e-03, -4.792173859e-03, 3.898896277e-02, -6.237342581e-02, -2.720460854e-02, 8.840377443e-03, 2.327570878e-02, -1.092862245e-02, 2.439442463e-02, -8.309318125e-02, 5.024096370e-02, 1.121726781e-01, -6.653409451e-02, 5.784663185e-02, -3.018637002e-02, 3.678822517e-02, 1.357406192e-02, 8.001993597e-02, -3.716168180e-02, -2.246263623e-02, -5.801931769e-02, -6.052553281e-02, -1.184259579e-01, -9.114104509e-02, -4.214751348e-02, -3.396187723e-02, -1.568762772e-02, -3.760160506e-02, -7.720635831e-02, -8.955543488e-02, -8.814479411e-02, -8.431281149e-02, -9.645028412e-02, -7.007914782e-02, -7.064314932e-02, -8.186545968e-02, -3.585514845e-03, -6.534057111e-02, -5.534229428e-02, -6.854599714e-02, -1.549598575e-01, -6.701429188e-02, -8.387853205e-02, -7.810634375e-02, -5.692657828e-02, -5.699774250e-02, -7.839135081e-02, -9.240608662e-02, -1.829933375e-01, -5.415298417e-02, -1.064781770e-01, -6.781170517e-02, -7.453290373e-02, -5.583147332e-02, -5.233244225e-02, -9.854883701e-02, -8.201164007e-02, -1.246914491e-01, -8.319236338e-02, -2.821412496e-02, -5.393957719e-02, -6.651902199e-02, -4.911046848e-02, -3.198437765e-02, -9.539702535e-02, -1.382705569e-01, -2.939782105e-03, -3.177092969e-02, -5.439047515e-02, -7.985544950e-02, -1.181998774e-01, -9.990359843e-02, -1.110954508e-01, -1.028030589e-01, -1.204739660e-01, -9.168123826e-03, -1.113287061e-01, -6.220005080e-02, -7.536409050e-02, -7.093763351e-02, -5.693362653e-02, -1.260636002e-01, -1.048009545e-01, -4.567620531e-02, -6.890001893e-02, -6.556612253e-02, -6.469342113e-02, -7.685275376e-02, -6.638174504e-02, -4.498592764e-02, -8.626633883e-02, -1.204659417e-01, -9.432017058e-02, -8.749543875e-02, -5.713743344e-02, -3.008984774e-02, -7.108879834e-02, -8.857004344e-02, -1.172633544e-01, -1.664075553e-01, -1.189301535e-01, -7.556242496e-02, -8.489033580e-02, -7.163911313e-02, -1.140673086e-01, -1.014118642e-01, -1.576537043e-01, -4.239128903e-02, -7.320182770e-02, -1.007094011e-01, -8.091540635e-02, -9.268830717e-02, -1.210991666e-01, -6.559686363e-02, -1.533834487e-01, -5.329808965e-02, -9.173852205e-02, -9.323670715e-02, -7.793709636e-02, -1.226618588e-01, -7.224825025e-02, -9.750176966e-02, -1.313164532e-01, -4.985717312e-02, -6.479837745e-02, -4.249991104e-02, -1.165754199e-01, -8.844917268e-02, -1.517036855e-01, -7.027605921e-02, -1.273842603e-01, -1.296652257e-01, -9.202787280e-02, -1.471502334e-01, -4.481545091e-02, -1.528649628e-01, -4.885971174e-02, -7.220818847e-02, -5.118697137e-02, -3.810463473e-02, -7.090128213e-02, -2.966222540e-02, -7.720430195e-02, -4.295786843e-02, -1.250699908e-01, -1.256014407e-01, -6.775689125e-02, -1.184089854e-01, -7.661280036e-02, -1.196529269e-01, -1.605290622e-01, -4.580732062e-02, -5.506590381e-02, -8.101772517e-02, -1.152556986e-01, -1.579149365e-01, -1.130628362e-01, -1.244664490e-01, -1.201815829e-01, -9.106642753e-02, -8.081353456e-02, -8.565499634e-02, -1.160740033e-01, -1.710145622e-01, -9.914579242e-02, -8.952841908e-02, -1.186823696e-01, -8.481802046e-02, -8.237947524e-02, -7.178887725e-02, -1.424663365e-01, -6.301393360e-02, -8.779779822e-02, -1.186060831e-01, -1.251944900e-01, -1.317056268e-01, -1.201785058e-01, -1.188023984e-01, -1.346922219e-01, -1.357550323e-01, -8.797226846e-02, -8.543992043e-02, -4.657417536e-02, -8.193495125e-02, -8.385377377e-02, -1.059882641e-01, -1.060172468e-01, -1.327672452e-01, -1.516105235e-01, -1.099953428e-01, -9.822971374e-02, -1.066290587e-01, -1.152361780e-01, -8.740245551e-02, -6.710479409e-02, -1.175874844e-01, -1.443888545e-01, -1.351709962e-01, -9.583387524e-02, -1.074640229e-01, -1.333945841e-01, -8.652158082e-02, -9.844234586e-02, -7.788401097e-02, -8.916420490e-02, -1.039519832e-01, -5.732452124e-02, -6.643837690e-02, -7.724805921e-02, -9.671850502e-02, -9.033134580e-02, -2.253810614e-01, -2.794467211e-01, -2.935967147e-01, -3.091666698e-01, -2.595051229e-01, -3.101227582e-01, -2.393511832e-01, -2.722075284e-01, -2.567025721e-01, -2.722270489e-01, -2.830108702e-01, -2.876222432e-01, -2.308517247e-01, -2.548451722e-01, -2.205749303e-01, -2.522065639e-01, -2.154728025e-01, -1.967105120e-01, -2.510559261e-01, -2.846000493e-01, -2.504309118e-01, -1.753744185e-01, -2.221948653e-01, -2.134315521e-01, -1.997757852e-01, -2.760873139e-01, -1.867714971e-01, -2.813642919e-01, -2.772190273e-01, -2.689163089e-01, -1.629873663e-01, -2.516090870e-01, -2.716941833e-01, -2.676452994e-01, -2.591745853e-01, -2.735766470e-01, -2.681120932e-01, -2.274953127e-01, -2.895582020e-01, -3.256531954e-01, -2.667610049e-01, -2.178205252e-01, -2.498575896e-01, -2.150179893e-01, -2.598740160e-01, -1.794230640e-01, -2.772220969e-01, -2.399878055e-01, -2.595796883e-01, -2.161793113e-01, -2.271430641e-01, -2.180474401e-01, -2.385118902e-01, -2.905248404e-01, -3.179057837e-01, -2.792920172e-01, -2.353128940e-01, -2.412441224e-01, -1.880937070e-01, -2.364799529e-01, -2.021375299e-01, -2.562741637e-01, -2.180809081e-01, -2.616983354e-01, 8.236573637e-02, 5.976503342e-02, 2.463098615e-02, 8.190101385e-02, 8.968941867e-02, 5.867506936e-02, 8.676157892e-02, 8.284764737e-02, 1.019681096e-01, 1.227278411e-01, 7.523536682e-02, 1.007737294e-01, 8.820796758e-02, 1.119272709e-01, 9.680158645e-02, 8.533606678e-02, 6.246098131e-02, 6.896517426e-02, 1.797943003e-02, 5.746910349e-02, 5.119711906e-02, 8.783537894e-02, 8.880928904e-02, 7.538431883e-02, 5.866737664e-02, 1.124076769e-01, 1.163537800e-01, 9.463808686e-02, 3.580418974e-02, 1.029189378e-01, 5.327839404e-02, 6.139695272e-02, 4.631464928e-02, 2.501313575e-02, 9.452529997e-02, 7.668189704e-02, 1.141629815e-01, 4.230049625e-02, 7.345512509e-02, 3.816182166e-02, 2.384668402e-02, 1.051187292e-01, 1.493539959e-01, 6.369293481e-02, 9.612451494e-02, 8.066651225e-02, -5.785296112e-02, 9.412409365e-02, 1.160749942e-01, 4.341240972e-02, 9.409491718e-02, 1.694803475e-03, -6.502574682e-02, 1.358790845e-01, 3.212872520e-02, 5.746209249e-02, 3.068181127e-02, 1.430753991e-02, 8.028896153e-02, 6.154752523e-02, 6.875444949e-02, 3.633517399e-02, 6.666358560e-02, 1.896390691e-02, 4.155181721e-02, 1.031169817e-01, -3.024249105e-03, -8.485042304e-02, 3.456208855e-02, 1.936344802e-02, -7.312692702e-02, 8.381708525e-03, 5.406763405e-02, 1.240236219e-02, 3.817224503e-02, -3.568518162e-02, 1.073542535e-01, 7.238127291e-02, -3.919828741e-04, 1.340696961e-01, 1.709709018e-01, 4.898755811e-03, -4.311227426e-02, 7.125245780e-02, 1.017900780e-01, 1.431244165e-01, 6.001240388e-02, 7.523375750e-02, 3.367240354e-02, 1.570623554e-02, 5.215355754e-02, 1.250870526e-01, 9.233734012e-02, 2.099399082e-02, 1.208651811e-01, 6.696199998e-03, 6.857009977e-02, 1.070314869e-01, 7.869774103e-02, 1.011793539e-01, 9.564912319e-02, 1.409108639e-01, 3.203448653e-02, 8.094565943e-03, 1.364968810e-02, 6.470320374e-02, 1.205722839e-01, 1.587391645e-02, 2.382238209e-02, -5.141006038e-02, 7.093076408e-02, 1.161892787e-01, 2.166843973e-03, 1.587670594e-01, 4.421042651e-02, 4.472471029e-02, 5.690608174e-02, 4.459861293e-02, 2.304353006e-02, 3.933835775e-02, -3.702170029e-02, 1.265578438e-02, 1.033796743e-02, 7.821819186e-02, -6.220982224e-02, -8.373691142e-02, 9.073437005e-02, -8.836704306e-03, 2.058648169e-01, 1.039513126e-01, 1.585450321e-01, 1.882821918e-01, 3.430084791e-03, 8.822897822e-02, 1.421988755e-01, 1.585211754e-01, 6.239204481e-02, 1.167445853e-01, 8.030636609e-02, 1.906311214e-01, 1.094289795e-01, 1.137391701e-01, 1.453389972e-01, 1.074619219e-01, 4.713950306e-02, 1.379255950e-01, 9.950634092e-02, 1.951707006e-01, 1.756826639e-01, 3.414025158e-02, 1.383954585e-01, 1.935615987e-01, 1.576955616e-01, 8.148068190e-02, 5.471959338e-02, 2.137351930e-01, 1.426615268e-01, 1.654358357e-01, 1.204108894e-01, 1.008705348e-01, 1.197942644e-01, 5.731351301e-02, 1.562604606e-01, 2.105566114e-01, 1.616652310e-01, 1.111650467e-01, 1.140566096e-01, 1.558256149e-01, 1.531993896e-01, 1.601987779e-01, 2.530784309e-01, 1.754785180e-01, 8.618123829e-02, 4.214900360e-02, 1.492232233e-01, 1.229611263e-01, 4.757665470e-02, 1.529059708e-01, 1.353050023e-01, 1.645853072e-01, 1.125651523e-01, 1.715576798e-01, 8.083895594e-02, 2.054278105e-01, 7.857749611e-02, 8.081763983e-02, 1.792854369e-01, 1.004714891e-01, 1.026071683e-01, 1.148511693e-01, 1.207880527e-01, 9.039878845e-02, 1.232945025e-01, 1.285072416e-01, 1.013781354e-01, 8.145654947e-02, 1.145607531e-01, 1.080200821e-01, 9.495716542e-02, 6.560619175e-02, 1.482492536e-01, 2.842401341e-02, 2.272186875e-01, 1.321424842e-01, 1.428265125e-01, 1.712248176e-01, 6.189176068e-02, 5.880671740e-02, 2.269650102e-01, 1.318078339e-01, 1.771040857e-01, 1.273553967e-01, 1.558026224e-01, 1.884974688e-01, 1.173895374e-01, 7.959171385e-02, 1.301753670e-01, 5.551756918e-02, 9.922888875e-02, 1.295211315e-01, 3.307573497e-02, 1.450254470e-01, 1.091889739e-01, 1.224566177e-01, 1.091866568e-01, 3.661809862e-02, 1.188428178e-01, 1.267545074e-01, 1.616905481e-01, 2.293171436e-01, 1.873752028e-01, 4.436183348e-02, 8.706307411e-02, 6.709153205e-02, 1.080235615e-01, 1.278398037e-01, 6.307628751e-02, 1.206720471e-01, 1.483271569e-01, 1.213402748e-01, 1.399443597e-01, 7.314568013e-02, 1.376329921e-02, 1.319558471e-01, 1.045149416e-01, 1.967882663e-01, 1.985904574e-01, 1.207590029e-01, 1.784390956e-01, 1.185037270e-01, 1.729632318e-01, 1.242126971e-01, 1.021905616e-01, 6.863806397e-02, 2.203927934e-01, 1.448703557e-01, 1.553346813e-01, 1.673391014e-01, 2.071135491e-01, 1.878930181e-01, 1.875451058e-01, 2.265963256e-01, 9.881196171e-02, 1.904878765e-01, 1.434755772e-01, 1.833909303e-01, 2.286071479e-01, 9.045278281e-02, 1.981883794e-01, 8.806401491e-02, 1.346502751e-01, 1.810509264e-01, 7.569787651e-02, 1.626075804e-01, 2.093328685e-01, 2.010287344e-01, 1.013079509e-01, 1.909500957e-01, 2.141634673e-01, 2.706590295e-01, 1.081837788e-01, 1.383039802e-01, 1.089045405e-01, 2.158702016e-01, 8.538983762e-02, 1.720473170e-01, 1.021285579e-01, 1.173258275e-01, 2.463230938e-01, 2.079926729e-01, 2.305325121e-01, 1.952633858e-01, 2.277192324e-01, 1.558278799e-01, 1.767790318e-01, 1.144725829e-01, 1.427853256e-01, 1.654005796e-01, 2.044705600e-01, 2.386655062e-01, 1.403748393e-01, 1.724434346e-01, 2.455041856e-01, 2.246888429e-01, 1.791223735e-01, 1.973073184e-01, 1.461176425e-01, 2.148863673e-01, 2.146247625e-01, 1.453212947e-01, 2.406343818e-01, 1.952246130e-01, 1.288934350e-01, 1.793003082e-01, 6.465014070e-02, 1.513475925e-01, 2.163072228e-01, 1.702577323e-01, 6.516343355e-02, 8.661695570e-02, 3.330950141e-01, 2.782489359e-01, 2.643839419e-01, 3.316471279e-01, 2.254085839e-01, 2.574550509e-01, 3.126282692e-01, 2.857894301e-01, 2.741257846e-01, 2.604238093e-01, 2.108670175e-01, 2.032850683e-01, 3.289423585e-01, 2.453908920e-01, 3.077421784e-01, 2.516708970e-01, 2.835824788e-01, 2.947933674e-01, 3.562737703e-01, 2.592769563e-01, 2.671958804e-01, 3.204126358e-01, 3.187049925e-01, 3.431805670e-01, 4.013105631e-01, 3.174191713e-01, 2.841928601e-01, 3.008271456e-01, 2.526121438e-01, 3.580277562e-01, 3.165642023e-01, 2.903338969e-01, 3.146154881e-01, 3.211967051e-01, 3.423547447e-01, 2.492103130e-01, 3.261611164e-01, 3.628799617e-01, 2.845703065e-01, 2.899664342e-01, 1.549151838e-01, 3.111729324e-01, 2.826094031e-01, 2.856216133e-01, 2.396366596e-01, 3.203363717e-01, 3.215785325e-01, 3.561143875e-01, 3.037155867e-01, 2.468696833e-01, 2.898117006e-01, 2.844726145e-01, 2.243817598e-01, 3.663804531e-01, 3.556496203e-01, 3.444182575e-01, 3.350094855e-01, 2.570189834e-01, 2.778706253e-01, 3.478970826e-01, 2.965046465e-01, 2.782282531e-01, 2.765520811e-01, 3.761281967e-01, -6.484689564e-02, 1.875665411e-02, 6.429427862e-02, 6.675735861e-02, 8.346074820e-02, 4.976319894e-02, 5.501751974e-02, 6.302964687e-02, 4.478150606e-02, 3.340237588e-02, 5.566257238e-02, 7.239431888e-02, 2.009247616e-02, 3.496090323e-02, 1.548434608e-02, 5.011779070e-02, 1.352563798e-01, 9.701249003e-02, 5.749030039e-02, 4.833266139e-02, 9.052047879e-02, 7.145980000e-02, 3.162424639e-02, 5.775301531e-02, 6.775262207e-02, 7.000978291e-02, 4.822073504e-02, 7.293385267e-02, 2.788789943e-02, 1.594796032e-02, 4.538429901e-02, 2.971561439e-02, 8.039804548e-02, 5.616522580e-02, 8.096857369e-02, 2.628308721e-03, 5.429172888e-02, 1.187927425e-01, 4.584673420e-02, 7.235676795e-02, 8.061678708e-02, 7.116143405e-02, 1.204919294e-01, 2.402711287e-02, 6.112359092e-02, 1.195197627e-01, 1.186364889e-01, 6.728536636e-02, 5.123497173e-02, 8.716686070e-02, 5.518638715e-02, 8.538395166e-02, 5.875675753e-02, 3.389020637e-02, 5.734759197e-02, 4.431472719e-02, 5.895122513e-02, 5.963484198e-02, 9.592477977e-02, 6.196045130e-02, 1.800952852e-02, 4.243423790e-02, 1.199677065e-01, 4.762779176e-02, 8.201611042e-02, 2.274760604e-02, 1.252203621e-02, 3.427220881e-02, 2.887709532e-03, 2.119112574e-02, 4.107752349e-03, -4.083973169e-02, 6.848132610e-02, 9.411791712e-02, 5.063659325e-02, 1.306252647e-02, 7.819052786e-02, -4.787350073e-03, -1.189800818e-02, 3.842926770e-02, -8.927432820e-03, 1.583194919e-02, 8.748817444e-02, 7.255697250e-02, 6.663772278e-03, 3.149332711e-03, 2.747510932e-02, -3.467940167e-02, 3.943567351e-02, -3.200478107e-02, -7.496702671e-02, -9.806802124e-02, 5.501407385e-02, -5.575110763e-02, 3.191559017e-02, 8.574957401e-02, 5.069556832e-02, -5.959707126e-02, -1.703080256e-03, 1.537879463e-02, -1.870696433e-02, 2.322928514e-03, 5.062240362e-02, 4.650838673e-02, 4.654300585e-02, 7.369989902e-02, -4.156515375e-02, 1.449189782e-01, 9.386795573e-03, -6.252556294e-02, -7.052380592e-02, -1.030140147e-01, 4.953642562e-02, 7.617633790e-02, 1.049229205e-01, -1.569343917e-02, 1.376912091e-02, -9.671459906e-03, -1.674074084e-01, -5.875274073e-03, -1.979125291e-02, -4.369440675e-02, -1.064216252e-02, 6.254309323e-03, 1.210402548e-01, -1.723112538e-02, 5.501286685e-02, -6.623043679e-03, 1.035885215e-01, -9.284582734e-02, -5.990802124e-02, -4.550688714e-02, -6.401997060e-02, 3.063818906e-03, -2.978765406e-02, -5.888694897e-02, 5.522476509e-02, -1.430830210e-01, -7.383309305e-02, 4.737916961e-02, -4.166311398e-02, -6.113221124e-02, -1.790497005e-01, 1.312089805e-02, -8.164912462e-02, -7.143580588e-04, -6.377445068e-03, 2.945221215e-02, -1.944694519e-01, -1.992285252e-02, -1.972855330e-01, -9.782160819e-02, 3.390950849e-03, 4.073432833e-02, 4.307854921e-03, -4.352138564e-02, -6.139542907e-02, 2.479911782e-02, 8.184891194e-02, -4.586736858e-02, -2.732360177e-02, 1.983316243e-02, -1.628676988e-02, -1.041291505e-01, -1.121197641e-01, -3.606746346e-02, -1.268579066e-01, -7.741544396e-02, 3.665707260e-02, -1.861522794e-01, 1.158611197e-02, -9.524849802e-02, -3.799049184e-02, -1.862901449e-01, 1.171676815e-02, 3.352520987e-02, 3.201748803e-02, -4.031828791e-02, 1.298677549e-02, -8.191009611e-02, -3.709220141e-02, -1.323836744e-01, -2.378623746e-02, -4.712754488e-02, 2.595502324e-02, -8.802577853e-02, -2.391632460e-02, -4.606794938e-02, -1.512103379e-01, -9.389339387e-02, -1.477644499e-02, -9.354032576e-02, -7.819391787e-02, -5.554715637e-03, -1.613279432e-02, 8.841027506e-03, -5.604457110e-02, -7.672676444e-02, -1.573915780e-02, -6.935264170e-02, -2.241158113e-02, -1.198879182e-01, -1.411133856e-01, -7.208403945e-02, -7.599945366e-02, -5.293414462e-03, -3.491972387e-02, -6.587041169e-02, 2.215821110e-02, -4.761897400e-02, -4.038154706e-02, -6.728454679e-02, -9.082052112e-02, 2.096156217e-02, -3.916686773e-02, -1.050413921e-01, -1.026245207e-01, -6.702088285e-03, -1.081997976e-01, -8.722986095e-03, -7.774101198e-02, -8.264671266e-02, -1.543989684e-02, -1.145069022e-02, -3.302899748e-02, 8.172897622e-03, -7.528278977e-02, -8.425438404e-02, -1.429995149e-01, 4.937193822e-03, 1.134830154e-02, -3.361292649e-03, -1.313610226e-01, -3.545268904e-03, -5.538118258e-02, -1.389191598e-01, -1.130290851e-01, 3.438474238e-02, -1.464754790e-01, -1.734654768e-03, -1.892421991e-01, 1.600576192e-02, -2.576402389e-02, -2.932909317e-02, -1.333441883e-01, -9.502984583e-02, -1.912260428e-02, 1.772787236e-02, -8.144239336e-02, -1.182331443e-01, 3.310519829e-02, -1.230166182e-01, 4.421171173e-02, 1.122936010e-01, -3.884841502e-02, 1.008369494e-02, -2.161745876e-01, -1.035578698e-01, -9.954033047e-02, -1.686448157e-01, -9.612807631e-02, -1.393272430e-01, -1.856519431e-01, -1.899543107e-01, -1.055618823e-01, -1.544256657e-01, 9.774083272e-03, 1.186265983e-02, -8.986121416e-02, -1.250865906e-01, -4.591073096e-02, -1.323209256e-01, -1.219235882e-01, -1.307800412e-01, -6.317372620e-02, -1.755549908e-01, -5.317384750e-02, -2.609987259e-01, -8.064282686e-02, -9.123985656e-03, 1.434453484e-02, -9.940367937e-02, -7.070147991e-02, -1.040430367e-01, -1.574799716e-01, -7.288713753e-02, -1.856019162e-02, -1.717029139e-02, -3.750045225e-02, -4.002038389e-02, -1.076968610e-01, -8.922237158e-02, -6.003091112e-02, -1.024688855e-01, -8.242991753e-03, -3.937505931e-02, -1.110214218e-01, -1.232751012e-01, -4.891539738e-02, -1.058569476e-01, -1.128103770e-02, -1.622404903e-01, -5.779251456e-02, -1.913915202e-02, -4.793768004e-02, -4.900356755e-02, -6.628331542e-02, -1.011896804e-01, -1.046637371e-01, -1.255379319e-01, -3.419090435e-02, -1.243689135e-01, -7.959164679e-02, -5.179107189e-02, -9.041528404e-02, -2.103620768e-02, -1.284235716e-01, -6.547092646e-02, -6.930508465e-02, -1.014586166e-01, -2.247782797e-01, -2.597320080e-01, -2.315706313e-01, -2.982043922e-01, -2.726335227e-01, -2.460508198e-01, -2.078277767e-01, -1.993115544e-01, -1.531455219e-01, -9.238519520e-02, -2.102382183e-01, -1.790802777e-01, -2.733197212e-01, -2.662000060e-01, -2.704452574e-01, -2.891226709e-01, -1.311046928e-01, -2.531563342e-01, -1.938158572e-01, -2.459243685e-01, -2.473509759e-01, -2.111395150e-01, -2.477181703e-01, -2.419985384e-01, -2.210729271e-01, -1.980616748e-01, -2.897557020e-01, -1.750327647e-01, -1.795379519e-01, -2.380752861e-01, -2.740392089e-01, -1.938427091e-01, -2.164227068e-01, -1.946504116e-01, -2.421595007e-01, -2.639531195e-01, -2.640953958e-01, -2.268415093e-01, -2.930410206e-01, -2.473732978e-01, -2.603494227e-01, -3.346940577e-01, -2.755751610e-01, -2.863526642e-01, -2.836056054e-01, -2.692281902e-01, -4.880256951e-01, -1.874782145e-01, -2.388291657e-01, -1.236064211e-01, -2.348348349e-01, -1.739157736e-01, -2.109409422e-01, -1.807833910e-01, -1.309364438e-01, -2.477977872e-01, -2.183912694e-01, -1.647864431e-01, -2.855713665e-01, -1.683497429e-01, -2.227502167e-01, -2.356772572e-01, -2.488582581e-01, -2.136125118e-01, -1.583619714e-01, -2.174497209e-02, -1.851278543e-02, -1.417815313e-02, 2.936106874e-03, 4.003644362e-02, 1.034747064e-01, -6.136635784e-04, -4.191495106e-02, 1.064706296e-01, 1.709188521e-02, 2.558949590e-02, 6.429383159e-02, 2.056607418e-02, 1.869860664e-02, 3.664354607e-02, 5.756828189e-02, -3.327001352e-03, 2.869119681e-02, 5.467761308e-02, 1.776734553e-02, 6.588229537e-02, -3.104016557e-02, 6.008095294e-02, -3.500663117e-02, 4.701252282e-02, 3.858866915e-02, -7.848778367e-02, 7.667665184e-02, -5.842448212e-03, 6.789596379e-02, 4.902821779e-02, 6.914400309e-02, 4.768550023e-02, -5.241579190e-02, 6.590115279e-02, -2.695821784e-02, 7.699574530e-02, 9.020689130e-02, 1.048737094e-01, 8.750366420e-02, 1.117880642e-01, 5.344490707e-02, 3.907831851e-03, -1.299578995e-01, -5.532242730e-02, 2.048012987e-02, 2.494654804e-02, 9.441873431e-02, -2.856396884e-02, 1.253013611e-01, 7.015541941e-02, -5.719230324e-02, 7.679314166e-02, -1.045418084e-01, 1.544059068e-01, 7.542076707e-02, -3.072069399e-02, 5.629082397e-02, 4.096291587e-02, -7.227969822e-03, -1.055776998e-01, 6.833810359e-02, 5.199940503e-02, 1.492473930e-01, -3.003969975e-02, -3.040118888e-02, 8.141309954e-03, 8.587817661e-03, -4.619779065e-02, 9.345357865e-02, -6.769018620e-02, 5.098137259e-02, -3.207215294e-02, -1.039865334e-02, 5.947804544e-03, 1.034587100e-01, 3.719662875e-02, -9.103859961e-02, 2.994365245e-02, 2.141923178e-03, 9.911546484e-03, 1.549820229e-02, 2.258760668e-02, -1.200983375e-01, -2.729861625e-02, -6.413357705e-02, -4.121544212e-02, 2.953889780e-02, -3.304143250e-02, 9.616457671e-02, 5.247064680e-02, 2.116832137e-02, -1.104146056e-02, 4.330283031e-02, -1.488313451e-02, -3.354535624e-02, -1.993593015e-02, 7.352784742e-04, 2.073503286e-02, -1.501858793e-02, 6.366787851e-02, 1.150896680e-02, 6.554625183e-02, 2.157057449e-02, 9.817222506e-02, 5.718072131e-02, 8.711164817e-03, 5.477956310e-02, -4.308314249e-02, -4.146209359e-02, 3.376673907e-02, 3.359720856e-02, 4.719090834e-02, -6.544465665e-03, 5.004616082e-02, -2.560774051e-02, 4.452616349e-02, -2.817887068e-02, -1.726319455e-02, -1.053425446e-01, -5.816989392e-02, 4.858531803e-02, 5.008395761e-02, 4.047117010e-02, -5.295991153e-02, 5.098027177e-03, 4.101109505e-02, 8.634871244e-02, 1.063893959e-01, 1.140877381e-01, 1.535767764e-01, 1.362619698e-01, 2.141827345e-02, -1.626795530e-01, -3.439641371e-02, -3.634854406e-02, 1.375398785e-01, -2.711836807e-02, 1.076053157e-01, 6.052673981e-02, 1.378934681e-01, 1.952871867e-02, 1.468959749e-01, 1.168620959e-02, 2.997258119e-02, 1.088071615e-01, 9.644967318e-02, 2.884442359e-02, -1.484473497e-01, 4.027896002e-02, -9.138162434e-02, 8.852817118e-02, 3.807984293e-02, 1.409153640e-01, 1.384816468e-01, 8.930879086e-02, 1.754838973e-01, 1.651630402e-01, -4.809033871e-02, 1.732413173e-01, 1.261214465e-01, 1.619263291e-01, 1.437220424e-01, 2.508155257e-02, 9.100652486e-02, 1.885895431e-01, 2.043734491e-02, 1.059071198e-01, 1.680205613e-01, 9.335123003e-02, 1.394106746e-01, 9.958641976e-02, 5.927871913e-02, 1.875456572e-01, 5.483553931e-02, 7.790513802e-03, 8.586575836e-02, 2.507196553e-02, 1.099113449e-01, 8.664377034e-02, 3.774737939e-02, 1.116694137e-01, -2.730089426e-02, -2.394264005e-02, 1.120673344e-01, 8.619941771e-03, 9.476122260e-02, 2.192864567e-02, 3.726791963e-02, 3.323115781e-02, 8.664333075e-02, -3.269515000e-03, -1.757995225e-02, 7.500223815e-02, 2.669500001e-02, 1.588510573e-01, 1.183745414e-01, 1.462208331e-01, -8.849439025e-02, 1.359610260e-01, 1.483331025e-01, 7.244800776e-02, 1.204917505e-01, 6.856565922e-02, 5.603170395e-02, -7.078798115e-02, 1.137724444e-01, 8.585829288e-02, 7.279394567e-02, 7.049702853e-02, 1.349197775e-01, 1.406294643e-03, 1.608258933e-01, 8.666419983e-02, 1.068395078e-01, 8.461278677e-02, 1.063578278e-01, 9.611621499e-02, 1.124626994e-01, 1.096044108e-01, -7.982818782e-02, 1.643013656e-01, 1.821777225e-01, 6.274759024e-02, 6.761532277e-02, 6.497659720e-03, 1.591330022e-01, 1.505291462e-01, -4.849003255e-02, 1.242270842e-01, 3.021555766e-02, 3.432101384e-02, 1.240475327e-01, 1.044852585e-01, 4.219975695e-02, 7.993422449e-02, -1.442774758e-02, -4.525484145e-02, 3.517532721e-02, 9.682179987e-02, 1.043462232e-01, -4.173057899e-02, -6.832234561e-03, 1.003679708e-01, 9.891162813e-02, 6.128241122e-02, 1.235669777e-01, 1.642457992e-01, 8.089727163e-02, -4.069992155e-02, -4.767432436e-02, 8.829208463e-02, 1.247611716e-01, 1.016664356e-01, 5.286610126e-02, 1.568003595e-01, 1.471512616e-01, 7.617322356e-02, 6.032234058e-02, 1.708768904e-01, 2.605072409e-02, 1.326425523e-01, 3.824386373e-02, 1.494776756e-01, 1.623192579e-01, 1.680595875e-01, 8.128534257e-02, 1.717131883e-01, 1.428760588e-01, 2.217538357e-01, 1.011643410e-01, 1.134102419e-01, 1.351520717e-01, 6.420785934e-02, 1.418981701e-01, 1.143716052e-01, 6.284160912e-02, 1.088843122e-01, -3.724315029e-04, 1.085242480e-01, 2.300367802e-01, 7.518755645e-02, 1.237562522e-01, 1.564695239e-01, 9.786170721e-02, 1.921151131e-01, 1.753357053e-01, 1.170395762e-01, 1.260326803e-01, 1.154187769e-01, 1.869869232e-01, 1.106317192e-01, 1.209324673e-01, 1.571986824e-01, 8.604551852e-02, 1.629246622e-01, 1.713793874e-01, 1.710615456e-01, 2.360137105e-01, 2.130229175e-01, 1.143212169e-01, -7.113192696e-03, 9.253199399e-02, 4.339205101e-02, 4.182892293e-02, 1.303584427e-01, 1.124293879e-01, 2.042293400e-01, 7.563225180e-02, 1.996553093e-01, 1.468550563e-01, -7.047006860e-03, 1.290918142e-01, 5.164021254e-02, 1.613783687e-01, 1.844517440e-01, 1.392954737e-01, 1.772884279e-02, 4.651181400e-02, 3.787304163e-01, 2.688769400e-01, 4.251976311e-01, 4.078449011e-01, 3.633576334e-01, 2.945672274e-01, 2.816935778e-01, 3.340310752e-01, 1.845795512e-01, 9.056700021e-02, 3.010613024e-01, 2.361976802e-01, 1.903719902e-01, 2.665686607e-01, 3.108112514e-01, 2.611166239e-01, 2.790786624e-01, 1.556639373e-01, 2.244802415e-01, 3.685318530e-01, 3.075624704e-01, 3.035473824e-01, 3.763991594e-01, 3.157017529e-01, 3.591309786e-01, 2.173091918e-01, 2.238681614e-01, 1.894194484e-01, 3.230102658e-01, 3.315649629e-01, 2.743312120e-01, 3.606449068e-01, 1.978644282e-01, 2.849344611e-01, 3.760929704e-01, 3.513080776e-01, 2.574896812e-01, 3.270334899e-01, 3.613116145e-01, 3.414788842e-01, 3.290229142e-01, 3.240273595e-01, 3.459092677e-01, 1.940476149e-01, 3.332790434e-01, 3.093636930e-01, 3.785322607e-01, 3.554848135e-01, 3.437554240e-01, 2.550840974e-01, 3.245404661e-01, 3.177063167e-01, 2.090267241e-01, 3.259770572e-01, 3.460952640e-01, 2.978814542e-01, 2.598772645e-01, 3.436962068e-01, 2.811200917e-01, 1.507249773e-01, 3.192558289e-01, 3.671000302e-01, 3.527590930e-01, 3.103121817e-01, 9.640049189e-02, 1.198214069e-01, -3.919814155e-02, 9.111567587e-02, 7.499784976e-02, -4.972391296e-03, -2.896929346e-02, -1.129623968e-02, 8.922660351e-02, 1.606351230e-03, 4.531637952e-02, 9.817001969e-02, 8.601459861e-02, 3.035190329e-02, 8.974226564e-02, 8.832898736e-02, -4.514597822e-05, 1.451488733e-01, -2.101954632e-02, 9.473335929e-03, 4.556458443e-02, 1.252836734e-01, 7.868155837e-02, 1.601030491e-02, -3.219829872e-02, 8.218792081e-02, -2.662400529e-02, 7.476713508e-02, 9.609206021e-02, 1.001073569e-01, 3.604370356e-02, -4.220922291e-02, -6.772264838e-02, 3.820554912e-02, -1.490130648e-02, 4.941197857e-02, 9.657494724e-02, 3.905066475e-02, 5.567271635e-02, 1.549045276e-02, 6.965967477e-04, -4.250459746e-02, 8.909577876e-02, 5.617743358e-02, -2.771178819e-02, -2.312156186e-02, -5.953240022e-02, -9.756849706e-02, 9.982616454e-02, 9.974299371e-02, 1.294336617e-01, 6.432441622e-02, 3.352644667e-02, 2.694717608e-02, 5.746039748e-02, 3.104901873e-02, 7.616453618e-02, -9.140475839e-02, 7.849296927e-02, 3.190135211e-02, 6.043966860e-02, -2.335503325e-02, 5.347261205e-02, 7.242305577e-02, -4.304361716e-02, 8.817028254e-02, -7.218993455e-02, -2.742769755e-02, 3.512896225e-02, -8.644573390e-02, 7.036993746e-03, 5.314686149e-02, 2.788452990e-02, 4.454722628e-02, -1.547176111e-02, -4.094975442e-02, -3.038712591e-02, 6.901180372e-03, 1.004693881e-01, -6.528830528e-02, -1.855748706e-02, 8.060973883e-02, -5.951928720e-02, 3.487404808e-02, 5.993884057e-02, 2.582007437e-04, 3.344806284e-02, 8.365949988e-02, 2.146829106e-02, 3.852771223e-02, 1.181294397e-01, 2.087535858e-01, 1.547707915e-01, -5.802724510e-02, 1.543931663e-01, 6.367560476e-02, 2.780219354e-02, -1.773113385e-02, 7.755631208e-02, 8.360181749e-02, -2.231011912e-02, 9.652010351e-02, 8.750706911e-02, 2.490016073e-02, 6.558179110e-02, 2.636816539e-02, -2.478660084e-02, 1.744910143e-02, -5.454697181e-03, 1.204504445e-01, 9.878123552e-02, 9.440159798e-02, -3.670249879e-02, 4.892883822e-02, 9.136731923e-02, 6.044791639e-02, 1.018317267e-01, -6.353332847e-02, 6.209991500e-02, 9.953086823e-02, 4.467211664e-02, 3.346845508e-02, -3.317130357e-02, -6.501091272e-02, 3.476108611e-02, -2.083889395e-02, 3.154525161e-02, 3.774309158e-02, 2.992346324e-02, 1.446527839e-01, 6.464500725e-02, 2.066204995e-01, 1.146031916e-01, 1.566068381e-01, 1.056275144e-02, 8.378881216e-02, 9.649793059e-02, 1.259353161e-01, 1.378355473e-01, 1.164627075e-02, 1.223965883e-01, 8.114868402e-02, 1.606130749e-01, 1.262478232e-01, 7.331851125e-02, -3.522358090e-02, 1.159221604e-01, 1.227647811e-01, 1.518834978e-01, 9.153427929e-02, 1.578816175e-01, 1.355065256e-01, -4.565753415e-02, 1.658605486e-01, 9.466916323e-02, 1.269324124e-01, 1.526046246e-01, 2.027863115e-01, 1.749389470e-01, 1.451697387e-02, 7.451126724e-02, 1.753446311e-01, 1.249231398e-01, 7.968553901e-02, 5.344535038e-02, 4.377540201e-02, 2.418212220e-02, 2.006298490e-02, 1.519718021e-01, 8.485564590e-02, 1.941354275e-01, -1.162073389e-02, 1.829589456e-01, 7.972426713e-02, 4.701056331e-02, -2.649165094e-01, 1.554075778e-01, 1.079498976e-01, 1.144702435e-01, 1.221995428e-01, 1.365149170e-01, 1.240581498e-01, 1.137324646e-01, 9.608286619e-02, 5.838656798e-02, 1.588170379e-01, 1.003827080e-01, 1.155236959e-01, 1.623257101e-01, 1.031871606e-02, 2.392415330e-02, 1.165265813e-01, 1.245399714e-01, 9.498245269e-02, 9.694430232e-02, 1.520635188e-01, 2.269004285e-02, 1.209021062e-01, 1.323199570e-01, 1.774658263e-01, 5.741155520e-02, 5.635871366e-02, 1.888892502e-01, 1.124459058e-01, 1.526347697e-01, 6.029774249e-02, 1.246042773e-01, 5.357072502e-02, 4.579562694e-02, 1.165781394e-01, 1.218639091e-01, 8.670075983e-02, 6.157508492e-02, 1.333178729e-01, 2.038515955e-01, 1.199728698e-01, 1.909689158e-01, 9.825160354e-02, 4.084729031e-02, 3.035268784e-01, 1.631658524e-01, 5.652791634e-02, 2.370648831e-01, -7.399750501e-02, 1.191065684e-01, 2.301903218e-01, -1.297197640e-01, 2.100564539e-01, 6.209435686e-02, 6.275988370e-02, 1.629729867e-01, 1.182490662e-01, 1.337893009e-01, 8.822458982e-02, 1.455748677e-01, 5.413214490e-02, 1.503856778e-01, 5.832165480e-02, 1.409412026e-01, 1.228827387e-01, -3.467178717e-02, 1.674647331e-01, 1.941754073e-01, 1.068952531e-01, 1.463877708e-01, 1.747448742e-01, 2.320390493e-01, 1.144707128e-01, 1.635206938e-01, 7.184200734e-02, 8.507433534e-02, 1.327316761e-01, 1.664458215e-01, 1.298775077e-01, 1.349432766e-01, 6.586896628e-02, 1.188713983e-01, 1.381932199e-01, 1.310954392e-01, 1.767669320e-01, 1.444984227e-01, 1.548062265e-01, 1.751752049e-01, 1.993622780e-01, 1.606594324e-01, 1.368514299e-01, -9.091798216e-02, 1.383424401e-01, 1.317071915e-01, 1.975799054e-01, 2.398559004e-01, 1.091358438e-01, 1.498323381e-01, 1.860245764e-01, 1.857798696e-01, 1.257257760e-01, 1.878443807e-01, 2.634287477e-01, 1.662912667e-01, 1.699363142e-01, 2.400595509e-02, 2.102821916e-01, 1.593429595e-01, 3.913092241e-02, 2.228987515e-01, 1.868898720e-01, 9.216904640e-02, 3.073847592e-01, 9.271077812e-02, 1.616966575e-01, 1.735761017e-01, 2.738385201e-01, 2.284005433e-01, 1.378063262e-01, 3.963031620e-02, 1.958320588e-01, 1.021025553e-01, 2.125120461e-01, 1.367620826e-01, -2.726747096e-01, 9.452975541e-02, 1.598832458e-01, 1.052739844e-01, 1.043823883e-01, 1.281028241e-01, 1.641913056e-01, 1.776737124e-01, 6.472972035e-02, 2.014315575e-01, 1.125823408e-01, 1.158877462e-01, 1.784440577e-01, 9.722860157e-02, 1.316921562e-01, 1.910743713e-01, 1.951869279e-01, 1.853833199e-01, 1.637617201e-01, 1.398130506e-01, 8.786259592e-02, 3.109560609e-01, 3.584236503e-01, 3.209483027e-01, 2.579337656e-01, 1.961530149e-01, 4.264759719e-01, 3.611234426e-01, 2.979966700e-01, 4.051126540e-01, 3.481969237e-01, 5.566487908e-01, 1.660192311e-01, 3.152990043e-01, 2.104170173e-01, 3.256170452e-01, 4.580593705e-01, 3.026891649e-01, 2.693134248e-01, 2.493778467e-01, 3.257693350e-01, 2.313690931e-01, 3.946509659e-01, 4.859848022e-01, 3.754210174e-01, 3.289988339e-01, 2.596299350e-01, 2.585254312e-01, 3.163580298e-01, 3.574939072e-01, 3.256014884e-01, 2.962083220e-01, 4.321042895e-01, 3.914541304e-01, 2.843655348e-01, 3.648330271e-01, 3.223149180e-01, 3.403477669e-01, 3.399587870e-01, 3.296611905e-01, 1.964388043e-01, 3.246141970e-01, 3.664754331e-01, 2.941431701e-01, 4.145728350e-01, 3.725818694e-01, 2.463908792e-01, -4.300887287e-01, 3.639404178e-01, 2.581166625e-01, 3.376283944e-01, 3.048813343e-01, 3.008420765e-01, 2.723682523e-01, 3.007395267e-01, 2.327129096e-01, 2.616792619e-01, 2.615191936e-01, 2.559376657e-01, 3.274687529e-01, 3.312350512e-01, 4.039351046e-01, 3.208679557e-01, 3.750476837e-01, 3.521694243e-01, 1.078617573e-01, 1.565183699e-01, 9.000500292e-02, 6.834822148e-02, -6.745906919e-02, 1.108539328e-01, 8.625410497e-02, 1.213698238e-01, 8.979781717e-02, 9.126363695e-02, 1.372294873e-01, 1.235060096e-01, 1.293011382e-02, 9.209727496e-02, 5.597501621e-02, 7.171262056e-02, 1.462399065e-01, 1.071401313e-01, 1.055351719e-01, 6.340656430e-02, 1.251751743e-02, 9.947636724e-02, 1.490890533e-01, 6.129343808e-02, -1.389901936e-01, 1.480867565e-01, 6.079643965e-02, 5.578534305e-02, 5.701455846e-02, 1.079475805e-01, 1.114112884e-01, 1.181772798e-01, 8.252439648e-02, 1.077477783e-01, 1.448107064e-01, 1.112545431e-01, 1.304522902e-01, 5.351682752e-02, 1.235904098e-01, 6.798174232e-02, 8.924157917e-02, 1.312859356e-01, 1.769531369e-01, 1.078547463e-01, 1.683425605e-01, 1.286317259e-01, 9.533777088e-02, 1.254771487e-03, 1.008067876e-01, 1.334733665e-01, 1.197716296e-01, 1.236223057e-01, 2.052714676e-02, 5.380852520e-02, 6.140263379e-02, 9.009183943e-02, 9.871230274e-02, 1.184480339e-01, 1.624332070e-01, 1.162922457e-01, 1.033263132e-01, 8.013412356e-02, 1.309046000e-01, -3.605926037e-02, -1.564722881e-02, 8.345033228e-02, 9.060341865e-02, -2.710169740e-02, -1.073839366e-01, 2.722150460e-02, -3.701343667e-03, 1.956163906e-02, 5.442656949e-02, 7.497984171e-02, 6.470198184e-02, -3.234788775e-02, 1.091153268e-02, -6.698074192e-02, 2.065670677e-03, -3.488359600e-02, 3.993090615e-02, 5.384767801e-02, 8.811823279e-02, 1.328787804e-01, 6.606499106e-02, 5.016673729e-02, -4.806428403e-02, 8.145695180e-02, -3.512524441e-02, 2.841341309e-02, -3.925702069e-03, -4.738810286e-02, -2.186308801e-02, 3.100654110e-02, 3.495043516e-02, 5.689278711e-03, 7.664003968e-02, -1.397086866e-02, -4.237502813e-02, 2.694226429e-02, 2.499475703e-02, -6.160905212e-02, -2.645735256e-02, 3.338804096e-02, 9.631419671e-04, -1.644677110e-02, -3.064628132e-02, 4.332624376e-02, -1.327640284e-02, 4.530364648e-02, 4.866811261e-02, 2.741281502e-02, -2.195886336e-02, -1.265085861e-02, 2.753484296e-03, -3.204879910e-02, 2.727870829e-02, 1.254908461e-02, -1.856711693e-02, 1.662234031e-02, -2.835712954e-02, 5.268998072e-02, -1.376157720e-02, 6.904030591e-02, -1.799494727e-03, 3.313995153e-02, 3.041889518e-02, -1.157220919e-02, -4.973139241e-02, -7.989351451e-02, -4.239667952e-02, -3.237020224e-02, 2.763339551e-03, -4.202830791e-01, -9.123706073e-02, 1.889950968e-02, 7.125015557e-02, -1.305023488e-02, -1.724979654e-02, -3.764445335e-02, 2.451197617e-02, -1.072158962e-01, 6.432007998e-02, -5.268390849e-02, -2.114112116e-02, -1.252567675e-02, -5.947563425e-02, -6.193267927e-02, 7.951346040e-02, -4.248354584e-02, -4.666657746e-02, -1.320219040e-02, -2.680862509e-02, 2.414829843e-02, -1.680572331e-02, -7.109729573e-03, -8.057529479e-02, -1.132408679e-01, -3.345245123e-02, -5.180139840e-02, -3.619631752e-02, -5.778775364e-02, 1.440975443e-02, -9.693576396e-02, -8.366394043e-02, -1.009475887e-01, -8.425864577e-02, -7.656730711e-02, 3.030546941e-02, -8.804742247e-02, -6.614828110e-02, -8.988078684e-02, -6.307666004e-02, -2.056809887e-02, -9.192250669e-02, -6.148657948e-02, 1.349132042e-02, 8.572114632e-03, -3.596770577e-03, -5.264806747e-02, -4.946349561e-02, -5.699325725e-02, -2.190358192e-02, 3.095420264e-02, -4.906729236e-02, -1.812261529e-02, 1.980594173e-02, 3.148072399e-03, 1.954956539e-02, -1.768170483e-02, -6.642649323e-02, -7.210560143e-02, -3.622052446e-02, -3.306791931e-02, -2.555200085e-02, -7.074791193e-02, -2.301120758e-02, -5.812916160e-02, -5.097516626e-02, -2.295027487e-03, -9.399089962e-02, -3.200455382e-02, -8.869770914e-02, -2.217702568e-02, -9.302064776e-02, -9.313265234e-02, 4.678823054e-02, -1.215245128e-01, 5.752392579e-03, 2.447138540e-02, -3.261466324e-02, -5.701475963e-02, -7.487769425e-02, -1.674083769e-01, -4.442248493e-03, -1.049906611e-01, -8.158476092e-03, -3.022558801e-02, -1.587130316e-02, -5.460424721e-02, -3.071558475e-02, -4.476953670e-02, -1.016229764e-01, -1.997229606e-01, -9.911961108e-02, 1.284269057e-02, -7.058776915e-02, 2.748737484e-02, -1.551373955e-02, -1.332631558e-01, 2.166549675e-04, -6.746514887e-02, -1.702453196e-02, -5.171664804e-02, -6.032665819e-02, -8.124740422e-02, -3.656542674e-02, -2.192117833e-02, -3.164556623e-02, 3.379475325e-02, -2.979635261e-02, -4.083969444e-02, -2.266149595e-02, -4.341876507e-02, 1.206696220e-02, -8.771878481e-02, -3.850776702e-02, 2.035269886e-02, -6.070399284e-02, -8.728417009e-02, -1.209956482e-01, -4.201545939e-02, -7.671490312e-02, 1.325826347e-02, -4.203842580e-02, -2.173933014e-02, 3.225004300e-02, -1.427179277e-01, -7.862749696e-02, -1.015417427e-01, -5.902559310e-02, -1.045730412e-01, -1.311251521e-01, -1.171816513e-01, -5.020415410e-02, -2.529854886e-02, -2.105245143e-01, -8.024768531e-02, -1.572302580e-01, -8.351407945e-02, -1.343145370e-01, -6.115445122e-02, -7.124418765e-02, -2.568171732e-02, -2.291749418e-02, -9.320917726e-02, -7.060317695e-02, -1.387529522e-01, -7.218120992e-02, -7.138893008e-02, -5.849849433e-03, -3.865441680e-02, -5.079567060e-02, -8.683834970e-02, -9.897595644e-02, -9.222140908e-02, -5.087067932e-02, -3.657180965e-01, -7.851007581e-02, -3.654731065e-02, -1.076608151e-01, -1.109587178e-01, -1.039972305e-01, -1.249445081e-01, -1.367440522e-01, -6.019288301e-02, -8.444174379e-02, -5.799968541e-02, -1.288544685e-01, -4.946874082e-02, -1.304924786e-01, -1.015864462e-01, -1.146425903e-01, -6.645599753e-02, -1.001481712e-01, 8.802084625e-02, -7.462342829e-02, -1.327378750e-01, -1.267416626e-01, -8.016266674e-02, -8.737256378e-02, -9.258300811e-02, -1.079280525e-01, -7.101359963e-02, -1.538564116e-01, -1.606271118e-01, -7.780469209e-02, -3.991834074e-02, -9.158767760e-02, -1.109282896e-01, -2.551749647e-01, -2.847107053e-01, -2.447451204e-01, -2.537295818e-01, -2.647298276e-01, -2.744915783e-01, -2.653202713e-01, -2.169386894e-01, -2.597082555e-01, -2.251146138e-01, -2.413103878e-01, -2.701031864e-01, -2.883230746e-01, -2.317245901e-01, -2.869070470e-01, -2.955626845e-01, -3.001960814e-01, -2.364901453e-01, -2.775579989e-01, -2.517065108e-01, -1.997171491e-01, -2.370065749e-01, -2.154376805e-01, -2.735757232e-01, -1.828049123e-01, -2.227070928e-01, -2.180452049e-01, -2.627098858e-01, -2.697865069e-01, -2.263135016e-01, -1.978557259e-01, -2.372667193e-01, -2.773965597e-01, -2.095128447e-01, -2.527188063e-01, -2.292991579e-01, -2.164344043e-01, -2.390896529e-01, -3.072230518e-01, -2.469155937e-01, -2.058780640e-01, -1.721761227e-01, -2.112897933e-01, -1.645413041e-01, -2.317686230e-01, -2.386514843e-01, -2.346830964e-01, -2.756496966e-01, -1.114139482e-01, -1.723442525e-01, -2.011150867e-01, -2.809020579e-01, -1.574083865e-01, -2.494783998e-01, -2.192267179e-01, -2.935250700e-01, -2.562161386e-01, -2.717592418e-01, -2.501551807e-01, -3.563037515e-01, -3.198595047e-01, -2.215972245e-01, -2.293351442e-01, -2.426214516e-01, 2.343640663e-02, 5.761049315e-02, 6.896459311e-02, 3.688985109e-02, 4.748843983e-02, 7.247412950e-02, -1.882687770e-02, 2.770337276e-02, 7.542388141e-02, 2.318497002e-02, 4.717747867e-02, 4.770260304e-03, 5.831484124e-02, 2.860426717e-02, 9.512791783e-02, 7.193510979e-02, 8.645701408e-02, 1.311748475e-01, 6.618309766e-02, 1.028559208e-01, 1.353490949e-01, 1.262681633e-01, 1.334053427e-01, 1.395854205e-01, 1.058593243e-01, 9.851277620e-02, 8.787041903e-02, 1.232458353e-01, 1.120737344e-01, 1.218361408e-01, 9.287568927e-02, 6.591869891e-02, 1.355420332e-02, 1.190555543e-01, 1.148426682e-01, 1.314146519e-01, 1.103927419e-01, 1.213943437e-01, 1.645792276e-02, 9.210464358e-02, 7.027490437e-02, 7.793825865e-02, 1.008926658e-03, 1.255223751e-01, 6.535784900e-02, 1.720390767e-01, 1.224092841e-01, 1.123960316e-01, 6.432285905e-02, 1.851828396e-02, 6.797045469e-02, 5.371389911e-02, 8.980423212e-02, 1.085175127e-01, 1.384804994e-01, 1.516416520e-01, 5.834501609e-02, 2.996598929e-02, -2.442867262e-03, -7.064964157e-03, -2.714837529e-02, 1.452304125e-01, 9.124263376e-02, 4.739191756e-02, -4.055062309e-02, 5.236286204e-03, -3.073647060e-02, -8.103319257e-02, 4.646082409e-03, 1.240922138e-01, 6.314300746e-02, -3.335570917e-02, 2.252347395e-02, 3.048284911e-02, -2.281265147e-02, 2.843477204e-02, 4.927936196e-02, 8.663367480e-02, -4.531984217e-03, 7.204538584e-02, 7.035112381e-02, 7.909525186e-02, 6.920687854e-02, 1.997756213e-02, 4.761326686e-02, 4.295633361e-02, 3.528958187e-02, 1.413972583e-02, -2.710315213e-02, 1.253019869e-01, 9.012426436e-02, -6.956972927e-02, 2.823059820e-02, 3.377883136e-02, 1.166774184e-01, 6.873900443e-02, 8.103775978e-02, 6.640728563e-02, 2.855825983e-02, 4.074443877e-02, 1.577361673e-01, 7.559407502e-02, 7.489360869e-02, 6.087896973e-02, 1.099547464e-02, 8.694957197e-02, 5.019489303e-02, -4.505409300e-02, -1.658545434e-02, 1.082859188e-01, 2.272021584e-02, 5.758743733e-02, 2.659465559e-02, 1.842122898e-02, 6.041007582e-03, 5.135858431e-02, 1.457071304e-01, 8.600036055e-02, 7.808457315e-02, 1.567575522e-02, 3.105724929e-03, -5.481913220e-03, -3.754759580e-02, -2.140797116e-02, 5.604601279e-02, -3.901429940e-03, -2.472111955e-02, 8.791512996e-02, 7.134127617e-02, 1.273499280e-01, 1.498565376e-01, 1.180955619e-01, 1.741811931e-01, 1.538514495e-01, 6.636641175e-02, 1.282183826e-01, 1.219485253e-01, 9.861896932e-02, 1.552369297e-01, 1.034669802e-01, 8.838704228e-02, 7.235825807e-02, 8.704877645e-02, 9.322933108e-02, 1.024039090e-01, 1.414173841e-01, 8.890008926e-02, 1.397710741e-01, 2.025421262e-01, -3.360969480e-03, 1.783728004e-01, 1.392774880e-01, 2.096792608e-01, 8.093097806e-02, 9.744139016e-02, 1.188723296e-01, 5.120642856e-02, 2.051645517e-02, 2.015671134e-01, 1.173052788e-01, 1.460871100e-01, 1.012505963e-02, 1.256606430e-01, 2.034826577e-01, 1.231513768e-01, 7.401581109e-02, 1.340993941e-01, 1.917010993e-01, 1.654990315e-01, 9.020657837e-02, 2.008118927e-01, -3.938476555e-03, -3.529461101e-02, 1.546786726e-01, 1.314728856e-01, 1.075022593e-01, 1.062406972e-01, 7.871744037e-02, 6.266763806e-02, 1.293042451e-01, 1.304965466e-01, 1.264793873e-01, 1.485748440e-01, 1.255854368e-01, 1.061498523e-01, 1.961628348e-01, 1.461227685e-01, 1.192588210e-01, -1.150245313e-02, 1.405793428e-01, 1.187899187e-01, 1.753357798e-01, 1.097061932e-01, 1.900052279e-01, 1.352752447e-01, 4.679264873e-02, 8.629344404e-02, 6.922770292e-02, 9.877268225e-02, 1.821834296e-01, 6.315813959e-02, 5.059399828e-02, 2.774794353e-03, 1.877002269e-01, 1.453850567e-01, 8.078003675e-02, 3.910471126e-02, 9.506852180e-02, 7.274838537e-02, 8.234788477e-02, 8.705957234e-02, 1.800879836e-01, 9.227540344e-02, 1.641832739e-01, 7.853292860e-03, 9.466491640e-03, 2.221280038e-01, 8.839184791e-02, 7.443868369e-02, 2.258845866e-01, 1.486461163e-01, 1.793250591e-01, 1.083543226e-01, 1.071291938e-01, 1.624675989e-01, 1.237531900e-01, 1.534506828e-01, 1.491975933e-01, 1.504080296e-01, 1.440643519e-01, 1.508853734e-01, 1.370937526e-01, 8.918478340e-02, 1.414454430e-01, 2.057863176e-01, 1.352156699e-01, 1.607821882e-01, 1.476956010e-01, 7.216908038e-02, 1.968688667e-01, 1.292514801e-01, 1.553595513e-01, 3.299379721e-02, 1.655071229e-01, 2.146952897e-01, 1.553681046e-01, 5.947594717e-02, 1.496617198e-01, 1.868448406e-01, 1.659532934e-01, 2.379690409e-01, 1.139615327e-01, 1.193932518e-01, 1.604944319e-01, 7.808431983e-02, 1.569501907e-01, 1.345707625e-01, 2.084809542e-01, 1.673074961e-01, 1.775132418e-01, 2.047920674e-01, 6.559775770e-02, 1.709014177e-01, 9.161385149e-02, 1.191123202e-01, 1.795623749e-01, 2.709010243e-01, 2.154670656e-01, 1.622533798e-01, 1.975462884e-01, 1.678095311e-01, 1.062097922e-01, 1.337340623e-01, 1.312242001e-01, 1.781142950e-01, 2.228943408e-01, 1.587544382e-01, 1.456323713e-01, 5.466080830e-02, 2.040208727e-01, 1.110613793e-01, 1.395522356e-01, 1.942594498e-01, 6.953021139e-02, 1.420306861e-01, 1.556147933e-01, 2.050491422e-01, 1.152300984e-01, 1.783484966e-01, 6.062633544e-02, 1.038540974e-01, 2.209937721e-01, 1.333296895e-01, 1.723443568e-01, 2.269084454e-01, 1.022516564e-01, 1.665024310e-01, 8.383419365e-02, 8.641904593e-02, 1.814071238e-01, 1.650695503e-01, 2.213141322e-01, 1.648214161e-01, 1.245940849e-01, 2.225629240e-01, 8.236262947e-02, 2.709751427e-01, 2.915474772e-02, 2.213823199e-01, 1.741764098e-01, 1.859965622e-01, 1.031295657e-01, 1.352110058e-01, 1.540002674e-01, 2.467640787e-01, 1.279644519e-01, 1.716385186e-01, 1.340754628e-01, 2.011426836e-01, 1.095709726e-01, 1.628409922e-01, 2.658575475e-01, 3.271287680e-01, 2.548226714e-01, 2.007139921e-01, 2.977201939e-01, 2.509189546e-01, 3.507091999e-01, 2.928861082e-01, 3.803797066e-01, 3.226281404e-01, 2.099802941e-01, 1.707805097e-01, 2.626065910e-01, 2.551891804e-01, 3.642432690e-01, 1.839076579e-01, 1.976540983e-01, 2.463996559e-01, 2.871667445e-01, 2.948980927e-01, 2.802240252e-01, 3.232223094e-01, 3.304073215e-01, 2.456384003e-01, 2.395568788e-01, 3.806696236e-01, 2.783153653e-01, 3.074767888e-01, 4.137963951e-01, 2.710111439e-01, 4.098332822e-01, 3.280080557e-01, 2.994163930e-01, 3.269132972e-01, 2.225958854e-01, 2.616581619e-01, 2.955065966e-01, 1.884200275e-01, 2.968212664e-01, 1.922972798e-01, 3.181008995e-01, 2.785281241e-01, 3.387481570e-01, 2.587213516e-01, 3.559233546e-01, 2.592751384e-01, 3.223590255e-01, 3.886826634e-01, 2.079607844e-01, 3.247604966e-01, 3.005142212e-01, 3.583337665e-01, 3.025858998e-01, 2.826029956e-01, 2.752107084e-01, 3.175057471e-01, 3.600887060e-01, 2.583808899e-01, 2.457076013e-01, 3.035759330e-01, 2.786071897e-01, 3.945407569e-01, 2.830650508e-01, 8.462677896e-02, 9.059804678e-02, 5.600516126e-02, 6.658380851e-03, 1.386756729e-02, 5.264929309e-02, 9.502255172e-02, 9.283780307e-02, 4.565383494e-02, 5.537600815e-02, 1.636640131e-01, 8.824525028e-02, 1.096771285e-01, -2.261086367e-02, 7.764483988e-02, 2.347632684e-02, 9.144350886e-02, 5.696015432e-02, 5.337696522e-02, 1.070772931e-01, 4.520196095e-02, 7.944292575e-02, 7.190798968e-02, 1.277463436e-01, 7.211220264e-02, 5.287663639e-02, 9.240102768e-02, 7.090640068e-02, 8.431739360e-02, 5.407925323e-02, 1.293259859e-01, 7.805140316e-02, 7.688722014e-02, 8.740686625e-02, 7.497429103e-02, 3.920747340e-02, 6.459598243e-02, 1.028865427e-01, 8.533705771e-02, 7.540266961e-02, 5.514832959e-02, 1.203852743e-01, 1.087101996e-01, 1.173652560e-01, -4.048971459e-02, 8.277017623e-02, 8.389677852e-02, 4.626463726e-02, 6.749969721e-02, 1.045456305e-01, 7.533185184e-02, 1.011766344e-01, 5.573854968e-02, 2.997548319e-02, 4.761088267e-02, 