#pragma once

const int HIDDEN_SIZE = 128;

const float L1_WEIGHTS[] = {
1.536569744e-01, 4.605720937e-02, -4.782023840e-03, 9.066862985e-03, -1.930799708e-02, -4.438109696e-02, 6.748728454e-02, 1.025611651e-03, -4.076468199e-02, -1.009367704e-01, 8.002988063e-03, 8.579007350e-03, -1.202917844e-01, -4.698027857e-03, -3.852726519e-02, 4.676210135e-02, 2.499878407e-03, 3.447816893e-02, -1.521565299e-02, -1.490266994e-03, 1.855048165e-02, 4.621826112e-02, 4.015357792e-02, 5.474071950e-02, 2.587018348e-02, 5.672183260e-02, 4.761348665e-02, 1.040410344e-02, -4.470093548e-02, 2.872353420e-03, 8.789926767e-03, -9.226059914e-02, 9.723914787e-03, 4.399133101e-02, 2.783566155e-02, -1.128528547e-02, -6.460147351e-02, -2.862847410e-03, 2.915973775e-02, 9.538243711e-02, 3.175143898e-02, -1.675947160e-01, 7.174368948e-02, 7.297740132e-02, 8.212766796e-02, 3.848085552e-02, 4.485754296e-02, -2.337962389e-03, -9.445425123e-03, -2.004295141e-01, -9.684432880e-04, 6.061078608e-02, -6.171656772e-02, 7.015163451e-02, -7.126107067e-02, -1.796093024e-02, 8.303366601e-02, 8.865142614e-02, -2.026028931e-02, 8.085836470e-02, 2.017423883e-02, 5.201861262e-02, -3.470759466e-02, -1.490712352e-02, -7.219572365e-02, 4.148852825e-02, -3.535697609e-02, -2.740016021e-02, -4.061680287e-02, -1.343448181e-02, -1.149980724e-02, -1.822522730e-01, -3.152597696e-02, -6.957680732e-02, -6.267919391e-02, -1.007466018e-01, -6.948990375e-02, -2.444114536e-02, -4.847547971e-03, -7.773035765e-02, -2.463033423e-02, 3.194621578e-02, -1.911148876e-01, -1.035451517e-01, -6.980523467e-02, -1.979232393e-02, 1.422867179e-03, 2.979929559e-02, -6.509196758e-02, 3.342866898e-02, 1.685413904e-02, -6.083659083e-02, -4.274432082e-03, -7.115514576e-02, -6.029120460e-02, -1.383142322e-01, -8.072307706e-02, -6.946640462e-02, -4.383997247e-02, -1.056935936e-01, -7.020132989e-02, -6.860826164e-02, -9.154213220e-02, -2.327826247e-02, 2.017110772e-02, -6.377868354e-02, -5.705244467e-02, -4.707802087e-02, -5.736644194e-02, -2.829405852e-02, -5.051454157e-02, -5.735934898e-02, -9.840644896e-02, -4.584110901e-02, -2.898171842e-01, -5.218209699e-02, -7.780277729e-02, -8.892629296e-03, -1.929666102e-02, -9.946303070e-02, -1.173185930e-01, 2.648738585e-02, -8.766997606e-02, 3.220856190e-03, -2.507555783e-01, -1.028059870e-01, -5.645490065e-02, -2.080197074e-02, -6.716932356e-02, 2.867562510e-02, -1.168695167e-01, -1.608247869e-02, -5.823038518e-02, -9.901047498e-02, -1.563270241e-01, -3.396909218e-03, 1.068388764e-02, -3.539188206e-02, -8.104520291e-02, -8.328368515e-02, -1.106378660e-01, -1.376495603e-02, -4.267558083e-02, -5.375280231e-02, -1.183630750e-01, -1.183736399e-01, -8.157142252e-02, -7.883007824e-02, -1.287698839e-02, -1.121768877e-01, -7.628630847e-02, -2.586935274e-02, 1.203479129e-03, -1.306862086e-01, 6.520133931e-03, -5.203899369e-02, -9.781652689e-02, -6.317425519e-03, -2.082121186e-02, 1.669257693e-02, -6.830527633e-02, -1.615073234e-01, -6.234155968e-02, -6.093655899e-02, -5.093983933e-02, -6.765987724e-02, -7.069793530e-03, 3.189788759e-02, 1.915260032e-02, -6.158196181e-02, -8.807978034e-02, -6.415379792e-02, -1.488447338e-01, -5.294851959e-02, -1.133203432e-01, -1.591458544e-02, -1.418341994e-01, -5.029109865e-02, -7.382090390e-02, -9.052596241e-02, -9.210260957e-02, -2.713005990e-02, -4.675769806e-02, -1.740820706e-01, 3.920415416e-02, -1.571725458e-01, 3.228140995e-03, -4.121753946e-02, -1.887270436e-02, -5.395821482e-02, -1.129653826e-01, -6.376261264e-02, -6.262798607e-02, -1.839817762e-01, -1.868593395e-01, -1.344329864e-01, -3.229935467e-02, -7.153280824e-02, -9.914158285e-02, -1.247856766e-01, -1.029431298e-01, -6.711172312e-02, -9.499634802e-02, -1.232236251e-01, -7.688254863e-02, -1.037686989e-01, -8.746949583e-02, -8.626701683e-02, -1.117433384e-01, 2.017786913e-02, -4.890652373e-02, -3.112759069e-02, -5.518788099e-02, -6.980144978e-02, -2.719603479e-02, -4.422412440e-02, -1.149756089e-01, -9.862024337e-03, -5.003648624e-02, -7.596718520e-02, -5.130385235e-02, -2.316777036e-02, -2.786040306e-01, -6.701061036e-03, -4.167064279e-02, -4.081118107e-02, -7.884296775e-02, -1.170117557e-01, -4.174337536e-02, -1.817063838e-01, -1.078412831e-01, -1.265087128e-01, -4.972560704e-02, -1.035254002e-01, -5.507210642e-02, -1.038442273e-02, -6.598278880e-02, -1.695167720e-01, -5.798903853e-02, -1.033484116e-01, -8.840627223e-02, -7.591541857e-02, -4.381477833e-02, -2.824060246e-02, -8.767019212e-02, -1.301826723e-02, -5.101801082e-02, -3.909131885e-02, -6.686220318e-02, -1.088784710e-01, -7.621107250e-02, -1.278615743e-01, -1.636580527e-01, -1.221845895e-01, -1.020220965e-01, -2.369466797e-02, -2.558352947e-01, -1.608084440e-01, -1.678953320e-01, -1.543633491e-01, -2.397392988e-01, -1.458993554e-01, -1.428763568e-01, -2.379905581e-01, -1.959518790e-01, -1.901134253e-01, -2.422444671e-01, -1.935361475e-01, -2.382224500e-01, -1.768821925e-01, -1.773220301e-01, -1.224623919e-01, -2.573041916e-01, -1.322493106e-01, -1.672978848e-01, -2.279445976e-01, -2.008002698e-01, -1.700530648e-01, -1.786670685e-01, -1.853381842e-01, -2.147307545e-01, -2.630701363e-01, -2.553298473e-01, -2.295978367e-01, -2.060794085e-01, -1.963697970e-01, -2.088041455e-01, -1.864620000e-01, -1.687443107e-01, -2.735646069e-01, -2.083004117e-01, -8.427858353e-02, -1.772906929e-01, -2.028526813e-01, -2.072428763e-01, -1.614096314e-01, -2.327315211e-01, -1.665717810e-01, -1.991697699e-01, -7.998044789e-02, -1.285102814e-01, -1.463628560e-01, -2.275034636e-01, -6.516233683e-01, -1.425523758e-01, -1.593967080e-01, -1.637778729e-01, -2.258011401e-01, -1.221208721e-01, -2.447416335e-01, -2.522070408e-01, -1.761521250e-01, -6.101805344e-02, -1.079580709e-01, -7.211444899e-03, -2.275571823e-01, -2.175631076e-01, -2.702812552e-01, -1.543381661e-01, -2.634798884e-01, -1.323656272e-02, -4.354178905e-03, 1.897337288e-02, 4.800736904e-02, -2.937922254e-03, 1.852083355e-01, 8.049095422e-02, 1.058774814e-01, 1.160907820e-01, 6.357919425e-02, 8.669143170e-02, -2.705205232e-02, 6.521176547e-02, 1.443694904e-02, 9.589378536e-02, 6.347409636e-02, 5.355659500e-02, -3.605656559e-03, -1.414105017e-02, 1.002958342e-01, -1.066217292e-02, 5.451294035e-02, 2.279237285e-02, 1.040644050e-01, 5.984039977e-02, -3.874144703e-02, 6.566686556e-03, 6.074139848e-02, 4.013563693e-02, -2.358385026e-01, 3.680898342e-03, 2.841470065e-03, 8.377251029e-02, 1.015821472e-01, 6.997579336e-02, 7.098035514e-02, 4.245923832e-02, -2.456106991e-02, -1.340477611e-03, 1.610809416e-01, 8.345532417e-02, -4.217932373e-02, 2.363342047e-02, 1.303390115e-01, 8.041436970e-02, 1.583227962e-01, 4.554784298e-02, 1.343433261e-01, 5.274790153e-02, -1.974047162e-02, 9.429646283e-02, 7.117298990e-02, -1.026470885e-01, 8.027979173e-03, 9.454935044e-02, 4.185415059e-02, 3.230013698e-02, -6.702013779e-03, 1.178159565e-01, 3.876933455e-02, -8.835824206e-03, 9.781634435e-03, 7.796643768e-03, -2.646888420e-02, -1.635865308e-02, 1.011555940e-01, 4.584527388e-02, -7.170516998e-02, 5.914794281e-02, 3.169112653e-02, 6.132529303e-02, 1.698359102e-02, 1.184954345e-01, 3.355314210e-02, -5.576344952e-02, 6.511190534e-02, 1.033587232e-01, -2.744169533e-01, 5.559164658e-02, 2.561867237e-02, 1.432313174e-01, 2.268678695e-02, 1.611367799e-02, 9.766462445e-02, 4.267787188e-02, 2.461449355e-01, 1.219485402e-01, 1.170780361e-01, 6.334489584e-02, 2.922657877e-02, 2.570661157e-02, 7.024260610e-02, 3.134868667e-02, 1.057375818e-01, 5.859598145e-02, 4.778107256e-02, 7.954486459e-02, -1.893723756e-02, -3.353086486e-02, -1.828004606e-02, 4.321207851e-02, 2.095207106e-03, 6.532473862e-02, 1.515946835e-01, 1.706297509e-03, 2.049990445e-01, 1.066309735e-01, 3.920286521e-02, 1.121178968e-03, -1.080305409e-02, 8.080042899e-02, 6.258849800e-02, 1.726973988e-02, 5.582497641e-02, 5.482967570e-02, 5.519480631e-02, 5.517441034e-02, 2.769877762e-02, 1.751691103e-02, -5.796473101e-02, -1.405626442e-02, 6.888166070e-02, -4.553158954e-02, -4.772085696e-02, 5.660830438e-02, 5.595475808e-02, -1.117610633e-01, -2.744285390e-02, 8.853365481e-02, 1.324695200e-01, 2.004094124e-01, 4.076226056e-02, 2.201473117e-01, 1.498623490e-01, 1.211816147e-01, 1.345457733e-01, 1.418969780e-01, 1.799148619e-01, 1.316647083e-01, 1.416723579e-01, 1.599372178e-02, 1.086935028e-01, 5.595514923e-02, 1.122282967e-01, 1.369841397e-01, 1.259492338e-01, 8.380750567e-02, 7.275335491e-02, 1.099888980e-01, 1.629364192e-01, 1.036744639e-01, 1.072141975e-01, 1.812846214e-01, 1.698945910e-01, 1.534636021e-01, 5.272025615e-02, 8.058401197e-02, 7.214757800e-02, 1.188002676e-01, 8.142290264e-02, 9.248077869e-02, 6.140125543e-02, 4.513174668e-02, -1.967975050e-01, 1.067771688e-01, 1.079192013e-01, 1.100231558e-01, -7.950349711e-03, 5.522275344e-02, 1.361420900e-01, 2.082626149e-02, 1.027068570e-01, 1.173413023e-01, 4.774337262e-02, 6.686224788e-02, 1.854003221e-02, 6.180636212e-02, 6.228058785e-02, 1.349857450e-01, 2.519590221e-02, 1.511663496e-01, 2.021929771e-01, 1.755743027e-01, 1.343989521e-01, 8.301579952e-02, 1.660605669e-01, 8.510347456e-02, 1.082636192e-01, 5.481326953e-04, 7.707440853e-02, 1.203127801e-01, 1.186695099e-01, 1.104684472e-01, 6.215655431e-02, 2.016328089e-02, 1.126380339e-01, -1.460781693e-01, 1.249110028e-01, 1.191178411e-01, 1.030395404e-01, 5.339232087e-02, 1.241861954e-01, -3.379283845e-02, 1.059219763e-01, 6.756373495e-02, 1.673183739e-01, 8.013025671e-02, 1.526110172e-01, 8.314998448e-02, 1.507227272e-01, 1.133444682e-01, 9.009753913e-02, 1.250565052e-01, 1.662168838e-02, 4.897990450e-02, 7.096093893e-02, 8.760108054e-02, 1.238400862e-01, -2.848099731e-02, 1.096957251e-01, 1.987079382e-01, 1.458647996e-01, -5.297085270e-02, 3.331855312e-02, 5.932586640e-02, 1.902250201e-01, 1.276069283e-01, 1.022292078e-01, 6.323383749e-02, 4.326845333e-02, -4.243988171e-02, 7.812151313e-02, 1.147935092e-01, 1.748550236e-01, 3.036388755e-02, 5.674259365e-02, 6.026844308e-02, 7.816125453e-02, 2.307454124e-02, 6.031162292e-02, 4.670799151e-02, 1.025413573e-01, 5.464734137e-02, -4.607894644e-02, 6.559746712e-02, 1.815485507e-01, 5.786411092e-02, 8.417040855e-02, 1.424325109e-01, 9.453742951e-02, 7.615749538e-02, 1.163876355e-01, 8.796350658e-02, 6.829053164e-02, 1.448433101e-01, 1.431825012e-01, 1.485051811e-01, 2.168497592e-01, 5.972766131e-02, 1.957865357e-01, 1.600278169e-01, 1.793330908e-01, 4.979649931e-02, 1.539189070e-01, 1.488426775e-01, 2.080838531e-01, 4.860233143e-02, 1.696191281e-01, 5.388024077e-02, 1.063661724e-01, 1.045506075e-01, -1.794368960e-02, 4.047552496e-02, 1.771697104e-01, 8.082147688e-02, 9.344972670e-02, 9.841505438e-02, 1.399359703e-01, 1.705598980e-01, 1.770632714e-02, 2.803147733e-01, 8.066461235e-02, 5.025951192e-02, 1.382980645e-01, 1.813237667e-01, 1.239087582e-01, 1.726199836e-01, 1.224617362e-01, 1.552517116e-01, 1.829988807e-01, 9.356214106e-02, 2.118037790e-01, 1.911990643e-01, 1.132307947e-01, 1.138208210e-01, 8.194693923e-02, 1.095905825e-01, 1.109148562e-01, 2.278615236e-01, 1.146027222e-01, 1.514828354e-01, 1.441356242e-01, 1.976647526e-01, 8.058488369e-02, 1.627442837e-01, 6.958156079e-02, 7.975219935e-02, 1.533022821e-01, 1.195148304e-01, -1.826057434e-01, 1.802370548e-01, 3.192126378e-02, 1.079743207e-01, 1.229655072e-01, 1.113863140e-01, 1.712111533e-01, 8.859945834e-02, 1.531024873e-01, 1.493236423e-01, 1.492409110e-01, 2.297802120e-01, 2.158367187e-01, 2.349413037e-01, 2.558496296e-01, 1.976810396e-01, 2.057874799e-01, 3.092957139e-01, 2.229407728e-01, 2.238138020e-01, 1.806045324e-01, 2.898785770e-01, 1.881556064e-01, 1.288048625e-01, 3.672426045e-01, 1.672118157e-01, 2.173712254e-01, 2.215094268e-01, 2.147344202e-01, 2.380249649e-01, 2.277485132e-01, 8.811029047e-02, 1.175385490e-01, 2.789818645e-01, 1.982589513e-01, 1.072488949e-01, 1.941448450e-01, 2.577924728e-01, 2.796553671e-01, 2.337761521e-01, 2.204617411e-01, 3.354604840e-01, 2.473406196e-01, 2.450209856e-01, 2.990755141e-01, 3.020539284e-01, 2.449898124e-01, 2.744855285e-01, 2.508921325e-01, 1.821786314e-01, 2.538752258e-01, -1.757707894e-01, 3.313126266e-01, 2.406471074e-01, 2.208567262e-01, 1.659620702e-01, 1.284807622e-01, 2.167883813e-01, 2.384034544e-01, 2.047730535e-01, 1.729812473e-01, 1.219504178e-01, 2.465532869e-01, 9.190858901e-02, 1.975981593e-01, 2.727882862e-01, 2.665221095e-01, 4.723537713e-02, 2.513053417e-01, 1.824334711e-01, 2.161234170e-01, 1.904612929e-01, 1.882145554e-01, 1.873102337e-01, 2.687211931e-01, 5.582749471e-02, 1.803550720e-01, 5.258749705e-03, -2.585167065e-02, -4.123977944e-02, 1.761192270e-02, -6.325653754e-03, 3.444127366e-02, -5.928524211e-02, -2.554803900e-02, 5.940447375e-02, 3.994818404e-02, 3.735701367e-02, 8.650024235e-02, 2.202010341e-02, -3.471232019e-03, -2.389079519e-02, 1.275176406e-01, -7.896409929e-02, 3.703580797e-02, 3.417509794e-02, 1.469106674e-01, 3.141034767e-02, 5.786767579e-04, -3.237110376e-01, -4.324453417e-03, 2.032461390e-02, 4.635074362e-02, 1.378044952e-02, -1.264086217e-01, 4.354126751e-02, 1.558955163e-01, 2.387607284e-02, 6.541007012e-02, 9.976863861e-02, 2.942497842e-02, 7.309071720e-02, -1.869020462e-01, 9.558463842e-02, 2.470855787e-02, -1.404621601e-01, 3.347423673e-02, 1.108435635e-02, 7.496299595e-02, -3.538608178e-02, -6.392481923e-02, -2.928480878e-02, 8.264758438e-02, 5.046438426e-02, 1.347059011e-01, 8.508967608e-02, 7.203311194e-03, 2.707240172e-02, 7.802624255e-02, 1.000532284e-01, 5.421085656e-02, 5.355228484e-02, -5.334928166e-03, 5.148131028e-02, 3.051928803e-02, 1.092718262e-02, 8.964803070e-03, 4.778303206e-02, 7.835399359e-02, -9.912243113e-03, -6.107005104e-02, -4.611353949e-02, 3.251195699e-02, 7.115829736e-02, 1.898078434e-02, -4.334773496e-02, -3.792809322e-02, 4.280708358e-02, 6.159846671e-04, -1.153328829e-02, 1.344211306e-02, 2.146695927e-02, -1.228137091e-01, -9.523455054e-02, -2.450522408e-02, 1.427691523e-02, 2.711190842e-02, -3.825023025e-02, -4.289836809e-02, -3.700692579e-02, 4.631940275e-02, -5.642649252e-03, 5.716694891e-02, -4.600311071e-02, -2.269077301e-02, -2.761697024e-02, 1.374620199e-01, 6.994445622e-02, -6.557318568e-02, -2.421837300e-02, 6.854564697e-02, 8.630213141e-02, 7.887773961e-02, -4.986831546e-02, -5.804755725e-03, 7.710981369e-02, 2.368871309e-02, -3.781254962e-02, 1.833484881e-02, -3.030289151e-02, 2.318873443e-02, 6.290340680e-04, 6.255164742e-02, 8.784277737e-02, 1.038894281e-01, 3.526198864e-02, 1.197155863e-01, -3.800374269e-02, -7.834793627e-02, 2.349413931e-02, 1.179242358e-01, 3.368302435e-02, -5.569119751e-02, 1.114828065e-01, -4.887270927e-02, -2.681048401e-02, 5.880269408e-02, -1.756612025e-02, 6.356675178e-02, -1.977566816e-02, 9.613935649e-02, 7.276634872e-02, 1.082400680e-01, 4.923094809e-02, -8.561047167e-02, 4.349829629e-02, 1.494520158e-02, -1.018268242e-01, -3.829119354e-02, -3.155586869e-02, 4.113085568e-03, -7.568094879e-02, -4.249353334e-02, -1.160997078e-01, -6.452453136e-02, -1.562414765e-01, -6.949340552e-02, -2.369237505e-02, -3.359981254e-02, -9.650373459e-02, 2.904776949e-03, -5.053680763e-02, -6.528188288e-02, -4.849988502e-03, 1.369878463e-02, -5.218249280e-04, -3.091204166e-02, -1.008851230e-01, -7.079947740e-02, -4.835608974e-02, -4.955749586e-02, -4.215904325e-02, -3.743397444e-02, -8.263023943e-02, -4.358910024e-02, -1.225684062e-01, -1.288879514e-01, -4.211411998e-02, -8.406139165e-02, -8.382619172e-02, -4.023068771e-02, -2.433004826e-01, -7.795541734e-02, -7.372641563e-02, 3.765562549e-02, -3.900977597e-02, -1.366010308e-01, -8.090996742e-02, -1.195129305e-01, -3.229182214e-02, -3.381872550e-02, -1.857558042e-01, 6.203120947e-02, -3.577532619e-02, -5.271011218e-02, 2.193976566e-02, -1.079240367e-01, -1.052092388e-01, -4.655020777e-03, -5.499185994e-02, 1.015832461e-02, -3.896904737e-02, -3.212297559e-01, -2.779747359e-02, -9.744023904e-03, 1.922596805e-02, -6.440117210e-02, -3.142783418e-03, -6.289019436e-02, -4.571460560e-02, 8.333453536e-02, -4.019123968e-03, -6.376747787e-02, -8.056039363e-02, -2.279554121e-02, -6.203219295e-02, -1.598796099e-01, -1.782593131e-02, -6.277409196e-02, -1.389825251e-02, -7.977401465e-02, -1.017439663e-01, -2.271896601e-02, -6.201997399e-02, -6.951272488e-02, -2.481878549e-02, -3.370709345e-02, -7.275824994e-02, -1.197117418e-01, -3.347151726e-02, -6.385470182e-02, -9.561194479e-02, -4.249031469e-02, -1.052006334e-01, 4.831179976e-03, -1.249663457e-01, 4.762682319e-02, 1.261507124e-01, -2.693534084e-02, -2.551109195e-01, -1.850005388e-01, -7.632239163e-02, -4.804145172e-02, -2.044778876e-02, -3.942486048e-01, -1.851013117e-02, -7.653717697e-02, -1.163061410e-01, -3.174497187e-02, -1.113836840e-02, 8.629314834e-04, -9.845360368e-02, 1.929169334e-02, -1.606030911e-01, -6.907115877e-02, -1.831307635e-02, -9.204269201e-02, -1.552342158e-02, -2.223115601e-02, -1.109117344e-01, -7.889706641e-02, -1.941306330e-02, -1.194684803e-01, -3.325540945e-02, -2.158138901e-02, 2.709186450e-02, -4.679757729e-02, -2.257377096e-02, -7.862027735e-02, -7.932620123e-03, -2.219958929e-03, -3.232604265e-02, -1.710124128e-02, -6.874004006e-02, -1.871473938e-01, -5.141374469e-02, -8.506266028e-02, -1.378179938e-01, -1.168351173e-01, -6.564045697e-02, -7.119845599e-02, -1.215408519e-01, -2.118981481e-01, -2.005829476e-02, 1.143514877e-03, -5.768577009e-02, -6.441140175e-02, -8.446212113e-02, -4.993557185e-02, -3.856975120e-03, -1.811877824e-02, -4.735108465e-02, -1.205261648e-01, -1.208318248e-01, -8.869089186e-02, -4.505433142e-02, -3.358047828e-02, -6.285763532e-02, -5.817535892e-02, -1.485512592e-02, -1.326673180e-01, 1.659087650e-02, -5.824405700e-02, -3.207205981e-02, -3.677893877e-01, -1.068938226e-01, -1.146051139e-01, -1.173273027e-01, -8.675567806e-02, -2.229410969e-02, -3.967846557e-02, 8.155488223e-02, -1.188240200e-01, 3.426386043e-03, -4.181218147e-02, -9.858461469e-02, 1.535161436e-01, -1.157087535e-01, -2.282767789e-03, -9.916598350e-02, -1.407062858e-01, -7.452274114e-02, -1.750892550e-01, -9.960699826e-03, -6.783143282e-01, -7.464741170e-02, -6.252235174e-02, -2.878597565e-02, 2.173726074e-02, 4.438989796e-03, -8.664456010e-02, -5.122616421e-03, 3.033312038e-02, -2.048432529e-01, -7.817767560e-02, -1.509618908e-01, -1.511702389e-01, -2.477653325e-01, -1.997166425e-01, -1.988727450e-01, -1.615090072e-01, -1.423236579e-01, -2.851663232e-01, -1.470310092e-01, -1.745461226e-01, -3.312643766e-01, -2.351917028e-01, -2.482541651e-01, -1.494367123e-01, -1.710788459e-01, -2.629948258e-01, -1.319763660e-01, -2.340137362e-01, -1.346455663e-01, -1.385774761e-01, -2.413046211e-01, -2.051962763e-01, -3.318698704e-01, -1.829745173e-01, -2.186164856e-01, -2.295057923e-01, -8.793982863e-02, -2.445486635e-01, -1.865598559e-01, -1.233208925e-01, -1.459174901e-01, -2.666383684e-01, -1.687074155e-01, -2.412780374e-01, -2.893733978e-01, -2.321440279e-01, -1.820194274e-01, -1.690622121e-01, -1.753469706e-01, -3.368544579e-01, -2.383645326e-01, -1.263088286e-01, -1.711355597e-01, -2.385230362e-01, -2.431852520e-01, -1.258076727e-01, -1.956495345e-01, -1.491034925e-01, -2.606242895e-01, -1.567485631e-01, -7.384686917e-02, -2.213692516e-01, -2.217735350e-01, -2.358925939e-01, -2.419171482e-01, -1.331431121e-01, -1.762540191e-01, -2.006152272e-01, -3.664113581e-01, -2.007092088e-01, -2.970135808e-01, -1.492677927e-01, -1.452303827e-01, -2.830794454e-01, 1.188345402e-01, 7.338635623e-03, 1.021123007e-01, 4.219235852e-02, 3.392216563e-02, 5.694919731e-03, 8.641273528e-02, 4.838833958e-02, -3.326916322e-02, 3.718866780e-02, 8.813739568e-02, 6.213145331e-02, -8.923992515e-03, -1.038612216e-03, 9.377485514e-02, 2.569466457e-02, 1.542005688e-01, 1.585772187e-01, 1.099355593e-01, -1.244759839e-02, -3.211671859e-02, 9.471579641e-02, -6.329289079e-02, 7.937842607e-02, 1.146530360e-01, 2.746477723e-02, 4.170180485e-02, 3.785174340e-02, 5.399579182e-02, -8.334360085e-03, 7.851234823e-02, 7.630131394e-02, 7.033800334e-02, 1.054802239e-01, 5.759485811e-02, 3.313092515e-02, -4.242728651e-02, -5.980301183e-03, 3.696224838e-02, -6.524023134e-03, 4.956300184e-02, -3.557313085e-01, -1.048629545e-02, -7.525623590e-02, -6.691069603e-01, 8.295963705e-02, 6.038512662e-02, 7.755426317e-02, -4.503579438e-02, -2.588830329e-02, 2.761260048e-02, 1.091869399e-01, 7.317046076e-02, 1.136570349e-01, 6.231139228e-02, 2.645760961e-02, 1.219195314e-02, 2.892375737e-02, 1.011583302e-02, 1.000244841e-01, -1.215045992e-02, 6.495812535e-02, -2.127273940e-03, -4.435801879e-02, -1.956290379e-02, 6.966230460e-03, 7.731130347e-03, -4.176913947e-02, -1.830596477e-02, -4.809710197e-03, 2.573640272e-02, 4.099129513e-02, 7.492419332e-02, 2.015884779e-02, 1.439189762e-01, -1.744273007e-01, 9.221701883e-03, 1.424588859e-01, 4.775610566e-02, -1.998291537e-02, 8.043877780e-02, 7.559470832e-02, -2.740510181e-02, 4.295002669e-02, 1.476255059e-01, 3.750424832e-02, 4.586244375e-02, 5.310390145e-02, 7.682534307e-02, 6.821870804e-02, 6.984161586e-02, 6.778221577e-02, 7.453037798e-02, 6.531028450e-02, 6.740096956e-02, 1.548687927e-02, 7.792765647e-02, 1.624981128e-02, 8.459538221e-02, 1.804834604e-02, 7.489467412e-02, 5.822860450e-02, 6.471773982e-02, 7.981421798e-02, 2.588044107e-02, 8.910751902e-03, -6.323807873e-03, 1.705619320e-02, 5.844768137e-02, 8.599036187e-02, -1.545483060e-02, 1.393511705e-02, 6.735372543e-02, 4.427229054e-03, 9.236818552e-02, -3.256108239e-02, 3.154207394e-02, 8.807172626e-02, 3.276649863e-02, 1.489527430e-02, -1.409603935e-02, 6.142292544e-02, -7.950162888e-02, 4.633015953e-03, 2.255324833e-02, -3.376998380e-02, 7.990295440e-02, -2.699009329e-02, 9.139899164e-02, 6.995942444e-02, -2.762307879e-03, 4.998443648e-02, -6.992339343e-02, 1.408705264e-01, 2.090443969e-01, 6.068180501e-02, 1.209716275e-01, 8.971396834e-02, 6.064530089e-02, 1.184768081e-01, 7.407634705e-02, -1.353513151e-01, 1.866679192e-01, 1.600899100e-01, 6.607515365e-02, 7.527504116e-02, 1.217201874e-01, 1.884312928e-01, 1.767233163e-01, 4.571580142e-02, 9.919510782e-02, 1.337749660e-01, 7.016891986e-02, 1.716125906e-01, 6.850450486e-02, 8.518923074e-02, 1.551403999e-01, 1.731676310e-01, 5.279723182e-02, 5.029758066e-02, 4.208806530e-02, 2.139494717e-01, 6.036454439e-02, 1.503639519e-01, 1.808332354e-01, 1.381760538e-01, 1.194078699e-01, -2.380777523e-02, 8.857521228e-03, 2.219270915e-02, 1.317101270e-01, 8.524111658e-02, 2.433238551e-03, 1.243505180e-01, 1.312402934e-01, 1.430847645e-01, 1.124645993e-01, 1.012066230e-01, 2.484690584e-02, 9.784825146e-02, 2.008316666e-01, 1.046167612e-01, 5.663042888e-02, 8.014914393e-02, 8.155120909e-02, 1.358613521e-01, 7.651890069e-02, -1.931202016e-03, 5.469134822e-02, 2.034440190e-01, 1.005546227e-01, 4.534299299e-02, -6.238351762e-02, 1.612005979e-01, 9.539970011e-02, 1.724910289e-01, 5.318729207e-02, 2.288354933e-02, 1.284519881e-01, 2.380049676e-01, 5.301360041e-02, 1.069812253e-01, 1.898443699e-01, 1.896960139e-01, 1.274721026e-01, 1.359149516e-01, 1.700922847e-01, 2.044911087e-01, 1.372429579e-01, 7.066831738e-02, 7.372423261e-02, 1.036838368e-01, 3.497424722e-02, 8.123857528e-02, 8.631139249e-02, 5.712312087e-02, -9.171582758e-02, 8.789438754e-02, 7.628636062e-02, 1.360599399e-01, 1.980879158e-01, 1.505486965e-01, 5.047444254e-02, 1.480916589e-01, 2.257497013e-01, 9.096790850e-02, 2.346532233e-02, 1.475604177e-01, 1.608178318e-01, 1.948125660e-01, 2.196572125e-01, 1.432414055e-01, 3.183370829e-02, -1.555559877e-02, 7.914301753e-02, 8.771004528e-02, 6.811768562e-02, 1.585164070e-01, 2.707229182e-02, 7.889948040e-02, 2.182055712e-01, 1.603719443e-01, 9.576140344e-02, 1.512381583e-01, 1.290289462e-01, 4.573723767e-03, 1.866259240e-02, 1.031719819e-01, -1.665818505e-03, -2.573755011e-02, 3.201807663e-02, 1.539054066e-01, 1.948120892e-01, 1.031415686e-01, -7.113645971e-02, -9.910011292e-02, 1.385023892e-01, 1.154385433e-01, 2.158427984e-01, 2.508403957e-01, 1.136127934e-01, 1.447118819e-01, 2.095381021e-01, 1.730756015e-01, 3.258555755e-02, 1.074351519e-01, -4.086514236e-04, 8.163183928e-02, 1.627624631e-01, 1.470473111e-01, 4.521735013e-02, 6.716938317e-02, 2.488434017e-01, 2.331330329e-01, 1.739753485e-01, 8.064299077e-02, 1.609081775e-01, 1.784050763e-01, 2.077702582e-01, 1.533083320e-01, 6.490079314e-02, 1.405169070e-01, 8.594456315e-02, 1.162629873e-01, 2.188346386e-01, 2.158078253e-01, 2.036792934e-01, 8.332104236e-02, 1.099169031e-01, 2.564490736e-01, 1.592599154e-01, 1.139529198e-01, 1.584430486e-01, 2.391261905e-01, 8.812896907e-02, 2.020809986e-02, 1.326408833e-01, 1.841291338e-01, 1.558848172e-01, 1.048080623e-01, 2.110160440e-01, 1.974205375e-01, 4.771262780e-02, 1.374862641e-01, 3.290116414e-02, 8.232412487e-02, 1.938804388e-01, 9.712490439e-02, 1.248860359e-01, 1.828845739e-01, 1.219911352e-01, 2.832154930e-02, 1.134350896e-01, 1.266149879e-01, 9.058126807e-02, 2.227980047e-01, 8.273321390e-02, 9.954796731e-02, 3.189473972e-02, 1.213374957e-01, 3.467108011e-01, 2.861047089e-01, 2.021192759e-01, -9.702953510e-03, -3.698219061e-01, 2.009461671e-01, 2.824237347e-01, 2.882539332e-01, 2.321880609e-01, 2.321242243e-01, 3.065577745e-01, 2.494734228e-01, 2.209727466e-01, 2.355248183e-01, 2.657009363e-01, 1.589348614e-01, 2.354621738e-01, 1.214359924e-01, 2.207409292e-01, 2.389108539e-01, 2.126798183e-01, 2.562398911e-01, 1.989196539e-01, 1.707626879e-01, 2.875672579e-01, 2.346813828e-01, 2.131580710e-01, 2.831828296e-01, 4.543293715e-01, 3.278530836e-01, 2.466765046e-01, 2.155197263e-01, 1.316784471e-01, 1.824221015e-01, 1.394087821e-01, 1.704219580e-01, 2.726399601e-01, 3.002361953e-01, 2.155482769e-01, 2.503775954e-01, 2.409075052e-01, 2.063536644e-01, 2.237998545e-01, -1.446539760e-01, 3.453929722e-01, 1.338805556e-01, 1.679463834e-01, 2.759059966e-01, 1.984173954e-01, 2.651005387e-01, 1.079547033e-01, 1.262604892e-01, 2.162694335e-01, 1.796813905e-01, 3.861051202e-01, 2.505924404e-01, 2.470284253e-01, 2.233562171e-01, 1.882162243e-01, 1.334389150e-01, 2.773389220e-01, 1.976970732e-01, 2.692807019e-01, 1.295836866e-01, 5.848309398e-02, 1.430363655e-01, -3.491386026e-02, -7.717503607e-02, 2.688197233e-02, 1.653236710e-02, -1.710982248e-02, -1.149302721e-02, 5.354901776e-02, 1.537678093e-01, 3.955401853e-02, 3.486526012e-02, -7.817799598e-02, 7.454444654e-03, 4.471868649e-02, -2.920906544e-01, -8.074905723e-03, 1.403607577e-01, 1.098006405e-02, 5.517004058e-03, 1.072250232e-01, 6.074976176e-02, -2.682322264e-01, 6.149458885e-02, -1.749423146e-02, 6.236582622e-02, 6.667559594e-02, 6.049386412e-02, 4.110549390e-02, 4.227920622e-02, 1.135836765e-01, 1.283078641e-02, 3.701607883e-02, -6.241677795e-03, 5.764703825e-02, -2.692943811e-02, -2.453189157e-02, 1.338935643e-01, -4.607786238e-02, -2.274391800e-02, 8.539929241e-02, 8.298940212e-02, 1.876727678e-02, 2.129392512e-02, 5.205269530e-02, 7.775173336e-02, 2.467123233e-02, -5.789637566e-02, 1.644091457e-01, 1.170417387e-02, 8.432272077e-02, 2.645729110e-02, 1.940937713e-02, 1.034392864e-01, 2.854045294e-02, 4.810781777e-02, 1.973823085e-02, 2.538778447e-02, -6.787124276e-02, 6.407175958e-02, -9.389360249e-02, 1.139050797e-01, 9.111416340e-02, 8.042845875e-02, -4.528890178e-02, -2.091332711e-02, -2.102389373e-02, -2.598216012e-02, -7.807666808e-02, 7.711561397e-03, 7.102922071e-03, -4.458456114e-02, 8.716111630e-02, 5.949573219e-02, 5.822858214e-02, 5.699671805e-02, 7.960048318e-02, 6.508518010e-03, 1.081798151e-01, 5.800319463e-02, 3.935959190e-03, -4.496567696e-02, 4.066700116e-02, 5.072795972e-02, -1.551936101e-02, 9.172996134e-02, 1.185047254e-02, -2.134327404e-02, 6.232438609e-02, -2.144986764e-02, 4.330947623e-02, 6.404433865e-03, 2.865338884e-02, 1.160864756e-01, 5.035299808e-03, 2.341169678e-02, 3.254802153e-02, 7.656163722e-02, 1.519299746e-01, 1.180952936e-01, 1.725811698e-02, 1.241321340e-01, 1.495549977e-01, 9.577221423e-02, 5.329096317e-02, 8.814795315e-02, 1.168732494e-01, 1.119619906e-01, 5.113904178e-02, 9.671876580e-02, 3.166674450e-02, 1.085592881e-01, 9.511506557e-02, 4.732619599e-02, 3.433869407e-02, 9.101433307e-02, 6.186210737e-02, 1.196087524e-02, 6.576582789e-02, 4.203564301e-02, 4.598542675e-02, -1.094144024e-02, -5.764436349e-02, -7.932712883e-02, 1.075816900e-01, 1.741095819e-02, -1.643509418e-02, 3.436616063e-02, 1.083801165e-01, 7.299406081e-02, 1.539210379e-01, 8.924743533e-02, 9.724034369e-02, 1.518848091e-01, 3.613179550e-02, 9.159848839e-02, 8.306328207e-02, -1.520696096e-02, 1.304161549e-01, 1.227411553e-01, 5.646498129e-02, 1.020092890e-01, 1.443100274e-01, 6.911143661e-02, 1.144335791e-01, 1.121313777e-02, 1.217129156e-01, 1.458532810e-01, 2.899160236e-02, 9.656922519e-02, 5.820757896e-02, 8.947124332e-02, 1.245739684e-01, 1.505559683e-01, 9.472052753e-02, 1.642427295e-01, 1.576970816e-01, 1.134553328e-01, 1.309635639e-01, 9.415723383e-02, 8.795005083e-02, 1.053263843e-01, 8.124553412e-02, 1.382136792e-01, 1.397086978e-01, 9.213844687e-02, 1.082477123e-01, 1.283059716e-01, 1.639955938e-01, 1.167157590e-01, 3.835693002e-02, 1.316232830e-01, 6.764306128e-02, 4.779099301e-02, 1.844612807e-01, 1.812906116e-01, 1.381213963e-01, 8.409766853e-02, 1.338496897e-02, 5.180532113e-02, 1.327860653e-01, 1.330446005e-01, -1.697415952e-03, 1.474753022e-02, 9.620853513e-02, 2.045446187e-01, 8.314750344e-02, 1.552459151e-01, -3.900765628e-02, 5.392967537e-02, 1.140652671e-01, 1.318353415e-01, 1.386779249e-01, 6.186573207e-02, 8.545541018e-02, 7.155064493e-02, 7.396762818e-02, 8.919802308e-02, 1.060604602e-01, 9.582810104e-02, 8.101987094e-02, 7.818459719e-02, 1.102268249e-01, -4.843594506e-02, 5.394297466e-02, 6.780177355e-02, 9.164707363e-02, 1.036300212e-01, 1.568109989e-01, 1.701639891e-01, 1.356290728e-01, 4.819293693e-02, 1.415438354e-01, 1.160307527e-01, 2.052978873e-01, 1.293579489e-01, 5.345068406e-03, -1.542505249e-02, 6.671854854e-02, 9.638933837e-02, 8.925881982e-02, 7.561814506e-03, -3.835120797e-02, 8.136079460e-02, 5.235885829e-02, 7.555648685e-02, 1.543052942e-01, 9.517900646e-02, 7.342094928e-02, 1.171502173e-01, 1.270598024e-01, 4.773304984e-02, 5.962672085e-02, 1.464327425e-01, 6.056996062e-02, 1.514207274e-01, 9.361363947e-02, 1.230361387e-01, 2.306923419e-01, 5.630952865e-02, 1.344317198e-01, 5.381253734e-02, 1.315498501e-01, 1.388003975e-01, 1.188402325e-01, 1.511835158e-01, 1.578065455e-01, 4.010214284e-02, 1.779495776e-01, 9.152170271e-02, 6.360822171e-02, 1.357166320e-01, 1.089891419e-01, 4.377827421e-02, 1.182031557e-01, 1.391961575e-01, 1.236956120e-01, 4.317305237e-02, 1.605203301e-01, 8.923921734e-02, 3.816186264e-02, 1.362918615e-01, 1.417239457e-01, 1.403241307e-01, 1.998899132e-01, 6.144030765e-02, 6.516738236e-02, 1.891775429e-01, 8.154796064e-02, 2.055594474e-01, 1.948375702e-01, 1.608567834e-01, 2.312137187e-01, 1.881453395e-01, 1.651899368e-01, 1.412015259e-01, 2.230835259e-01, 1.518367976e-01, 2.146678418e-01, 1.092034429e-01, 8.830606937e-02, 1.841363609e-01, 1.231668517e-01, 1.580505967e-01, 1.448750645e-01, 2.033455670e-01, 5.960615724e-02, 2.473781407e-01, 2.568488717e-01, 1.816970259e-01, 1.454996616e-01, 1.185933948e-01, 1.682323962e-01, 1.174975485e-01, 2.679189742e-01, 1.401524097e-01, 1.285779029e-01, 2.037861198e-01, 1.235576421e-01, 1.210095808e-01, 1.314342618e-01, 6.952305883e-02, 2.029910088e-01, 2.515393496e-01, 2.803411484e-01, 1.610024571e-01, 6.075092778e-02, 1.393499970e-01, 1.911414117e-01, 1.070562601e-01, 2.028662115e-01, 1.648161113e-01, 1.979534030e-01, 1.694449335e-01, 1.110386029e-01, 1.295180470e-01, 2.511393428e-01, 4.569337890e-02, 1.815615296e-01, 1.409310102e-01, 1.862940937e-01, 1.936741620e-01, 2.360077798e-01, 1.938127428e-01, 1.447990686e-01, 2.473670244e-01, 1.234434992e-01, 1.909667253e-01, 1.972274929e-01, 3.075587153e-01, 1.060608625e-01, 2.017838806e-01, 3.440505266e-01, 1.611916870e-01, 2.659286261e-01, 2.341394722e-01, 2.223904729e-01, 1.687192321e-01, 2.105544060e-01, 2.229335904e-01, 2.328041196e-01, 1.412883997e-01, 2.600151896e-01, 2.335678488e-01, 2.421488911e-01, 2.667235136e-01, 2.403539121e-01, 2.434600741e-01, 2.167058587e-01, 2.755776644e-01, 2.233152241e-01, 2.296890616e-01, 1.876453012e-01, 2.308757752e-01, 2.701544762e-01, 1.530085355e-01, 2.112601399e-01, 1.744994074e-01, 3.061092794e-01, 2.400887012e-01, 2.558054924e-01, 1.125779152e-01, 2.215136588e-01, 2.599050999e-01, 2.136892676e-01, 2.594030499e-01, 2.276819646e-01, 1.578239650e-01, 9.948173165e-02, 2.944745123e-01, 1.770337671e-01, 2.652392089e-01, 2.183179557e-01, 2.621545792e-01, 2.531633079e-01, 2.201795876e-01, 2.882214785e-01, 2.558753788e-01, 2.499750853e-01, 2.226382941e-01, 1.764025539e-01, 2.353459746e-01, 1.809558868e-01, 2.466957271e-01, 5.167858675e-02, -9.234277904e-02, 2.476194873e-02, 1.031720117e-01, 1.699906215e-02, 1.887077652e-02, 2.181895450e-02, 4.891736433e-02, -5.414934130e-04, 5.132276937e-02, 7.532142103e-02, 8.749448508e-02, 5.567185581e-02, 1.401349716e-02, 6.565342844e-02, 2.883047238e-02, 1.816208102e-02, -1.804984361e-02, 4.246088210e-03, 9.927015752e-03, 5.752225220e-02, 8.888137341e-02, 1.093185972e-02, -2.594293840e-02, 1.244914159e-02, 1.293630153e-01, 6.400405616e-02, 3.337043896e-02, 1.236296892e-01, 1.150198467e-02, 2.095467178e-03, 7.007009536e-02, 4.551858082e-02, 3.121966729e-03, 2.320834063e-02, 1.047932208e-01, -2.421990968e-03, 7.527504861e-02, 8.405604213e-02, 4.559029266e-02, 1.012557745e-01, 8.406269364e-03, 1.171329767e-01, -8.719997481e-03, -3.044157922e-01, 7.679370046e-02, -7.921855897e-02, 4.252046347e-02, -7.772532851e-02, 4.372923821e-02, 2.396897413e-02, 1.829427667e-02, -4.092917964e-02, -6.146263331e-02, 5.396989733e-02, -3.215749562e-02, 9.206023067e-02, 2.639512345e-02, 8.188209496e-03, -9.058659524e-02, -3.881552839e-04, 7.462946326e-02, -8.722240478e-02, 5.484178662e-02, 9.464910254e-03, -5.135341361e-02, -1.033270881e-01, -2.239701338e-02, -2.828996396e-03, -2.540212870e-02, -5.365516990e-03, -3.211183473e-03, 6.992332637e-02, 2.915501967e-02, 1.395720709e-02, -2.903866209e-02, -1.091991831e-02, -9.068571031e-02, -6.125056744e-02, -9.198768996e-03, 9.156878293e-02, 4.816523194e-02, 1.685172878e-02, 4.105892777e-02, 6.925038248e-02, 4.067655653e-02, -5.445269123e-02, -1.421088073e-02, 3.729537828e-03, 3.632997349e-02, 6.541976333e-02, 3.662469611e-02, 1.627418026e-02, 3.586535901e-02, 2.581584826e-02, 2.873822302e-02, 3.060647100e-02, 6.758344918e-02, 8.466637135e-02, -5.093183368e-02, 7.915823907e-02, -3.341509402e-02, 6.929873023e-03, 1.519969013e-02, -2.492648855e-05, 4.356045276e-02, -7.995915413e-02, 3.542411700e-02, -7.239078730e-02, 2.757056383e-03, -4.670811817e-02, 5.649414659e-02, 7.898609340e-02, 8.432406001e-03, 4.763126373e-02, -1.414418686e-02, -4.481286183e-02, -9.788009524e-02, -1.577597298e-02, 4.151491914e-03, -3.524317965e-02, -4.540105909e-02, 1.502857171e-02, 1.250592060e-02, -2.077503689e-02, -2.331536962e-03, 1.249893233e-01, -4.082402680e-03, -4.700251296e-02, -1.126187369e-01, -6.461416371e-03, -7.812600583e-02, -7.681321353e-03, -3.227938339e-02, -7.478667796e-02, -2.764731273e-02, -2.340357937e-02, -5.261333659e-02, -1.746445335e-02, -2.001334727e-02, -6.912777573e-02, -4.374377802e-02, -2.942666784e-02, -1.329581439e-01, 2.645666013e-03, -7.086372375e-02, 2.769270353e-02, -1.423611399e-02, -3.483750299e-02, -2.935332060e-02, -9.973124601e-03, -3.700090945e-02, -6.693581492e-02, -9.781303257e-02, -1.202963218e-01, -4.755008593e-02, -9.191329777e-02, -1.180152968e-02, -3.455915302e-02, -1.564407051e-01, -1.190904528e-02, -1.661163718e-01, -1.156083122e-01, -5.549555644e-02, -5.575202778e-02, -2.929849923e-02, -7.522474229e-02, -1.012111455e-01, -4.419439286e-02, 9.986330755e-03, -7.372074574e-02, -8.777377009e-02, -9.385190904e-02, -1.118146777e-01, -1.123135462e-01, -1.890728250e-02, -1.107636467e-01, -1.036551967e-01, -1.495255716e-02, -9.952577949e-02, -2.538116090e-02, -2.256295457e-02, 2.848407999e-02, -6.241908763e-03, -1.099954266e-02, -1.584371738e-02, -5.228278041e-02, -1.178876609e-01, -4.712107405e-02, -1.071577296e-01, 8.892490296e-04, -1.508065462e-01, -6.927070022e-02, -3.125636652e-02, -4.821979254e-02, -7.351962477e-02, 3.580546379e-02, 2.160080150e-02, -6.092786789e-02, -2.303375863e-02, -7.468454540e-02, -5.272220820e-02, -1.408773661e-01, -7.769859862e-03, -4.275299236e-02, -1.635937393e-02, -4.990251362e-02, -1.245701686e-01, -1.216892302e-01, -1.101924703e-01, -4.800834134e-02, -5.644452758e-03, -1.016648561e-01, -3.290657699e-02, -1.507359147e-01, -6.631727330e-03, -1.415185630e-01, -5.143420771e-02, -5.876630172e-02, -1.200382262e-01, 5.243809894e-02, -3.089286387e-02, -2.529501915e-02, -6.466368586e-02, -9.820371866e-02, -1.385085881e-01, -2.097294666e-02, -6.921124458e-02, 5.961426534e-03, -9.842629731e-02, -1.807769574e-02, -4.914685711e-02, -8.101666719e-02, 1.610023156e-02, -6.841105223e-02, -8.069324493e-02, -6.413107365e-02, -9.931296110e-02, 2.264182083e-03, -1.244911402e-01, -5.133489147e-02, 4.404018633e-03, -4.405898973e-02, -3.525530174e-02, -2.123262361e-02, -6.383676082e-02, -6.441910565e-02, -7.968004793e-02, 2.916358784e-02, -8.639475703e-02, -1.520235389e-01, -8.983449638e-02, -5.961294100e-02, -1.116230041e-01, -5.542581528e-02, -7.248081267e-02, -1.149753779e-01, -2.479751222e-02, -1.584559083e-01, -1.678890139e-01, -1.152403951e-01, 2.034589881e-03, -8.734267205e-02, -9.702247381e-02, -1.404711157e-01, -3.441014886e-02, -1.221253052e-01, -1.649601310e-01, -1.618426889e-01, -1.557921618e-01, -3.856709227e-02, -2.429268695e-02, -1.205911934e-01, -1.210518926e-01, -8.319295943e-02, -1.472086012e-01, 3.813172504e-02, -8.800116926e-02, -1.707311273e-01, -9.865431488e-02, -3.922772035e-02, -8.815449476e-02, -1.776431650e-01, -7.108576596e-02, -1.607366949e-01, -1.359587610e-01, -9.332995862e-02, -1.404590756e-01, 6.045588292e-03, -1.168917585e-02, -1.128569022e-01, -1.723307669e-01, -1.160731539e-01, -2.047832869e-02, -8.903641254e-02, -1.394459307e-01, -9.243330359e-02, -1.170725748e-01, -1.081454158e-01, -1.061991528e-01, -5.963192508e-02, 2.311339229e-02, -1.605910063e-01, -1.548115611e-01, -4.322914034e-02, -8.288094401e-02, -5.615290254e-02, -1.221931651e-01, -3.671028465e-02, -5.475027487e-02, -1.144635379e-01, -1.102076545e-01, -9.146033973e-02, -9.451105446e-02, -8.927831799e-02, -1.714268327e-01, -1.108499467e-01, -7.009128481e-02, -6.801122427e-02, -1.904815733e-01, -3.004129231e-01, -1.524505466e-01, -1.995639801e-01, -2.399001569e-01, -2.323295474e-01, -1.942128092e-01, -2.561220527e-01, -1.540748775e-01, -2.157415897e-01, -2.714632750e-01, -1.902094185e-01, -2.680322826e-01, -1.992469579e-01, -2.131841034e-01, -1.621958762e-01, -2.633125186e-01, -2.499356270e-01, -2.343411297e-01, -3.102258444e-01, -1.950679570e-01, -1.900720149e-01, -1.156683192e-01, -2.925087810e-01, -1.958570033e-01, -1.655067950e-01, -2.927798331e-01, -1.952997744e-01, -2.618994415e-01, -2.147580832e-01, -1.996168792e-01, -1.765102148e-01, -1.731096059e-01, -1.689465642e-01, -2.430417389e-01, -1.923078895e-01, -2.787816226e-01, -1.412296444e-01, -1.768238693e-01, -2.318669707e-01, -1.492889524e-01, -2.722859681e-01, -1.115345731e-01, -1.648633480e-01, -3.200608492e-02, -2.094100267e-01, -3.519290090e-01, -1.644287258e-01, -2.734146714e-01, -1.942526549e-01, -3.897028565e-01, -2.084237337e-01, -1.908226311e-01, -2.143278718e-01, -1.870124638e-01, -4.896000922e-01, -3.523337543e-01, -2.317252308e-01, -2.072171867e-01, -1.859094352e-01, -2.206185609e-01, -1.921013743e-01, -1.621613652e-01, -1.357878894e-01, -1.782013029e-01, -2.375061251e-02, 8.243390173e-02, 5.717939511e-02, 5.143989995e-02, 7.952962816e-02, 2.347498946e-02, -6.896251440e-02, 2.801269852e-02, 7.089477032e-02, 1.950883679e-02, -5.321049690e-02, -5.752258375e-02, -7.740247995e-02, 1.923029684e-02, 3.861058876e-02, -3.641975299e-02, 4.070372134e-02, -1.912209764e-02, 5.588663276e-03, -9.325518459e-02, 2.808423014e-03, 1.799500883e-01, 8.498366922e-02, 3.240066580e-04, 1.417486519e-01, 1.050053164e-01, 6.991913170e-02, 9.056917578e-02, -3.799518943e-02, 5.545974523e-02, -4.472084716e-02, 1.343135685e-01, 4.422979802e-02, 1.517665759e-02, 1.012328565e-01, -6.553966552e-02, 2.736916393e-02, -1.321524382e-02, 1.008278802e-01, 3.939991072e-02, 2.220115997e-02, 3.617987037e-02, 1.390636154e-02, 1.754985377e-02, 4.563470930e-02, 3.748036688e-03, -4.580444470e-02, -7.399073243e-02, -2.631497197e-02, 7.019337267e-02, 7.330831885e-02, -3.810629249e-02, 5.222665891e-02, 9.118375368e-03, 1.196274813e-02, 6.173316389e-03, 9.086719155e-02, 1.313236821e-02, -1.085042506e-01, 5.749925971e-02, -9.931340069e-02, 2.466920577e-02, 3.689245880e-02, 1.245443150e-01, 1.468416490e-02, 7.445625216e-02, 1.018939838e-01, 1.733257994e-02, 4.128829390e-02, -3.300070763e-02, -8.716371655e-02, -2.011328936e-02, -7.777672261e-02, -4.107192624e-03, -3.147777915e-02, -7.763359696e-02, -9.354162961e-02, 5.621158052e-03, -7.207720727e-02, 3.649273142e-02, -7.242633402e-02, 6.106049754e-03, -5.069168401e-04, 4.926862195e-02, 8.632945269e-02, 3.014761768e-02, -6.779100746e-02, 4.690091312e-02, 6.493289955e-03, 2.812375780e-03, 6.308778375e-02, 2.662708797e-02, 8.131904155e-02, 2.804232575e-02, 1.229072269e-02, 7.268770039e-02, 4.804782942e-02, 6.476707011e-02, 3.899351927e-03, -6.239084061e-03, 7.295355201e-02, 4.200750217e-02, -7.498120423e-03, -5.247377604e-02, 1.852147654e-02, -7.629046589e-02, 1.191702932e-01, -4.383616149e-02, 3.168163449e-02, 1.197760850e-01, 4.965620860e-02, 5.927002430e-02, -1.402731240e-02, 3.967711329e-02, -3.847317398e-02, 7.028769702e-02, 9.562167525e-02, 4.540531896e-03, -9.589967318e-03, -1.985735446e-02, 2.626593970e-02, 5.657366663e-02, -1.584203541e-02, -2.654609307e-05, -6.149988621e-02, -7.097519189e-02, -2.531503700e-02, -2.320862142e-03, 1.181436926e-01, -9.917158633e-02, -8.167507499e-02, -6.706623733e-02, -1.142435893e-02, -7.351340353e-02, -1.106022485e-02, -7.425508648e-02, -7.212147117e-02, -6.834183633e-02, -1.441799253e-01, -6.704761833e-02, -1.647020280e-01, -6.483393908e-02, -4.059171677e-02, -7.424368709e-02, -1.479231715e-01, -1.527736187e-01, -9.512287378e-02, -4.288088530e-02, -7.422205806e-02, -1.011103615e-01, -6.952223927e-02, -2.911283821e-02, -4.244250432e-02, -1.164194122e-01, -7.138652354e-02, -4.747223482e-02, -4.499512911e-02, -5.699953064e-02, -8.655878156e-02, -7.353444397e-02, -6.671532989e-02, -1.000417322e-01, -7.189971209e-02, -1.278890818e-01, -6.441777945e-02, -2.927269228e-02, -9.133444726e-02, -5.036317557e-02, -1.000643298e-01, -7.800579071e-02, -3.794651106e-02, -8.544112742e-02, -8.527226001e-02, 1.293664053e-02, -8.318356425e-02, -5.893884972e-02, -1.034272462e-01, -1.682723761e-01, -5.052242801e-02, -9.269428439e-03, -6.652770936e-02, -4.957305640e-02, 1.823618263e-02, -8.378606290e-02, -8.851126581e-02, -1.504317373e-01, -4.211983457e-02, -5.930911005e-02, 1.312703360e-03, 2.270868747e-03, -5.530515686e-02, -9.079487622e-02, -4.930813611e-02, -1.484824419e-01, -1.081727818e-01, -1.349218376e-02, -8.687422425e-02, -6.900595874e-02, -9.869218618e-02, -7.440967113e-02, -6.507214904e-02, -2.337777801e-02, -2.223141119e-02, -1.363190860e-01, -3.248805925e-02, -1.325402111e-01, -1.381661743e-02, -3.423110396e-02, -7.895980030e-02, -3.442136571e-02, -4.425830767e-02, -1.610810310e-02, -1.014540642e-01, -4.678722471e-02, -3.494476900e-02, -1.729762182e-02, -1.589842737e-01, 1.509487908e-02, -5.739004537e-02, -1.309854686e-01, 6.622400880e-02, -1.121303886e-01, 1.391337346e-02, -5.839863420e-02, 1.516869385e-02, -8.790380508e-02, -1.080741435e-01, -1.575350203e-02, 1.559570618e-02, -2.135326900e-02, -1.232071891e-01, 2.377957664e-02, -1.135729346e-02, -1.063047349e-01, -3.220011294e-02, -8.797283471e-02, -7.556741592e-03, -8.188541234e-02, -4.294764623e-02, 2.968024276e-02, -1.102258917e-02, 7.444842486e-04, -7.840621471e-02, 2.423147671e-02, -2.489787526e-02, -8.043493330e-02, -1.293525379e-02, -4.214839265e-02, -3.847028688e-02, -1.088413224e-01, -5.195574090e-02, -6.131440029e-02, -4.777578637e-02, -3.400886431e-02, 2.947257645e-02, -1.311286986e-01, -1.244096830e-01, -8.291860670e-02, -6.678462029e-02, -1.307351738e-01, -1.197041944e-01, -1.621917933e-01, -9.459446371e-02, -1.656234413e-01, -1.148588061e-01, -4.209368303e-02, -8.797860146e-02, -8.702379465e-02, -7.214843482e-02, -1.432363782e-02, -7.589024305e-02, -8.416407555e-02, -1.500387341e-01, -7.070199400e-02, -4.863975197e-02, -1.393665522e-01, -1.414572597e-01, -7.051290572e-02, -1.365382522e-01, -1.386432350e-01, -8.132777363e-02, -5.527673289e-02, -7.151969522e-02, -1.633103490e-01, -1.774157137e-01, -1.682075113e-01, -2.452651272e-03, -1.067933366e-01, -2.139655128e-02, -5.335991830e-02, -1.720279306e-01, -5.783754215e-02, -1.162684336e-01, -7.396247983e-02, -4.668872431e-02, -1.377812177e-01, -5.642246827e-02, -5.784603953e-02, -6.459629536e-02, -9.769342840e-03, -1.194821149e-01, -1.544430256e-01, -1.139299050e-01, -1.216174290e-01, -8.638742566e-02, -2.565679327e-02, -1.383699030e-01, -5.103878304e-02, -9.669629484e-02, -6.572950631e-02, -1.062559113e-01, -3.964399546e-02, -1.726737767e-01, -5.630350858e-02, -1.064080670e-01, -3.574292362e-02, -6.936161220e-02, -6.229153275e-02, -5.706312135e-02, -8.981911093e-02, -1.677841544e-01, -1.597804278e-01, -2.516708374e-01, -2.131895870e-01, -6.452459097e-02, -2.015234083e-01, -2.088981271e-01, -2.033771425e-01, -2.785217762e-01, -1.794237643e-01, -1.310886294e-01, -1.903749704e-01, -2.852189839e-01, -2.338887304e-01, -2.499904633e-01, -2.271527946e-01, -2.397569120e-01, -2.632462978e-01, -2.799246609e-01, -2.303584516e-01, -1.881879419e-01, -2.269711643e-01, -1.605735123e-01, -1.537393481e-01, -1.431295872e-01, -2.308651060e-01, -2.108343393e-01, -2.552960813e-01, -2.384194434e-01, -1.505410373e-01, -1.952899843e-01, -2.272509038e-01, -1.923741251e-01, -2.115345001e-01, -1.598919332e-01, -2.460352033e-01, -1.892495304e-01, -7.060004026e-02, -2.134412229e-01, -1.820716113e-01, -1.123782620e-01, -1.505210698e-01, -1.548676938e-01, -1.444592625e-01, -2.125460058e-01, -2.546748221e-01, -1.003111526e-01, -1.821623445e-01, -2.285794020e-01, -1.674618870e-01, -2.088084966e-01, -1.473299414e-01, -3.099466562e-01, -2.351418734e-01, -1.666557789e-01, -1.523461938e-01, -2.428020835e-01, -2.350886911e-01, -2.521649301e-01, -2.144696265e-01, -2.055338174e-01, -2.778815627e-01, -1.998055428e-01, -2.558589876e-01, 9.402026236e-02, 3.131543100e-02, 3.732433543e-02, 8.474007249e-02, 3.099283390e-02, 1.860158332e-02, 1.402462646e-02, 3.003848344e-02, 6.534044165e-03, 7.684672624e-02, 7.042412180e-04, 1.593441470e-03, 9.723705053e-02, 5.343730375e-02, -6.757691968e-03, 4.450155050e-02, 3.723356128e-02, 8.948886395e-02, 4.959424213e-02, -7.611109875e-03, -5.875138193e-02, 6.604452431e-02, 4.961498082e-02, 4.606459290e-02, 6.670231372e-02, 3.698101267e-02, 7.435107976e-02, 7.364782691e-02, 6.157157570e-02, -2.672136761e-02, 9.489440173e-02, 1.638697647e-02, 6.344195455e-02, 1.344661266e-01, 1.906025410e-01, 2.802681923e-02, 6.785840541e-02, 8.994430304e-02, 3.543909267e-02, 8.726897091e-02, 4.782660399e-03, 2.054922841e-02, 1.659613475e-02, -2.768755704e-02, 1.246852577e-01, 8.642982692e-02, 5.622000992e-02, 7.145065069e-02, 9.883777052e-02, 4.977598786e-02, 7.517494261e-02, -6.592167169e-02, 1.121751517e-01, 5.011973903e-02, -3.068278916e-02, 9.431052208e-02, 3.068793193e-02, 1.215959415e-01, -1.537053287e-01, -8.338985592e-02, 1.597065665e-02, 5.260575563e-06, 1.725436747e-02, 9.098991752e-03, -6.334782392e-02, 9.354158491e-02, 2.860345133e-02, -2.022882365e-02, 1.250083745e-02, -2.290401980e-02, 4.239553958e-02, 2.067062072e-02, 8.367467672e-02, 1.526041478e-01, 6.545808166e-02, -1.377541199e-02, 4.786546901e-02, 2.343850583e-01, 1.085172370e-01, 4.065494612e-02, 5.703995004e-02, 4.384686053e-02, 7.695789635e-02, 8.869786561e-02, 6.439428777e-02, 2.991627157e-02, 4.530376196e-02, 2.883073315e-02, 8.744423836e-02, -6.932581775e-03, 1.144294813e-01, 8.200298250e-02, 6.858732551e-02, 7.836355269e-02, 4.575988278e-02, 5.498280749e-02, 1.589979082e-01, 1.394376811e-02, 4.315074906e-02, 5.189494416e-02, 2.106177248e-02, 3.816140443e-02, -3.484004363e-02, 7.096535712e-02, 2.118475176e-02, 6.236508861e-02, 3.865438327e-02, 1.375542432e-01, 9.483367205e-02, 1.463409979e-02, 9.591832757e-02, -6.361680571e-04, 9.868361056e-02, 6.491249055e-02, 7.688173652e-02, -2.059616707e-02, 1.884234399e-01, 5.983653292e-02, 5.312175956e-03, -3.007685207e-02, 3.281295672e-02, -3.406001255e-02, -3.387778997e-02, 1.931920834e-02, -7.964028418e-02, 1.668042317e-02, 1.476524677e-02, -1.257516146e-01, 1.375970691e-01, 1.674284935e-01, 1.061808392e-01, 5.133367702e-02, 7.090166956e-02, 1.161684468e-01, 1.547956914e-01, 1.200992912e-01, 1.348179877e-01, 1.259101629e-01, 6.465767324e-02, 1.099296138e-01, 2.119377442e-02, 9.828137606e-02, 1.438842155e-02, 1.271846741e-01, -1.218472980e-02, 1.511309743e-01, 1.594089866e-01, 9.200425446e-02, 5.025657266e-02, 1.038116589e-01, 1.227170303e-01, 1.441237479e-01, 1.651384532e-01, 4.903347045e-02, 8.608257771e-02, 5.352085084e-02, 9.340560436e-02, 1.421358734e-01, 1.107799709e-01, 7.385575026e-02, 8.035302162e-02, 7.523632050e-02, 8.473499864e-02, 1.376606524e-01, 1.293115765e-01, 9.642789513e-02, 4.081634805e-02, 9.864006937e-02, 8.280602843e-02, 1.666719466e-01, 8.626157790e-02, 1.528258324e-01, 9.378275275e-02, 2.902064472e-02, 1.447532922e-01, 1.777460724e-01, 4.504648596e-02, 1.561883241e-01, 1.122904196e-01, 6.333205849e-02, 9.246866405e-02, 1.673310399e-01, 7.640046626e-02, -6.280567497e-02, -6.822264940e-02, 1.626609266e-01, -5.625730846e-04, 1.085622460e-01, 8.231619000e-02, 8.959288895e-02, 9.834391624e-02, 5.472671241e-02, 1.356296986e-01, 1.732127666e-01, 7.349424064e-02, -7.899289951e-03, 1.798412204e-01, 5.371931940e-02, 1.147162467e-01, 9.825767577e-02, 5.925754085e-02, 5.131528154e-02, 1.102237776e-01, 8.443779498e-02, 8.470858634e-02, 7.406885922e-02, 1.338175535e-01, 1.290567368e-01, -1.892293245e-02, 2.796304878e-03, -1.757473871e-02, 3.726260737e-02, 1.448178589e-01, 1.750440449e-01, 1.727585047e-01, 2.697145566e-02, 1.123446301e-01, 7.177098095e-02, 1.249538809e-01, 3.945164755e-02, 3.003548458e-02, 2.200262435e-02, 1.665364355e-01, 1.385056823e-01, 3.491536900e-02, 5.568151549e-02, 1.659094244e-01, 5.870272219e-02, 8.332496881e-02, 1.096247807e-01, 7.875340432e-02, 1.361646652e-01, 1.112298369e-01, 1.203322876e-02, 1.272118390e-01, 8.856659383e-02, 1.657700986e-01, 5.700404197e-02, 9.856758267e-02, 8.594772965e-02, 3.871242702e-02, 6.589064002e-02, 1.038362607e-01, 1.512872428e-01, 4.453226551e-02, 1.642417461e-01, 1.020615250e-01, 8.758427203e-02, 9.561789781e-02, 1.432874799e-01, 1.569618434e-01, 5.629235879e-02, 5.233710259e-02, 7.652264088e-02, 8.995361626e-02, 2.035114914e-01, 1.893634796e-01, 1.393413842e-01, 1.281784326e-01, 2.001284063e-01, 6.077784300e-02, 1.689548939e-01, 1.512357891e-01, 1.987106651e-01, 9.678809345e-02, 1.479994059e-01, 1.123406291e-01, 1.703752130e-01, 1.227053329e-01, 8.109220862e-02, 1.468742639e-01, 9.866088629e-02, 2.349615842e-01, 2.037265748e-01, 1.693304032e-01, 1.685500890e-01, 1.959463656e-01, 9.127138555e-02, 8.533096313e-02, 8.964552730e-02, 1.651410460e-01, 2.406410277e-01, 2.000091672e-01, 1.734212786e-01, 1.697608680e-01, 1.887110770e-01, 8.665732294e-02, 1.579759866e-01, 1.282776743e-01, 2.093852609e-01, 1.448955983e-01, 1.294679940e-01, 1.855248511e-01, 1.901812255e-01, 2.430920750e-01, 2.220888436e-01, 1.032751650e-01, 1.165851727e-01, 6.907663494e-02, 1.626629531e-01, 1.374694854e-01, 1.299945414e-01, 1.133106798e-01, 1.684896350e-01, 1.157977879e-01, 8.499087393e-02, 2.010057122e-01, 1.438180059e-01, 1.127095148e-01, 1.662563533e-01, 1.621152163e-01, 1.807299703e-01, 9.468737245e-02, 1.610118002e-01, 1.660169959e-01, 2.047038674e-01, 2.198845595e-01, 2.485983074e-01, 1.719800234e-01, 2.591413446e-02, 2.650337815e-01, 2.871505022e-01, 2.342283279e-01, 1.443866342e-01, 3.710905015e-01, 1.848746389e-01, 3.246533573e-01, 2.444742322e-01, 2.072809190e-01, 1.549457163e-01, 3.019915819e-01, 2.815670669e-01, 2.444768399e-01, 2.649728954e-01, 2.145356089e-01, 1.744384021e-01, 2.094868124e-01, 1.467801481e-01, 2.988641560e-01, 2.117155939e-01, 8.256157488e-02, 2.394286245e-01, 3.113787174e-01, 2.940409482e-01, 2.302484810e-01, 2.556746304e-01, 2.849647403e-01, 3.270449042e-01, 2.386055440e-01, 1.690533608e-01, 1.839085370e-01, 2.115696520e-01, 2.759590745e-01, 1.310886294e-01, 2.537717223e-01, 1.521291882e-01, 1.616531312e-01, 2.994651794e-01, 1.341893375e-01, 1.101622581e-01, 1.758528501e-01, 2.287378460e-01, 2.282535732e-01, 1.989037991e-01, 2.861079276e-01, 1.695923954e-01, 1.013619825e-01, 2.197137475e-01, 1.947087049e-01, 1.839709729e-01, 2.354650348e-01, 2.334159315e-01, 1.135974303e-01, 2.033184320e-01, 2.025940716e-01, 2.532543540e-01, 1.808334291e-01, 2.218612581e-01, 1.491592377e-01, 2.243312746e-01, 1.687733084e-01, 2.271625251e-01, 1.666906178e-01, 3.148014247e-01, -3.822784498e-02, 1.326688081e-01, -5.349612236e-02, 8.156350255e-02, -1.247298904e-02, 1.519685425e-02, -1.557400217e-03, 1.466969028e-02, -3.693041950e-02, -2.164258389e-03, 1.707824180e-03, 8.673201315e-03, -2.024573646e-02, 2.923670597e-02, 1.138924342e-02, 5.947209895e-02, -2.222658880e-02, 1.205240116e-01, 6.550535560e-02, -1.525572874e-02, 1.088550501e-02, -2.884146012e-02, 1.237766147e-01, -1.094537694e-02, 1.170796528e-02, 2.725855447e-02, -4.348716466e-04, -4.597450607e-03, -1.158819254e-02, 7.279501855e-02, 6.133346260e-02, 4.608200490e-02, 4.090834409e-04, 4.198997468e-02, 7.257989049e-02, 6.060412899e-02, 1.241228655e-01, 5.890588090e-02, 9.149742126e-02, 6.047942489e-02, 5.148109049e-02, -3.854460269e-02, 6.608526409e-02, 7.172948122e-02, 5.375867710e-02, 6.478102505e-02, 4.737148806e-02, 3.696124256e-02, 1.549087837e-02, -4.210004117e-03, 4.649293795e-02, 6.940959394e-02, 5.484449863e-02, 8.505106717e-02, 5.684566125e-02, 9.298374504e-02, -9.668898769e-03, -3.753721248e-03, 3.685865551e-02, -3.299595322e-03, -8.436204866e-03, -3.127741441e-02, 1.402828395e-01, -2.577651292e-02, 2.699240483e-02, -7.167242467e-03, -4.826519266e-02, -4.019696265e-02, 6.082104146e-02, -6.780695170e-02, -6.604116876e-03, -4.233508371e-03, -1.691939868e-02, -2.444058191e-03, 1.154822204e-02, -5.139611661e-02, -4.674277827e-02, -6.948360801e-02, -1.822550781e-02, -6.872947514e-02, -1.190538984e-02, -6.502963603e-02, -1.552935969e-02, -4.055429623e-02, -9.253647178e-03, 2.367419191e-02, 3.248811141e-02, 2.103132941e-02, -6.440338492e-02, 1.085496228e-02, -4.043008387e-02, -8.530461229e-03, 8.140355349e-02, 3.167050192e-03, 2.731457725e-02, 7.460470498e-02, -1.392410882e-02, -8.978074417e-03, -3.293189406e-02, 8.343517035e-02, 5.815660581e-02, 1.248823106e-02, -3.292751685e-02, 9.119605273e-02, -5.226107314e-04, -5.898984894e-02, -6.954001728e-03, -9.638271295e-03, 5.156263243e-03, 5.998061970e-03, 8.127223700e-02, 5.067423731e-02, 5.430853367e-02, -2.647326328e-02, 6.115595344e-03, 4.489377886e-02, 2.170954458e-02, 2.428238094e-02, 2.933039097e-03, -4.779320583e-02, 3.233226389e-02, -3.567695245e-02, -7.775590569e-02, -3.450857475e-02, -1.740196347e-02, 5.699486658e-02, 7.555384655e-03, -5.372875929e-02, 3.853807598e-02, -9.746453911e-02, -7.890503109e-02, -2.124614827e-02, -2.364717424e-02, -9.508415312e-02, -7.741452754e-02, -1.360116899e-01, -1.002728716e-01, -1.164371893e-02, -4.252719879e-02, -1.421144903e-01, -6.636761874e-02, -9.802782536e-02, -1.355209574e-02, -9.766780585e-02, -1.144540161e-01, -1.211447641e-01, -9.726013243e-02, -3.827369213e-02, -9.890303761e-02, -4.267805256e-03, 3.609455749e-02, -3.470307216e-02, -1.756786928e-02, 2.803432755e-02, -1.185661089e-02, -4.823058099e-02, -2.552325651e-02, -3.919703141e-02, 3.688791767e-02, -8.229473978e-02, -9.557214379e-02, -3.220508993e-02, -2.773079276e-02, -3.877448663e-02, -3.114908561e-02, -3.387086466e-02, -9.333578497e-02, -4.048818350e-02, -8.212305605e-02, -6.827270146e-03, 6.550373137e-02, -1.098613814e-01, -2.585528418e-02, -2.261622250e-02, -5.680934340e-02, -7.135008276e-02, -1.137111187e-01, -1.053590700e-01, -2.967863157e-02, -5.889445171e-02, -6.205261499e-02, -1.110517606e-02, -3.181019425e-02, -8.341798931e-02, -1.430155933e-01, -5.755836144e-02, 6.334167719e-02, -1.253855880e-02, -2.291660011e-02, 3.966832906e-02, -8.183906227e-02, -8.734068274e-02, -1.247936394e-02, -3.799231723e-02, -1.499019265e-01, -9.809388965e-02, -3.072002204e-03, -7.146981359e-02, -8.362712711e-02, 1.105785742e-02, -1.617492735e-02, -3.627081588e-02, 2.099644952e-02, -8.955106139e-02, -5.115767196e-02, -7.310167700e-02, -7.781073451e-02, -4.309780896e-02, -6.288789958e-02, -1.467137691e-02, 1.303971861e-03, 3.491016850e-02, -8.210346848e-02, 5.071296170e-02, 2.551406622e-02, -4.740597308e-02, -8.335197717e-02, -6.561338156e-02, -4.666029289e-02, -4.093966261e-02, -6.973407418e-02, -3.641698882e-02, -4.483737797e-02, -6.149139255e-02, -1.841427013e-02, 1.471962966e-02, -5.805244297e-02, 1.139878388e-02, -9.280114621e-02, 3.271985054e-02, -8.459693938e-02, 6.179834250e-03, -1.014596000e-01, -1.945334673e-02, -4.896801338e-02, -6.205309555e-02, -7.150384784e-02, 2.239023894e-02, -2.766385674e-02, 2.327005845e-03, -1.391477138e-02, -4.611644521e-02, -7.926978171e-02, 1.634587906e-02, 2.848634496e-02, -8.443580568e-02, -9.672436118e-02, -1.001861766e-01, -5.978052691e-02, -5.629751086e-02, -2.249560878e-02, -8.589813858e-02, 8.420930803e-02, 1.539999899e-02, 2.515360340e-02, -6.523479521e-02, -1.089796573e-01, -4.939125851e-02, -1.047244817e-01, -1.157170758e-01, -1.539963484e-01, -2.439706773e-01, -2.679587528e-02, -1.619900614e-01, -3.740821779e-02, -7.045456767e-02, -1.343517303e-01, -8.695726842e-02, -7.872372866e-02, -1.350897700e-01, -1.191533431e-01, -9.520779550e-02, -1.801321954e-01, -7.588704675e-02, -1.552010328e-01, -1.184298992e-01, 1.001244336e-01, -1.763990223e-01, -1.109692082e-01, -1.219961047e-01, -8.287999034e-02, -1.205914840e-01, -1.118075624e-01, -1.148037706e-02, -6.220245734e-02, -9.953175485e-02, -1.454149783e-01, -1.273240894e-01, -1.453862041e-01, -8.912093192e-02, -1.317161173e-01, -2.504322305e-02, -1.587022394e-01, -9.243886173e-02, -5.903046951e-02, -1.461111903e-01, -5.489458516e-02, -7.218262553e-02, -4.504276067e-02, 3.242019191e-02, -6.233320013e-02, -9.384466708e-02, -8.661831170e-02, -1.112354845e-01, -3.912923113e-02, -6.504964083e-02, 2.482633665e-02, -1.553424597e-01, -1.253019124e-01, -5.308124796e-02, -7.097328454e-02, -9.607747942e-02, -5.525645614e-02, -6.542730331e-02, -7.078444958e-02, -5.724111199e-02, -1.062424481e-02, -8.303185552e-02, -1.312094033e-01, -8.479512483e-02, -2.080037147e-01, -3.016251624e-01, -2.313919067e-01, -1.625656933e-01, -2.765544355e-01, -2.131861597e-01, -1.987746656e-01, -2.192707807e-01, -1.432668716e-01, -1.225668639e-01, -1.449384093e-01, -2.415889204e-01, -1.986293197e-01, -2.334139347e-01, -2.344637215e-01, -2.650358379e-01, -1.881107837e-01, -1.094772294e-01, -1.530175656e-01, -2.394933105e-01, -2.335797995e-01, -1.925054789e-01, -1.968230158e-01, -2.375935167e-01, -1.703680903e-01, -2.076194435e-01, -2.401372045e-01, -2.461230755e-01, -2.429833561e-01, -2.084931731e-01, -1.919717044e-01, -2.674037516e-01, -1.870640069e-01, -2.036940306e-01, -1.607908309e-01, -2.524440587e-01, -2.124667913e-01, -1.850210577e-01, -2.577467561e-01, -1.532427073e-01, -2.186642140e-01, -1.753267199e-01, -2.515364289e-01, -9.990198910e-02, -2.381877303e-01, -2.389757335e-01, -1.465884894e-01, -1.712155044e-01, -2.569482028e-01, -2.533498704e-01, -2.687332034e-01, -1.290043443e-01, -2.262707949e-01, -1.878575385e-01, -2.305593938e-01, -1.844093800e-01, -2.583033741e-01, -1.737461984e-01, -1.880857646e-01, -1.994065493e-01, -1.514148265e-01, -1.089211330e-01, -2.027857602e-01, -2.934943438e-01, 9.088862687e-02, 8.569124341e-02, -2.548317658e-03, 5.667114258e-02, 3.443225473e-02, 1.789440028e-02, 4.380059615e-02, 4.495887831e-02, 4.730615392e-02, 1.710206270e-02, 6.414519995e-02, 1.302867383e-01, 7.991331629e-03, 6.836771220e-02, 1.064309329e-01, -3.725923365e-03, 4.562752694e-02, 1.028942503e-02, 4.521657154e-02, 6.997788697e-02, 9.509682655e-02, 2.144336700e-02, 5.680631846e-02, 2.613022178e-02, -3.186800983e-03, 9.647654742e-02, 5.348753929e-02, 3.683096543e-02, 4.250023514e-02, 1.706361026e-02, 6.272049248e-02, 8.973802626e-02, 2.349523827e-02, -3.488967195e-02, 6.021653116e-02, -5.592025071e-02, -3.193711862e-02, 6.852468103e-02, 3.385170549e-02, 5.458861217e-02, 6.597725302e-02, -9.539914131e-02, -6.735044718e-02, 1.464648917e-02, 5.175871402e-02, 4.465372302e-03, 6.960331649e-02, -4.845886957e-03, -3.066914901e-02, 1.080682799e-01, 5.030722823e-03, -6.086581945e-02, -2.796548791e-02, -3.000141680e-02, 2.161698649e-03, -3.341142833e-02, 1.666104980e-02, 3.987169266e-02, 6.883013248e-02, -5.975022167e-02, -3.308707103e-02, -4.725724831e-02, 4.607046023e-02, -9.546358138e-02, -4.412153736e-02, 4.920729250e-02, -7.007023692e-02, 1.724685356e-02, -5.292044953e-02, -6.758565456e-02, -6.561518461e-02, -1.009521931e-01, 1.454856806e-02, 5.544185266e-02, 9.089068323e-02, 4.950706288e-02, 1.496210508e-02, 1.368718445e-01, 1.629325189e-02, 6.916706264e-02, 6.080598757e-02, 6.641044468e-02, 3.010479361e-02, 4.684802517e-02, 1.110506654e-01, 2.351256274e-02, -1.754398691e-03, 1.634237021e-01, 2.507478744e-02, 2.695391886e-02, 1.520159245e-01, 2.696522139e-02, 7.434197515e-02, 6.470021605e-02, 1.066877395e-01, 1.265791953e-01, 1.154664606e-01, 5.258531868e-02, 2.824723907e-02, 2.034199424e-03, 2.743163519e-02, 2.932843752e-02, -1.299669687e-02, 5.892486125e-02, 6.110089645e-02, 2.505548112e-02, 4.963897541e-02, 5.481018219e-03, 4.282523319e-02, -5.906593287e-05, 1.099171788e-01, 8.138299733e-02, 5.243824050e-02, 1.680876687e-02, 5.406393856e-02, 8.272267133e-02, 1.139994338e-01, 7.011592388e-02, 8.736314625e-02, 5.785567686e-02, -4.316609411e-04, 1.812592708e-02, -2.084309980e-02, 2.017837577e-02, -3.954189830e-03, -6.008552015e-02, 4.970552772e-02, 5.861493573e-02, 4.296613485e-02, 1.560367197e-01, 1.200858410e-02, 9.296333045e-02, 1.345959306e-01, 5.894035473e-02, 9.759362042e-02, 9.750917554e-02, 1.578623950e-01, 1.021531224e-01, 1.411946714e-01, 9.264486283e-02, 9.483950585e-02, 9.164571762e-02, 6.862038374e-02, 6.863060594e-02, 1.005565673e-01, 8.865357190e-02, 1.582743526e-01, 8.032732457e-02, 9.169380367e-02, 1.972403675e-01, 8.800725639e-02, 1.049066633e-01, 9.530495852e-02, 1.103421301e-01, 1.755723804e-01, 9.654313326e-02, 1.122431159e-01, 8.244395256e-02, 8.106758446e-02, 1.254664063e-01, 1.088014245e-02, 1.115869880e-01, 1.008724943e-01, 1.421264112e-01, 1.488560438e-01, 1.483814716e-01, 5.371573567e-02, 8.744017035e-02, 7.664238662e-02, 1.815217584e-01, 4.720999673e-02, 1.332203895e-01, 1.373296380e-01, 9.469246119e-02, 8.981233090e-02, 6.402277201e-02, 2.033553645e-02, 1.632971615e-01, 1.525032707e-02, 1.273841560e-01, 5.847204104e-02, 1.481888741e-01, 1.161647514e-01, 2.585214563e-02, 9.839041531e-02, 1.014600918e-01, 4.968309402e-02, 1.663201451e-01, 1.382945180e-01, 1.926927716e-01, 8.886467665e-02, -6.569699850e-03, 6.290181726e-02, 1.054773703e-01, 9.649726003e-02, 8.515452035e-03, 1.660306156e-01, 7.407665998e-02, 9.544749558e-02, 8.038333803e-02, 1.246761605e-01, 9.282345325e-02, 1.097878590e-01, 1.401460618e-01, 2.247470915e-01, 1.389610320e-01, 3.924685717e-02, 1.333804578e-01, 1.462594718e-01, 1.089691222e-01, 1.699859500e-01, 5.771192908e-02, 1.402526051e-01, 5.919478089e-02, 1.056578234e-01, 1.187723055e-01, 5.835410953e-02, 2.368228510e-02, 1.586957127e-01, 7.059743255e-02, 8.576983958e-02, 5.227729678e-02, -1.069690799e-03, 1.214090511e-01, 9.981339425e-02, 1.491674632e-01, 8.438266069e-02, 1.045169383e-01, 1.712014973e-01, 7.764149457e-02, 1.505380422e-01, 5.074058846e-02, 2.165251076e-01, 9.692198038e-02, 1.586715132e-01, 1.318636090e-01, 7.854285091e-02, 1.636254191e-01, 6.325191259e-02, 1.057409719e-01, 7.596631348e-02, 1.167870387e-01, 5.434820056e-02, 9.083085507e-02, 7.518668473e-02, 7.477813214e-02, 1.157499775e-01, 1.286114007e-02, 1.436305493e-01, 1.521036327e-01, 5.854539946e-02, 1.371693611e-01, 7.662095129e-02, 6.995867938e-02, 8.391728997e-02, 1.146818921e-01, 1.621058583e-01, 3.242119774e-02, 1.488191485e-01, 1.106846705e-01, 1.475172043e-01, 1.558945477e-01, 1.765957475e-01, 1.658301353e-01, 1.535475105e-01, 9.773790091e-02, 1.950637847e-01, 2.378136069e-01, 1.017151028e-01, 2.479595840e-01, 1.892942935e-01, 1.533539593e-01, 2.332245260e-01, 4.924178496e-02, 8.718959987e-03, 1.762876958e-01, 1.342446953e-01, 1.360029727e-01, 1.085601151e-01, 1.319555938e-01, 1.659952253e-01, 6.370182335e-02, 1.463381201e-02, 1.195663735e-01, 2.052781582e-01, 1.951167136e-01, 1.300406605e-01, 1.459158063e-01, 1.753169298e-01, 1.415486038e-01, 8.766859770e-02, 1.623200476e-01, 1.167203337e-01, 2.334164679e-01, 7.354857773e-02, 1.187654957e-01, 1.383354217e-01, 1.996106356e-01, 2.016212046e-01, 1.341925114e-01, 1.462097764e-01, 1.404520273e-01, 1.919240505e-01, 2.817356586e-01, 1.094754636e-01, 1.375264972e-01, 1.536476314e-01, 1.160133034e-01, 2.080839574e-01, 2.417956591e-01, 1.345271766e-01, 1.393570155e-01, 7.735481858e-02, 1.325340122e-01, 1.708283573e-01, 1.583897918e-01, 1.550674140e-01, 2.021515071e-01, 1.625332236e-01, 1.225655153e-01, 2.329136580e-01, 1.867465377e-01, 3.525246382e-01, 2.249277681e-01, 1.989475489e-01, 2.621144950e-01, 1.750496328e-01, 3.089669049e-01, 3.253769279e-01, 2.331766039e-01, 1.978890300e-01, 2.635995150e-01, 2.210323513e-01, 1.843124032e-01, 9.117007256e-02, 2.419261485e-01, 2.040960491e-01, 1.260533035e-01, 3.091478944e-01, 2.272268832e-01, 2.118546516e-01, 2.338671982e-01, 2.064044476e-01, 1.423065811e-01, 2.799859047e-01, 2.093075961e-01, 2.761273086e-01, 2.103582472e-01, 2.629528344e-01, 3.137572706e-01, 1.411446035e-01, 1.981544346e-01, 2.535490394e-01, 2.613249421e-01, 2.753758729e-01, 2.093903422e-01, 2.020757049e-01, 2.989671826e-01, 3.012829721e-01, 2.251222730e-01, 2.336902320e-01, 2.203729302e-01, 3.174043596e-01, 1.873729527e-01, 3.015195131e-01, 2.232364565e-01, 2.361942381e-01, 2.178041935e-01, 2.847166657e-01, 1.449351013e-01, 2.760283649e-01, 2.936549485e-01, 2.128968239e-01, 2.912784815e-01, 2.075123191e-01, 2.278621048e-01, 2.656948566e-01, 2.617172599e-01, 2.290394157e-01, 1.911889762e-01, 1.755413562e-01, 2.218346745e-01, 3.728152215e-01, 1.411376297e-01, 6.060723588e-02, 1.722945645e-02, 1.403949782e-02, -1.089053527e-01, 2.374266088e-02, 2.963620611e-02, -8.099053055e-02, -2.957437653e-03, 6.540314853e-02, -1.068161242e-02, -8.086540550e-02, 1.412233114e-01, -1.733857095e-01, 9.996497072e-03, -2.175610140e-02, 7.019172609e-02, 8.665812016e-02, -1.975964755e-02, 2.009709328e-01, 9.100696445e-02, -3.086807579e-02, 5.933395401e-02, 4.525694530e-03, 4.558562860e-02, 2.210415155e-02, 1.707971394e-01, -2.748641372e-02, 2.765355445e-02, 2.414243110e-02, 1.087976061e-02, 2.884691209e-02, 4.753013328e-02, -2.984760329e-02, 1.135254651e-01, 1.345978957e-02, 1.892174594e-02, -1.571517624e-02, 9.541235864e-02, 1.482125968e-01, 7.130853087e-02, 2.648173645e-02, 9.502255917e-02, 2.609030902e-02, 2.972784452e-02, -7.884404622e-03, 4.023826867e-02, 2.602470480e-02, 1.340255737e-01, 9.474810213e-02, 1.755507477e-02, 2.578810975e-02, 1.916159503e-02, 5.927416682e-02, 3.106567636e-02, 3.333175555e-02, 6.388010085e-02, 3.538697213e-02, 1.578347292e-03, 1.092411280e-01, 8.095858991e-02, 8.106507361e-03, 5.340088531e-02, 2.797717974e-02, 3.605319187e-02, 6.158587337e-02, 8.818895370e-02, 1.039244682e-01, 6.093118712e-02, -3.954964504e-02, -3.978666291e-02, 4.320590198e-02, 5.184268206e-02, -7.184366882e-02, -8.607962728e-02, -4.189044982e-02, -2.611165121e-02, -3.964400664e-02, -6.858810782e-02, -7.799481601e-02, -2.424922585e-02, -3.330475837e-02, 8.454693481e-03, 3.301972151e-02, -6.986349821e-02, -5.592620373e-02, -4.706013948e-02, -2.264729142e-02, -1.055237744e-02, 1.498443075e-03, 2.965847030e-03, -1.515440457e-02, -1.833802089e-03, -1.423150301e-02, -2.440098440e-03, -2.724297717e-02, -4.906466231e-02, -2.218747139e-02, 3.345104679e-02, -3.645274043e-02, 1.705938205e-02, -1.013730373e-02, 2.254216000e-02, -1.868879981e-02, 2.108862391e-03, 7.148696575e-03, 7.227718085e-02, 2.995771356e-02, -4.235832021e-03, 3.860745579e-02, 3.625997528e-02, 1.328811198e-01, 7.114155591e-02, 5.780460685e-02, 2.780249901e-02, -5.595092662e-03, 4.491347820e-02, -1.764416578e-03, -5.517758429e-02, 1.561115775e-02, 7.666558027e-02, 2.997909673e-02, 6.731348112e-04, -4.162998497e-02, -1.582736894e-02, -4.060288519e-02, -6.916444749e-03, 8.957115561e-02, -9.298984706e-02, -4.663500935e-02, -1.132590920e-01, -1.271904707e-01, -3.685410321e-02, -2.425211109e-02, -5.934094079e-03, -1.924771350e-03, 1.096344367e-02, -9.842721373e-02, -1.230860688e-02, 7.909408771e-03, -2.767333388e-02, -5.091170222e-02, -1.395964324e-01, -9.471714497e-02, -1.688504517e-01, -5.109987035e-02, 6.665907055e-02, -1.714637689e-02, 3.580595180e-02, -8.736968040e-03, -4.472606629e-02, 1.740159467e-02, -7.860261947e-02, -3.876657784e-02, -4.299497977e-02, -5.607187748e-02, -4.715575278e-02, 1.413990743e-02, -7.368240505e-02, -8.518776298e-02, -2.941696346e-02, -5.826825649e-02, -6.446574628e-02, -8.222053200e-02, -9.007665515e-02, -8.006766438e-02, 1.144333160e-03, -7.201562077e-02, 5.459398497e-03, -7.593321055e-02, -5.747545138e-02, -6.626813859e-02, -5.275471881e-02, -8.896736801e-02, 6.024510413e-02, -6.909882277e-02, -5.971616879e-02, -1.541436836e-02, -6.820958108e-02, -6.033905968e-02, -4.527800530e-02, 6.107020006e-02, 1.355432346e-02, -2.901596017e-02, -1.644530334e-02, -1.404437423e-01, -5.687657371e-02, -8.198474348e-02, -2.246041000e-01, 4.285841063e-02, -4.004152119e-02, -4.755670577e-02, 9.976978600e-02, 9.804460220e-03, -7.533173263e-02, -1.037861258e-01, -3.300981596e-02, 2.880989760e-02, -9.567083418e-02, -1.433943510e-01, -8.750112355e-02, -3.910983354e-02, -1.053664237e-01, -1.029445454e-01, -3.176742932e-03, 8.973727934e-03, -1.226449907e-01, -5.396419019e-02, -4.073831812e-02, -1.032253802e-01, 1.738425717e-02, -2.507230826e-02, 1.385461353e-02, -7.952128351e-02, -1.088743731e-01, -1.344107240e-01, -1.010417640e-01, 4.211813584e-02, -3.369240090e-03, -6.214879453e-02, -2.831879444e-02, -1.313185841e-01, -1.267596483e-01, -1.160171032e-01, -5.767133087e-02, -2.508628555e-02, -4.093596339e-02, -1.102589890e-01, -4.981082678e-02, 1.316432375e-02, -7.071581483e-02, -6.729337573e-02, -4.783067852e-02, -3.145873919e-02, -1.177133694e-01, -8.723133057e-02, -6.701664627e-02, -5.648503080e-02, -3.023838624e-02, -6.944385916e-02, 9.775432991e-04, -1.418389976e-01, 1.085074153e-03, -2.949843183e-02, -2.974142693e-02, 4.483159166e-03, -3.944285959e-02, -1.036820281e-02, -5.304514430e-03, -8.734975010e-03, 8.061718196e-02, -8.183644712e-02, 1.309508923e-03, -7.831787318e-02, -9.617024660e-02, 2.266363427e-02, -4.160341620e-02, -8.307082206e-02, -6.514739245e-02, -1.106368378e-01, -6.965637207e-02, -3.352243453e-02, -2.012111805e-02, -5.917947739e-02, -5.644933507e-02, -7.959501445e-02, -3.362425789e-02, -9.689649940e-02, -1.890707575e-02, -1.572113112e-02, -1.289855540e-01, -8.656148612e-02, -7.309679687e-02, -1.313849390e-01, -2.173107490e-02, -2.588653751e-02, -5.619636178e-02, -8.124499023e-02, -9.796129167e-02, -1.327883452e-01, -9.913972020e-02, -1.390015781e-01, -7.490364462e-02, -7.584763318e-02, -9.845338017e-02, -8.240956813e-02, -6.691125035e-02, -9.127424657e-02, -7.980909199e-02, -6.155964732e-02, -3.912132978e-01, -8.116046339e-02, -6.072714552e-02, -3.472498804e-02, -4.692903161e-02, -1.756685972e-02, -8.904106915e-02, -2.748349681e-02, -1.291240752e-01, -3.878841922e-02, -1.036091596e-01, -7.607480884e-02, 1.843456179e-01, -9.257736057e-02, -6.828777958e-03, -6.711237133e-02, -8.125028759e-02, -9.578438103e-02, -7.482145727e-02, -6.218393520e-02, -5.234045982e-01, -5.822851509e-02, -3.026198782e-02, -1.160330176e-01, -5.197087675e-02, -1.099072471e-01, -2.728216536e-02, -1.291234940e-01, -4.113632068e-02, -1.118213311e-01, -7.433921099e-02, -2.009442300e-01, -1.515802592e-01, -1.753157824e-01, -2.561671138e-01, -3.201936483e-01, -2.582101822e-01, -1.518360823e-01, -2.629660368e-01, -2.246461511e-01, -1.621149033e-01, -3.116123378e-01, -2.867078483e-01, -2.073638290e-01, -1.692214906e-01, -1.487136185e-01, -1.490894705e-01, -1.187594607e-01, -1.630413979e-01, -1.640056372e-01, -1.839248389e-01, -2.382135093e-01, -1.915656626e-01, -2.312037200e-01, -2.730683684e-01, -1.874817610e-01, -3.840709925e-01, -1.863413304e-01, -1.495118737e-01, -1.985527724e-01, -4.116653502e-01, -1.959263831e-01, -1.118415892e-01, -1.534581929e-01, -1.703996211e-01, -2.243867069e-01, -2.535818815e-01, -2.170287073e-01, -2.252657562e-01, -1.628710330e-01, -1.784980297e-01, -1.712894738e-01, -1.902700514e-01, -2.190647125e-01, -2.061483562e-01, -1.988017261e-01, -2.345493883e-01, -2.120309174e-01, -1.605833918e-01, -2.317985296e-01, -1.284733415e-01, -3.169758916e-01, -1.839619279e-01, -1.708750129e-01, -1.799129546e-01, -1.747113615e-01, -1.283252835e-01, -1.878883392e-01, -2.762148380e-01, -1.909498125e-01, -2.004424483e-01, -1.549883485e-01, -2.272239029e-01, -1.808507591e-01, -1.099848524e-01, 1.032237858e-01, 2.487250417e-02, -9.396287799e-02, 6.060461327e-02, -8.957298473e-03, 5.304143950e-02, 3.172304854e-02, 4.605618864e-02, 9.402241558e-02, 1.052742153e-01, 5.630543083e-02, 2.343441360e-02, 1.602970622e-02, 2.898049355e-02, 2.002384663e-01, 1.065247133e-01, 4.949944094e-02, 6.491237134e-02, 1.024883762e-01, 5.470368639e-02, 1.053526998e-01, 3.998566419e-02, 1.854129322e-02, 1.943963394e-02, 7.139298320e-02, 1.752204821e-02, 1.070901230e-01, 4.346544854e-03, 2.783633582e-02, 4.963341355e-02, 4.304577038e-02, -1.307303645e-02, 4.774079472e-02, -1.040644851e-02, -1.908537000e-02, -1.880131196e-03, 3.848243877e-02, 1.812536642e-02, 4.644558951e-02, 6.531964988e-02, 4.509781301e-02, -8.718925714e-02, 8.822672069e-02, 5.897353403e-03, -6.866662763e-03, 1.111295223e-01, 5.320721492e-02, 3.484630492e-03, -7.900316268e-02, 9.130060673e-03, 1.131392494e-01, 4.924975801e-03, 9.317826480e-02, -7.514661551e-02, 7.760392874e-02, 6.399820000e-02, -1.454389095e-02, -7.255911082e-02, 2.780719101e-02, 2.189382911e-02, 6.922078878e-02, -5.671415851e-02, -4.227168858e-02, -3.055355512e-02, 3.584012017e-02, 1.882720925e-02, -1.405679435e-02, -4.172875546e-03, -2.102316730e-02, -4.992938787e-02, 6.586798932e-03, -8.290209807e-03, 6.729542464e-02, 4.561474174e-02, 5.884317681e-02, -1.771580577e-01, 6.250624359e-02, 6.283458322e-02, 6.823824346e-02, 4.233070835e-02, 9.446731210e-02, 1.330181211e-01, 7.257181406e-02, 2.349334396e-02, 1.662772298e-01, 6.879285723e-02, 1.429609396e-02, 9.428723156e-02, 2.326765284e-02, 4.831890017e-02, 7.987746969e-03, 8.024389856e-03, 4.061345756e-02, 9.418170154e-02, 5.150111392e-02, 3.546038643e-02, 7.057372481e-02, 5.709173903e-02, 1.367009580e-01, 6.400297582e-02, 7.147327811e-02, 3.428016976e-02, 1.133231223e-01, 8.377745748e-02, 1.038918197e-01, 1.031261683e-01, 9.573458880e-02, 5.602750927e-02, 2.292204648e-02, 4.292967916e-02, 8.574956656e-02, 9.084457904e-02, -1.798957027e-02, 2.851121314e-02, 2.487292886e-02, -4.184563458e-02, -7.493380923e-03, 7.239119150e-03, 9.920667857e-02, 2.507428080e-02, 3.960251063e-02, 2.910409868e-02, 1.467459742e-02, -5.965964124e-02, -3.010688536e-02, -7.392812520e-02, -4.006825760e-02, 2.218192630e-02, 1.017813310e-01, 9.275047481e-02, 9.058579803e-02, 1.319655329e-01, 6.870327145e-02, 3.474539891e-02, 8.962389827e-02, 4.356561601e-02, 2.047477663e-01, 1.558215916e-01, 8.579786122e-02, 1.744935364e-01, 6.747463346e-02, 6.037884951e-02, 1.657570451e-01, 4.767243192e-02, 6.004565582e-02, 1.044605970e-01, 1.680202335e-01, 4.335474223e-02, 1.175070778e-01, 9.266705811e-02, 5.001613498e-02, 5.992268026e-02, 6.802434474e-02, 9.797550738e-02, 9.740988165e-02, 9.479009360e-02, -7.474292815e-02, -1.791137829e-02, 8.657925576e-02, 2.154684067e-02, 6.578783691e-02, 8.649494499e-02, 1.360162050e-01, 1.441772133e-01, 6.328039616e-02, 1.173678711e-01, 1.569223404e-01, 4.401871562e-02, 6.064664200e-02, 3.021675535e-02, 9.533983469e-02, 1.429681182e-01, 2.105660923e-02, 8.855319023e-02, 4.369610175e-02, 1.048179790e-01, 1.377837062e-01, 1.425451189e-01, 1.559593678e-01, 1.082158908e-01, 9.662062675e-02, 1.861170381e-01, 5.250804126e-02, 6.958484650e-02, 5.501700938e-02, 7.425250113e-02, 1.335536409e-02, 3.838689998e-02, 1.140523553e-01, 2.239384688e-02, 7.797636837e-02, 1.447876543e-01, 1.581430552e-04, 1.104893088e-01, 1.007212251e-01, 4.074407369e-02, 5.271274224e-02, 1.096988693e-01, 1.570181251e-01, 5.701767281e-02, 9.884985536e-02, 1.493909359e-01, 2.119623497e-02, 1.769390851e-01, 5.018958449e-02, 1.914654225e-01, 1.429504603e-01, 1.215803549e-01, 6.758431345e-02, 4.948924482e-02, 1.639288962e-01, 1.036839858e-01, 1.077359393e-01, 5.286955461e-02, 6.171900406e-02, 1.145826802e-01, -1.507010162e-01, 3.479842469e-02, -3.913155291e-03, 8.113395423e-02, 9.091045707e-02, 8.567979187e-02, 8.030629903e-02, 9.839212894e-02, 8.914200962e-02, 1.296892315e-01, 7.303218544e-02, 4.694845900e-02, 1.831966937e-01, 8.852833509e-02, 1.094555110e-01, 2.856384218e-02, 6.667396426e-02, 1.473457366e-01, 1.352223903e-01, 8.859413117e-02, 1.405017078e-02, 1.250892282e-01, 6.480278075e-02, 8.119949698e-02, 2.287745923e-01, 1.032574996e-01, 1.089082658e-01, 1.735011637e-01, 7.670766860e-02, 2.006400377e-02, 1.361894906e-01, 8.106449246e-02, 8.501949161e-02, 1.386228055e-01, 8.245628327e-02, 2.997727878e-02, 7.155581564e-02, 2.852543257e-02, 8.356054872e-02, -1.479632105e-03, 1.354525685e-01, 1.501631886e-01, 1.726674139e-01, 9.031271935e-02, 2.598653138e-01, 1.937571764e-01, 2.110768557e-01, 1.702774167e-01, 1.838175356e-01, 1.848683506e-01, 2.165715843e-01, 2.153749764e-01, 1.733846664e-01, 2.149614990e-01, 1.406014562e-01, 2.336998582e-01, 1.827798933e-01, 1.525939405e-01, 1.203233823e-01, 1.973019391e-01, 1.601016223e-01, 2.056368291e-01, 2.077589184e-01, 1.196142063e-01, 2.007099092e-01, 1.456198245e-01, 1.502348483e-01, 1.278573126e-01, 2.144687921e-01, 1.423901170e-01, 1.366700530e-01, 1.929199249e-01, 1.704171151e-01, 1.566976905e-01, 1.399611831e-01, 1.388278157e-01, 1.126232520e-01, 1.196446195e-01, 2.321420610e-01, -2.478101663e-02, 1.237000376e-01, 2.856251001e-01, 2.144156545e-01, 1.897564530e-01, 1.622521132e-01, 1.451423913e-01, 1.673024744e-01, 6.908319145e-02, 7.144579291e-02, 1.910900921e-01, 1.873203665e-01, 7.832977921e-02, 1.584896296e-01, 2.792510390e-01, 9.568370879e-02, 2.227816135e-01, 9.867259860e-02, 6.850332022e-02, 2.323990911e-01, 8.833852410e-02, 1.876604110e-01, 1.169450209e-01, 1.371747851e-01, 1.188553870e-01, 3.608633876e-01, 3.092665672e-01, 2.891577482e-01, 2.843764126e-01, -2.976185083e-01, 2.863748372e-01, 1.990424842e-01, 2.622293532e-01, 2.107266635e-01, 2.412628084e-01, 2.574019432e-01, 3.315746486e-01, 1.672855914e-01, 2.828863859e-01, 2.456620634e-01, 1.755211055e-01, 3.238865137e-01, 2.603634000e-01, 2.247238457e-01, 2.358146012e-01, 2.544785440e-01, 1.533700973e-01, 2.533680201e-01, 3.125211596e-01, 2.611525655e-01, 1.907935441e-01, 2.639485002e-01, 1.919866055e-01, 3.821830451e-01, 2.235681117e-01, 3.367401361e-01, 1.885465980e-01, 1.668519825e-01, 2.616973221e-01, 2.348782867e-01, 2.815081477e-01, 2.392477244e-01, 2.027210146e-01, 2.063645273e-01, 2.148930430e-01, 2.916024327e-01, 2.591104805e-01, 2.321004122e-01, 2.531370819e-01, 3.025450110e-01, 1.743789762e-01, 1.720925421e-01, 1.672250181e-01, 3.504094779e-01, 2.020523995e-01, 1.989694089e-01, 2.115263492e-01, 2.713531256e-01, 2.956644595e-01, 2.431728989e-01, 2.189540267e-01, 2.143982351e-01, 3.277135789e-01, 2.349891067e-01, 2.166668922e-01, 2.015384734e-01, 2.084533572e-01, 2.110793591e-01, 2.525913715e-01, -6.355578452e-02, 8.963691443e-02, 6.803136319e-02, -1.507571191e-01, 1.662687957e-02, -6.177080050e-02, -4.107730463e-02, 1.100580171e-01, 1.012525484e-01, 6.313611567e-02, 1.275307238e-01, 1.094457284e-01, -6.539291143e-02, 6.421314180e-02, 4.579146206e-02, 1.846624911e-02, 7.142898440e-02, 9.389427304e-02, 7.518108934e-02, -1.833717525e-02, 9.235007316e-02, 1.303290278e-01, -1.678521000e-02, 1.650404185e-02, -5.673587695e-02, 5.059185252e-02, 1.833801158e-02, 8.683151007e-02, -3.768789768e-02, 8.501151949e-02, 6.090666726e-02, 7.757074386e-02, 1.258380264e-01, 2.562095225e-02, -3.133232519e-02, -1.178757194e-02, 5.534848571e-02, 1.696918160e-01, 8.982493728e-02, -2.632160299e-02, 5.513257533e-02, 4.361070693e-02, 5.353366211e-02, 1.015782654e-01, 3.944838047e-02, -3.433075733e-03, -1.252967026e-02, -8.294269443e-02, 1.156771705e-01, 2.977615688e-03, 1.093597114e-01, 1.266167313e-01, 1.741455682e-02, 3.072462790e-02, 4.837469384e-02, 2.731110901e-02, 9.707636386e-02, 3.357301652e-02, -5.592685658e-03, 6.853167713e-02, -8.941991255e-03, 4.559775069e-02, 4.623692110e-02, 8.885263652e-02, 7.388127595e-02, 2.712133154e-02, -3.057628684e-02, 9.591403417e-03, -8.004759997e-02, -1.809268817e-02, 2.153278515e-02, -1.349713467e-02, 2.535059489e-02, -6.426169723e-02, 1.896128245e-02, 2.176799113e-03, -1.519927382e-01, 7.239439990e-03, -2.579495311e-02, 4.306330532e-02, -1.873682439e-02, 3.464584053e-02, -3.094628826e-02, -6.005470455e-02, -3.015383705e-02, 4.311192036e-02, 4.767165706e-02, 3.984774277e-02, -1.957968995e-02, -1.953591034e-02, -3.748066351e-02, -2.744150162e-02, 4.771851748e-02, 8.789556473e-02, -5.018219352e-02, 6.896748394e-02, -1.843239297e-03, -1.031677704e-02, 3.417155147e-02, -4.915221408e-02, 2.658840083e-02, 7.805636525e-02, -2.185186371e-02, 6.813430041e-02, 4.045525566e-02, -5.123192072e-02, 3.398465738e-02, -9.741256386e-02, 3.731801361e-02, 3.861260787e-02, 6.388359517e-02, 3.563083708e-02, 6.998136640e-02, 2.320813248e-03, -1.321269572e-01, -2.892120928e-02, -3.779181466e-02, 5.067646503e-02, -1.671347618e-01, 3.488532826e-02, -5.338456854e-02, -1.316703260e-01, -8.859053999e-02, 3.222121391e-03, 7.914834656e-03, 5.583603308e-02, 2.954426454e-03, 8.059101552e-02, 1.696942188e-02, 1.136157196e-02, -4.735169001e-03, -2.623291016e-01, -1.521098986e-02, -2.898352593e-02, -4.420046136e-02, -1.512579769e-01, -2.286181785e-02, -6.141556799e-02, -7.203332335e-02, -6.809312850e-02, -8.473017067e-02, -1.614012122e-01, -5.987829994e-03, -9.783378989e-02, -2.004938386e-02, -8.151464909e-02, 2.866390347e-02, -4.730742797e-02, -7.052322477e-02, -7.680448145e-02, -1.044723690e-01, -1.343712509e-01, -1.752215996e-02, -1.120728329e-01, -4.302388802e-02, -7.905551046e-02, -8.211842924e-02, -1.104365885e-01, -1.594125526e-03, -5.884698778e-02, -2.852104045e-02, -6.833273172e-02, -4.174969345e-02, -3.678565100e-02, -1.348723620e-01, -8.131670207e-02, -4.484066740e-02, -2.693547308e-02, -2.790243365e-02, -2.010106295e-02, -1.135328040e-01, -1.091544703e-01, -8.892066777e-02, -1.002676487e-01, -9.360343218e-03, -2.507569036e-03, 4.865259863e-03, -5.148357525e-02, 6.833002553e-04, -7.189385593e-02, -7.108984143e-02, -9.493433684e-02, 8.324421942e-03, 2.231097966e-02, -1.173023134e-01, 2.342915349e-02, -4.540682212e-02, -4.000149295e-02, 1.080657095e-01, 5.492433440e-03, -8.377342671e-02, -9.860461205e-02, -3.991944715e-02, -4.464169964e-02, -1.924427040e-02, -6.586680561e-02, -9.826382250e-02, -8.858600259e-02, 1.452174969e-03, -4.984456301e-02, -1.685712487e-02, 3.255789354e-02, 5.957652815e-03, -6.000536028e-03, -1.721439138e-02, -7.786194980e-02, -1.005483270e-01, -1.286737621e-01, -1.066770405e-02, -1.311573088e-01, -4.460675642e-02, -5.943566933e-02, -1.052998528e-01, 2.709664218e-02, -1.056732051e-02, 4.109024629e-02, -9.809984267e-02, -8.908332139e-02, 4.697403405e-03, -4.718760774e-02, -8.529096842e-02, 7.348122541e-03, -7.973794639e-02, 3.236880898e-02, -1.366799138e-02, 5.261230469e-02, -2.341829427e-02, -3.612570837e-02, -1.326250583e-01, -1.922820508e-02, -3.705304861e-02, -1.419817656e-01, -1.516800001e-02, -3.122946993e-02, -7.060491294e-02, -2.166933753e-02, 1.548062731e-02, -1.381067559e-02, -1.841691136e-01, -5.964979157e-02, -9.683540463e-02, 2.084436268e-02, 2.439682744e-02, -5.841807649e-02, -7.544038445e-02, -9.989525378e-02, -5.755751580e-02, -3.789936379e-02, -1.075191125e-01, -9.414272010e-02, -8.166744956e-04, -9.314239025e-02, -1.012186483e-01, 3.504684940e-02, 4.688278958e-02, -4.394896328e-02, 5.003080890e-02, -3.184668347e-02, -1.917338185e-02, -4.191390052e-02, -2.805988304e-02, -2.662654221e-02, -5.630819127e-02, -1.516888589e-01, -8.531458676e-03, -1.312365085e-01, -9.508354217e-02, -5.012565106e-02, -1.134330854e-01, -1.261310279e-01, -5.047685001e-03, -6.129667163e-02, -9.078728408e-02, -1.229214147e-01, -1.793136471e-04, -8.250623941e-02, -6.777795404e-02, -1.095936447e-01, 7.581772748e-03, -8.507615328e-02, -6.535912305e-02, -3.079288267e-02, -2.628831565e-02, -1.136426702e-01, -3.127538040e-02, -1.125979125e-01, 6.452985690e-04, -5.414434895e-02, -1.898270249e-01, -7.211311162e-02, -3.731864318e-02, -1.026100367e-01, -1.108905971e-01, -1.349261701e-01, -1.035015583e-01, -9.709955752e-02, -2.828938663e-01, -1.760917599e-03, -1.285696402e-02, -5.112630501e-02, -1.452743709e-01, -7.057747245e-02, 1.391131245e-02, -8.799497783e-02, -4.285376146e-02, -1.434480250e-01, -4.605194926e-02, -1.157153118e-02, -1.353029907e-01, -3.172231466e-02, -1.449520886e-01, -9.639735520e-02, -3.996219859e-02, -2.267181687e-02, -1.988542825e-01, -1.984472200e-02, -1.825927347e-01, -8.378801495e-02, -1.087836325e-01, -3.406956419e-02, -1.787599623e-01, -2.290199995e-01, -2.355301231e-01, -2.522876561e-01, -2.345642596e-01, -1.870026737e-01, -1.620807946e-01, -1.556943208e-01, -2.295764536e-01, -1.558416337e-01, -2.114962190e-01, -2.581646144e-01, -1.598457396e-01, -4.139571786e-01, -1.328484863e-01, -1.568897516e-01, -2.264448255e-01, -2.757959962e-01, -2.223049700e-01, -2.438127548e-01, -2.082432508e-01, -2.397937775e-01, -2.475551665e-01, -1.524887681e-01, -1.962445676e-01, -2.406514436e-01, -2.426340282e-01, -1.186345890e-01, -1.364808530e-01, -1.564115882e-01, -1.630148590e-01, -2.205169201e-01, -1.827452928e-01, -2.098572254e-01, -1.792210788e-01, -2.072421312e-01, -2.255173326e-01, -2.212522626e-01, -1.791819334e-01, -2.990598083e-01, -1.737393737e-01, -2.113685608e-01, -2.059108317e-01, -1.498665214e-01, -2.323174179e-01, -1.702370793e-01, -2.561604977e-01, -2.298349440e-01, -2.022884339e-01, -2.030489594e-01, -1.746265888e-01, -2.714439631e-01, -1.320029199e-01, -2.407687753e-01, -1.972641498e-01, -1.702724993e-01, -2.195973843e-01, -2.332300097e-01, -1.656262428e-01, -3.061202765e-01, -2.009448558e-01, -1.727023125e-01, -1.876198500e-01, -1.584383994e-01, 1.235930771e-01, -4.455758259e-02, 1.090473160e-01, 6.768377870e-02, 2.743837051e-02, 1.922790334e-02, 7.387385517e-02, -3.184601665e-02, 8.949846029e-03, 7.284921408e-02, 8.559030294e-02, 2.622464113e-02, 1.612894051e-02, 7.822569460e-02, 5.725419521e-02, 7.532873005e-02, 6.649322808e-02, 1.272117943e-01, 3.239153698e-02, 3.376189992e-02, 5.605502520e-03, -2.081161365e-02, 1.799782366e-02, 5.877957121e-02, 2.367231809e-02, -5.849520490e-02, 3.416486457e-02, 2.478310466e-02, 2.596336044e-02, 2.942677401e-02, -1.835502870e-02, 2.277825028e-02, -2.145048231e-02, 2.630826086e-02, 1.848577149e-02, 9.155324660e-03, 1.348306239e-01, 4.823913798e-02, -1.654137275e-03, 1.348151416e-01, 7.272053510e-02, 7.361096889e-02, 1.726481831e-03, 8.127617091e-02, -1.671734266e-02, 5.549771013e-04, 4.477557167e-02, -3.113084659e-02, -1.737606525e-02, -2.428213321e-02, -2.671716735e-02, -5.840566754e-02, 9.935352951e-02, 7.280824333e-02, -1.006985754e-01, 4.728295282e-02, -7.619074546e-03, -3.384183347e-02, 2.844912000e-02, 4.180356488e-02, 4.048229381e-02, 1.619954035e-02, -6.860522926e-02, 5.911187036e-04, 9.466865100e-03, 1.237513870e-01, -4.374762531e-03, 3.068392910e-02, 1.496820524e-02, -3.665217757e-02, -4.506975785e-02, -6.040478870e-02, 7.441283017e-02, 7.355728745e-02, 8.780222386e-02, 4.839495290e-03, 1.217139661e-01, 1.537818015e-01, 2.331432700e-02, -5.419484526e-02, -3.699545935e-02, 9.907253832e-02, 1.228737086e-01, -1.228634361e-02, 1.124385446e-01, -5.371005461e-02, 7.087337226e-02, -4.613755271e-02, 4.097396508e-02, 4.528484121e-02, 4.058175161e-02, 1.199856326e-01, 8.692459017e-02, 6.612683833e-02, 8.389959484e-02, -5.355288833e-02, 1.033334956e-01, 5.637785792e-02, -2.643526532e-02, 4.706152901e-02, 2.691453882e-02, 3.572614864e-02, -1.004320756e-02, -4.389126599e-02, 1.591507047e-01, -2.106559090e-02, 6.821507961e-02, 1.299745589e-02, 3.997349367e-02, 5.327679217e-02, 2.877345681e-02, -1.280187443e-02, 1.206199825e-02, -2.817271277e-02, 5.621596240e-03, 6.968377531e-02, -2.612803690e-02, 1.765091717e-02, 1.118039787e-01, 1.023188885e-02, -7.372187451e-03, -2.850919217e-02, -8.623947389e-03, 1.242311671e-01, 1.364363730e-02, -1.584820077e-02, 1.773049496e-02, -1.536721643e-02, 1.776322573e-01, 1.425451636e-01, 1.262240261e-01, 1.886285841e-01, -9.194679442e-04, -3.891907260e-02, 2.468392253e-01, 8.169659972e-02, 9.829001129e-02, 5.992930755e-02, -2.746807933e-01, 1.090364233e-01, 1.303398460e-01, 2.109150216e-02, 8.125930093e-03, 1.602025181e-01, 1.758141369e-01, 1.395538151e-01, 4.757126421e-02, 2.690844797e-02, 1.197018381e-02, 1.122517660e-01, 1.014105529e-01, 1.148641109e-01, 5.720158294e-02, 2.290195376e-01, 6.141733378e-02, 8.848820627e-02, 1.382647157e-01, 6.442097481e-03, -2.480043285e-02, 1.749344729e-02, 5.147965252e-02, 9.541217238e-02, 5.490341783e-02, 3.090222739e-02, 1.657178253e-01, 1.061373949e-02, 8.488127589e-02, 2.488131262e-02, 1.707974225e-01, 1.325471103e-01, 2.292564139e-02, 1.070770845e-01, 7.869890332e-02, 4.151314497e-03, 1.461315155e-01, 1.310924888e-01, 1.709693074e-01, 9.405249357e-02, 1.330357641e-01, 1.514015794e-01, 4.404987767e-02, 3.034478053e-02, 8.168291301e-02, -8.015481755e-03, 2.015686333e-01, 5.657001212e-02, 1.306765825e-01, 1.623175740e-01, 1.630406827e-01, 7.646948099e-02, -7.996031083e-03, -1.513223071e-02, 2.195100188e-01, 8.952694945e-03, 9.696967155e-02, 1.170816272e-01, 1.546051800e-01, 9.438675642e-02, 1.187324747e-01, 8.259614557e-02, 5.875274166e-02, 1.223458052e-01, -5.971826613e-03, 8.402758837e-02, 1.263099015e-01, 2.091760486e-01, 1.830840409e-01, 9.045924246e-02, 4.078531172e-03, 1.675339043e-01, 1.154928952e-01, 1.303507388e-01, 1.148599908e-01, 9.703960270e-02, 6.512002647e-02, 8.031781763e-02, 1.349231005e-01, 1.595023870e-01, 1.680922955e-01, 1.114935428e-01, 1.438906044e-01, 1.176163182e-01, 8.861900866e-02, 9.250842780e-02, 1.490912586e-01, 1.248553023e-01, 1.519444734e-01, 1.207800359e-01, 8.194611222e-02, 8.194328099e-02, 1.234188527e-01, 9.855160862e-02, 7.676530629e-02, 1.253906935e-01, 6.519959122e-02, 1.323421896e-01, 4.538254067e-02, 1.838803142e-01, 9.230736643e-02, -3.660865361e-03, 1.185158417e-01, 1.505398601e-01, 1.936445087e-01, 8.870383352e-02, 1.029859260e-01, 1.565813124e-01, 1.851349324e-01, 1.336919665e-01, 6.583879143e-02, 9.483075887e-02, 1.060352921e-01, 1.055575535e-01, 1.506708264e-01, 1.912296265e-01, 1.660263985e-01, 4.463080689e-02, 6.206007302e-02, 1.725191325e-01, 1.437490880e-01, 1.100926921e-01, 1.831167787e-01, 1.383546740e-01, 1.517463624e-01, 1.761908233e-01, 1.368633509e-01, 1.792641729e-01, 9.771080315e-02, 2.037410140e-01, 1.684834510e-01, 1.785175204e-01, 1.160647795e-01, 1.235817820e-01, 1.175840721e-01, 7.654495537e-02, 1.323858649e-01, 4.256257042e-02, -3.740435466e-02, 1.806652099e-01, 1.669866443e-01, 2.048688233e-01, 1.510559171e-01, 2.386870533e-01, 2.284426987e-01, 1.507330090e-01, 2.026302814e-01, 1.805164516e-01, 1.232056841e-01, 2.092581838e-01, 1.420717090e-01, 1.327379793e-01, 9.473886341e-02, 1.525222659e-01, 8.296746016e-02, 1.133367047e-01, 1.962618977e-01, 1.788469702e-01, 1.121496037e-01, 1.444979310e-01, 1.955310106e-01, 1.650196016e-01, -2.273575589e-02, 1.880904734e-01, 1.032324433e-01, 1.210126653e-01, 1.025293916e-01, 2.021864057e-01, 1.057717502e-01, 1.093495414e-01, 1.596312523e-01, 1.036108956e-01, 1.231770441e-01, 1.178564206e-01, 1.075638831e-01, 1.728245467e-01, 2.293895930e-01, 1.666118354e-01, 1.534155607e-01, 6.896706671e-02, 2.133170515e-01, 1.005837843e-01, 1.450130790e-01, 1.301061809e-01, 2.592465281e-01, 1.702862531e-01, 2.690780163e-01, 1.916183680e-01, 1.628543586e-01, 2.704770863e-01, 3.164290488e-01, 1.462271512e-01, 2.363578230e-01, 6.867888570e-02, 2.233742177e-01, 1.820324212e-01, 1.573244780e-01, 2.595624626e-01, 2.321768999e-01, 2.684667706e-01, 2.602747381e-01, 3.277094364e-01, 2.507493496e-01, 2.439750731e-01, 2.422959656e-01, 2.061078250e-01, 2.328346372e-01, 2.287791669e-01, 1.950059086e-01, 2.305458933e-01, 2.054166943e-01, 2.418885827e-01, 3.094238937e-01, 2.607851923e-01, 1.801646203e-01, 3.171007037e-01, 5.844692886e-02, 1.980429441e-01, 1.648468524e-01, 2.473256588e-01, 1.523963064e-01, 2.481359988e-01, 2.629981339e-01, 2.379809618e-01, 2.656942606e-01, 2.116372287e-01, 2.104593217e-01, 7.790745795e-02, 2.503439784e-01, 1.719601601e-01, 1.913870573e-01, 1.984622926e-01, 3.153919280e-01, 2.841532826e-01, 2.635379136e-01, 2.548581362e-01, 2.193325013e-01, 1.590878218e-01, 1.732432991e-01, 9.300386906e-02, 1.983666420e-01, 1.866744757e-01, 1.895018965e-01, 1.655162126e-01, 2.114911526e-01, 1.990893781e-01, 2.430557087e-02, -3.604972363e-02, -6.538117770e-03, -8.144171908e-03, 4.491433129e-02, 1.290479898e-01, -2.174012363e-02, -1.131782774e-02, 1.835351437e-02, 9.856366366e-02, 3.145216405e-02, 5.464064702e-02, 5.749865249e-02, -7.843852788e-02, -5.717723630e-03, -1.124373451e-01, 1.292612683e-02, 1.381585300e-01, -2.662019804e-02, 8.229724318e-02, -2.504912578e-02, -3.364455700e-02, 8.834044449e-03, 6.070014089e-03, 2.706250921e-02, -5.271414667e-02, -5.510503054e-02, 2.190765366e-02, -8.425981738e-03, 6.056771148e-03, -7.138574868e-02, 1.339651197e-01, 1.262836903e-01, 5.325147137e-02, 4.029656947e-02, 5.481325835e-02, 3.647160903e-02, 1.266939193e-01, -4.298029095e-02, 6.423258036e-02, 5.501364172e-02, 1.090220213e-01, 8.521109819e-02, 5.499677733e-02, 3.358919546e-02, -5.633986741e-02, 2.102282457e-02, 1.340783685e-01, 6.469473988e-02, 1.216627732e-01, 1.096721366e-01, 8.816131949e-02, 4.047315568e-03, 4.954119027e-02, 8.924518526e-02, 6.248623878e-02, 1.052943245e-01, 2.115347423e-02, 1.027415693e-01, 1.176374257e-01, -1.783305965e-02, -1.586082205e-02, 7.012113929e-02, -1.185106393e-02, 1.935876161e-02, 8.767370880e-02, 3.331732005e-02, 6.110401079e-02, -2.598538436e-02, 1.526983082e-02, -2.469778061e-02, 5.504262820e-02, 4.195273295e-02, -6.749341264e-03, 1.663628407e-02, -1.353445370e-02, 8.619568497e-02, 9.925932437e-02, -1.136174425e-02, 7.538006455e-02, 8.578593284e-02, -3.199407086e-02, 2.147347480e-02, 4.440861195e-02, 5.392115563e-02, 4.219501093e-02, 4.312536865e-02, 1.184604838e-01, 2.286916133e-03, 3.243451938e-02, 4.122484103e-02, -3.153818659e-03, 8.940596879e-02, 7.812741399e-02, 2.391232923e-02, 8.323127031e-02, 3.105070814e-02, -4.780871794e-02, 7.449042052e-02, 3.121711500e-02, 4.148074612e-02, 5.466575176e-02, 8.114168048e-02, 8.890396357e-02, 1.578976810e-01, 7.963068783e-02, 6.815274805e-02, 4.309421405e-03, 6.256761402e-02, 4.161453247e-02, 8.868248016e-02, 9.013006836e-02, -1.386757474e-02, 9.206214547e-02, 8.769406378e-02, 1.179239377e-01, 1.145897731e-01, -1.226354670e-02, -1.019894704e-02, 7.938250154e-02, 1.377079189e-01, 3.684398718e-03, -3.361572325e-02, 1.544033084e-02, 1.211511195e-01, -1.497930381e-02, 6.495930254e-02, 4.151290283e-02, 7.166989148e-02, -2.450330183e-03, 8.617807925e-02, 6.963664293e-02, 1.831109822e-02, 1.050001085e-01, 6.868562102e-02, 3.348059580e-02, 9.625594318e-02, 4.807093740e-02, 1.423423588e-01, 7.357726991e-02, 9.244303405e-02, 1.090510935e-01, 9.304806590e-02, 2.652226016e-02, 1.158698052e-01, 7.388667762e-02, 2.268721014e-01, 1.076881588e-01, 2.638545819e-02, 4.080977291e-02, 7.305604219e-02, 9.560855478e-02, 1.493061036e-01, 1.691730469e-01, 8.067494631e-02, 5.984457582e-02, 6.140334904e-02, 6.261736900e-02, 9.055861831e-02, 1.670527905e-01, 1.033155844e-01, 4.295134544e-02, 3.323165327e-02, 1.051429543e-03, 9.168594331e-02, 8.219762146e-02, 8.619410545e-02, 1.062101275e-01, 7.951327413e-02, 3.124117851e-03, 1.541176438e-01, -1.338552963e-02, 1.707438976e-01, 4.343006760e-02, -1.042283606e-02, 1.491752118e-01, 1.418122500e-01, 1.505729705e-01, 1.223722026e-01, 1.585884541e-01, 3.375539556e-02, 6.845485419e-02, 2.017724663e-01, 1.584539376e-02, 3.535917774e-02, 1.640137583e-01, 6.570009142e-02, 9.594836086e-02, 1.227630451e-01, 4.561884329e-02, 1.459063441e-01, -1.001002640e-01, 9.909085184e-02, 1.833585799e-01, 1.189543307e-01, 8.965727687e-02, 1.000912189e-01, 1.270012464e-02, 2.367347106e-02, 1.061340719e-01, 7.773639262e-02, 1.551828533e-01, 1.382234544e-01, 9.709332138e-02, 4.259559512e-02, 1.173088700e-01, 1.078715324e-01, 1.392672062e-01, 2.328363955e-01, 1.567382962e-01, 1.671661884e-01, 1.187688336e-01, 1.112590954e-01, 1.526021659e-01, 9.253107011e-02, 8.304882050e-02, 1.684781015e-01, 2.381492406e-01, 1.577446237e-02, 5.428339913e-02, 1.127991229e-01, 1.358343661e-01, 1.679467410e-01, 8.327252418e-02, 1.038502082e-01, 8.224289119e-02, 2.006884478e-02, 9.773793072e-02, 1.753652245e-01, 2.111952305e-01, 6.775239110e-02, 1.448701620e-01, 1.324737668e-01, 9.898927808e-02, 1.814247668e-01, -2.798632486e-03, 1.985460073e-01, 3.150372580e-02, 9.100598097e-02, 1.294644475e-01, 1.469894350e-01, 1.294344962e-01, 1.182391942e-01, 1.027951166e-01, 3.793089464e-02, 5.991277099e-02, 8.583257347e-02, 1.622795910e-01, 7.398279756e-02, 8.864921331e-02, 1.155637726e-01, 1.334516257e-01, 4.465200007e-02, 1.111512333e-01, 1.295833290e-01, 8.968118578e-02, 1.222961694e-01, 1.768146455e-01, 1.551568657e-01, 1.140981391e-01, 1.757146716e-01, 1.719199717e-01, 2.127978951e-01, 1.991904825e-01, 1.359985471e-01, 1.747894436e-01, 1.974427402e-01, 2.158113420e-01, 1.635834724e-01, 9.464921057e-02, 1.477041095e-01, 2.098844945e-01, 1.480905712e-01, 2.273132503e-01, 1.852021217e-01, 1.389846951e-01, 1.366560608e-01, 8.481859416e-02, 1.753557771e-01, 2.301694006e-01, 1.594784260e-01, 7.775139064e-02, 8.424210548e-02, 1.580364108e-01, 1.022565439e-01, 1.956060827e-01, 1.310530156e-01, 1.672695130e-01, 2.044848353e-01, 1.838542521e-01, 1.631718427e-01, 1.210368127e-01, 1.792837977e-01, 2.077184170e-01, 1.446213722e-01, 2.402945608e-01, 7.424124330e-02, 1.825848222e-01, 1.673498452e-01, 2.512044311e-01, 1.880852431e-01, 2.426228821e-01, 1.658582389e-01, 1.968439370e-01, 2.167182267e-01, 1.384117603e-01, 2.482565641e-01, 1.593031436e-01, 1.151655689e-01, 4.823203012e-02, 1.623838246e-01, 1.898046583e-01, 1.258620918e-01, 2.150862515e-01, 2.168769538e-01, 1.781396866e-01, 1.580621302e-01, 1.319243014e-01, 2.146205753e-01, 2.205922902e-01, 2.084042132e-01, 3.394968212e-01, 2.445430458e-01, 2.210299075e-01, 1.864325702e-01, 2.723868191e-01, 1.108428016e-01, 2.260242701e-01, 2.587507367e-01, 1.887277067e-01, 1.640608013e-01, 2.012486309e-01, 2.568143904e-01, 2.947224081e-01, 3.034688830e-01, 2.266994715e-01, 2.544536591e-01, 2.474036664e-01, 1.818069369e-01, 2.657319009e-01, 2.826163769e-01, 2.133182436e-01, 1.906123012e-01, 3.230802417e-01, 2.836898863e-01, 3.504250348e-01, 1.234872490e-01, 2.664290369e-01, 3.201316297e-01, 2.905978560e-01, 2.680468857e-01, 2.232397050e-01, 2.613613605e-01, 2.215204388e-01, 1.097225174e-01, 2.683399320e-01, 2.537961900e-01, 6.390722096e-02, 2.926524878e-01, 3.409725428e-01, 1.732788682e-01, 3.712767959e-01, 2.396599799e-01, 2.951422036e-01, 2.204945385e-01, 2.178886533e-01, -7.129140198e-02, 2.599149644e-01, 1.900703013e-01, 3.604507148e-01, 1.334331036e-01, 1.456220299e-01, 3.080406189e-01, 1.887525171e-01, 3.150642514e-01, 2.140073031e-01, 3.279738426e-01, 3.378841579e-01, 2.447642088e-01, 2.216397971e-01, 3.562499881e-01, 2.505534291e-01, 2.928641438e-01, 2.496363223e-01, 6.585539877e-02, -4.195955116e-03, 7.858335972e-02, -2.013270929e-02, 1.079121046e-02, 7.940872759e-02, -8.554025553e-03, 1.464745700e-01, 9.463609010e-02, 7.836012542e-02, 6.071726233e-02, -3.962421045e-02, 5.185135826e-02, 7.954415679e-02, 6.656786799e-02, 1.599465460e-01, 6.127018947e-03, -3.869925067e-02, 1.163473725e-02, 5.009333417e-02, 4.002109542e-02, 1.036846936e-01, 1.115703732e-01, 3.160794824e-02, -1.812376268e-02, 9.668645263e-02, 5.954284593e-02, 4.487183690e-02, 1.784012280e-02, -2.473143674e-02, -1.361708343e-02, 1.154926941e-01, 2.343210764e-02, -2.492045285e-03, 2.052014321e-02, 1.318599731e-01, 4.221332073e-02, 1.156679690e-01, 1.519777905e-02, -3.132859617e-02, 2.881790325e-02, 2.005750313e-03, -2.688784525e-02, -8.818485774e-03, 6.167820655e-03, -3.163816035e-02, 9.938947111e-02, 4.029936716e-02, 