#pragma once

const int HIDDEN_SIZE = 128;

const float L1_WEIGHTS[] = {
-3.043370135e-02, -2.937302925e-02, -1.041227020e-02, 1.093747374e-02, -4.197570682e-02, -5.181309208e-02, -7.173250616e-02, 5.337638408e-02, -4.731329682e-04, -5.398198962e-02, -8.128612489e-02, -5.294473842e-02, 3.223845735e-02, -2.288656868e-02, -2.387623861e-02, -1.415118948e-02, 2.134672739e-02, -3.545612469e-02, 3.989024088e-03, -3.251897916e-02, -2.483574674e-03, -2.006947994e-02, 1.323031262e-02, -4.150819406e-02, 4.989349097e-02, -4.465360940e-02, 1.963852532e-02, -7.494460442e-04, -2.865312248e-02, -1.915385015e-02, -1.528823283e-02, -1.089453115e-03, 5.319282040e-02, 1.881816424e-02, 2.046279609e-02, 4.643470794e-02, 1.072117593e-02, 7.685051858e-02, 1.552349888e-02, 3.911255673e-02, 3.022624739e-02, 4.796660691e-02, -3.894558875e-03, 5.560330674e-02, 1.150438190e-02, 3.656483069e-02, 1.707986742e-02, 8.983686566e-02, 3.317167237e-02, -2.032420970e-02, 2.883831225e-02, 1.212633681e-02, -6.215837970e-02, -8.673365414e-02, 4.233235121e-02, 4.832897335e-02, -8.704575151e-02, 2.228698693e-02, 5.668392032e-02, 6.509151310e-02, -2.128100954e-02, -4.193411767e-02, 8.139967918e-02, -9.794414043e-03, -1.551718637e-02, -7.174032182e-02, -1.146582738e-01, -4.556481540e-02, -1.115906164e-01, -5.461072177e-02, -1.842957176e-02, 3.942390904e-03, -2.004096657e-02, -3.762983903e-02, -6.305639446e-02, -4.017554969e-02, -5.009778216e-02, -7.240384817e-02, -4.761170223e-02, -7.050749660e-02, -4.942696169e-02, -2.583242022e-02, -6.047061831e-02, -7.663886994e-02, -3.172524646e-02, -6.677684933e-02, -7.859093696e-02, -3.978830948e-02, -7.619214803e-02, -5.606028810e-02, -7.603605092e-02, -1.221907809e-01, -5.442705005e-02, -1.011426225e-01, -7.240634412e-03, -1.362558827e-02, -9.449698776e-02, -4.917177930e-02, -1.530335564e-02, -3.956421837e-02, -1.156959981e-01, -8.817765862e-02, -8.462226018e-03, -4.030203912e-03, -7.561079413e-02, -5.963956192e-02, -4.962791502e-02, -5.763099063e-03, -1.771034896e-01, -9.458380938e-02, -6.085551530e-02, 4.855712503e-02, -8.393897861e-02, -7.187107205e-02, -5.709329620e-02, -8.129538596e-02, -7.387662679e-02, -5.405137315e-02, -4.111150280e-02, -9.148976207e-02, -6.345910579e-02, -5.963783711e-02, -6.810210645e-02, -6.544344127e-02, -1.155134290e-01, -5.939688906e-02, -1.935371943e-02, -6.760314107e-02, -9.993520379e-02, -6.653682142e-02, -6.724879891e-02, -1.642648317e-02, -1.134680435e-01, -1.225280575e-02, -1.169971451e-01, -7.102434337e-02, -4.280564189e-02, -9.755679965e-02, -2.136871219e-02, -1.016036719e-01, 5.651672836e-03, -1.281978488e-01, -7.335852832e-02, -4.840251058e-02, -8.390465379e-02, -1.208444387e-01, -1.188264489e-01, -1.338291019e-01, -9.507638216e-02, -4.340603203e-02, -1.028051153e-01, -7.919672877e-02, -1.003310904e-01, -1.100532562e-01, -7.954532653e-02, -9.500002861e-02, -5.188737810e-02, -6.714870036e-02, -6.811664253e-02, -1.197681203e-01, -1.402884126e-01, -1.209496614e-02, -1.411512494e-02, -9.173260629e-02, -9.988614917e-02, -7.480821759e-02, -7.392742485e-02, -6.599013507e-02, -9.516931325e-02, -6.670863181e-02, -7.052931190e-02, -7.801009715e-02, -7.910498977e-02, -5.819217116e-02, -1.251039952e-01, -7.742894441e-02, -9.676922858e-02, -2.344837785e-02, -3.529825807e-02, 4.891531076e-03, -7.025325298e-02, -3.621351346e-02, -9.899432212e-02, -6.925170869e-02, 1.194908284e-02, -6.598197389e-03, -3.496739548e-03, -5.506827310e-02, -5.063839629e-02, -8.023734391e-02, -1.862267964e-02, -9.340952337e-02, -1.413827837e-01, -8.688551188e-02, -9.830043465e-02, -1.302774847e-01, -1.686083227e-01, -1.523699015e-01, -8.763137460e-02, -1.155869290e-01, -1.383011043e-01, -1.225472093e-01, -1.467321217e-01, -1.351217777e-01, -1.335855424e-01, -1.295803487e-01, -1.301269978e-01, -9.844050556e-02, -1.070686281e-01, -1.327379942e-01, -1.631862968e-01, -1.313167363e-01, -1.252028048e-01, -1.029367968e-01, -1.073454469e-01, -6.801424176e-02, -4.875402525e-02, -6.846860051e-02, -1.421323717e-01, -8.677859604e-02, -1.443106979e-01, -1.029621661e-01, -1.150607616e-01, -2.996057831e-02, -6.319755316e-02, -8.056347817e-02, -1.245592758e-01, -8.571188897e-02, -9.043504298e-02, -1.335752755e-01, -1.063671187e-01, -4.145741463e-02, -9.817039967e-02, -1.075310409e-01, -6.050031260e-02, -6.834147871e-02, -1.195537597e-01, -8.011578768e-02, -1.474182904e-01, -8.961718529e-02, -4.656841233e-02, -1.108271927e-01, -7.394928485e-02, -8.958412707e-02, -9.551554918e-02, -1.054748744e-01, -7.457085699e-02, -1.071810871e-01, -9.725469351e-02, -1.981774420e-01, -1.042191237e-01, -7.008890808e-02, -7.192908973e-02, -9.072284400e-02, -4.406902567e-02, -8.909475803e-02, -2.329054475e-01, -2.647900283e-01, -2.730678618e-01, -2.555452585e-01, -2.679575086e-01, -2.263578624e-01, -2.245272696e-01, -2.870473266e-01, -2.262321115e-01, -1.954977214e-01, -2.446517795e-01, -2.937111259e-01, -1.969422698e-01, -2.322537154e-01, -2.297299951e-01, -2.615206540e-01, -2.012936026e-01, -2.441926748e-01, -2.544696629e-01, -2.575601637e-01, -2.552795112e-01, -2.855961323e-01, -2.445067763e-01, -2.612260282e-01, -2.108957618e-01, -2.294862717e-01, -2.343291789e-01, -1.921844482e-01, -2.091333121e-01, -2.760907114e-01, -2.321571857e-01, -2.250475734e-01, -2.110216320e-01, -2.273801118e-01, -2.410741001e-01, -1.800632626e-01, -2.170397788e-01, -2.046315521e-01, -2.361608297e-01, -2.374022007e-01, -2.097548395e-01, -2.246629447e-01, -2.044101655e-01, -2.086201310e-01, -2.454568595e-01, -2.326509058e-01, -2.122803032e-01, -2.095118910e-01, -2.584907413e-01, -2.441732585e-01, -2.725244164e-01, -2.937835753e-01, -1.813167483e-01, -2.653488219e-01, -2.236782759e-01, -2.843233049e-01, -2.183579803e-01, -2.076867372e-01, -2.249591500e-01, -1.993676722e-01, -2.189767063e-01, -2.405115068e-01, -2.320044935e-01, -2.490678728e-01, 5.332406238e-02, 8.257443458e-02, 5.675987527e-02, 3.647298366e-02, 1.979540475e-02, 7.270680368e-02, 7.602084428e-02, 5.797932670e-02, 5.093919486e-02, 1.318609416e-01, 1.046166718e-01, 1.481411234e-02, 6.733402610e-02, 2.482920326e-02, 4.478977248e-02, 8.385663480e-02, 6.493321806e-02, 5.350385606e-02, 3.883845732e-02, 2.978997678e-02, 3.967504203e-02, 4.753626138e-02, 5.257959291e-02, 7.327730209e-02, 3.134736046e-02, 8.349121362e-02, 6.574373692e-02, 1.450035349e-02, 5.744786561e-02, 5.719269812e-02, -1.304235542e-03, 1.159594506e-01, 7.990259677e-03, 4.953666404e-02, 4.763098061e-02, 1.043728441e-01, 5.074307323e-02, 9.821193665e-02, 4.929073155e-02, 6.609373540e-02, 9.359696880e-03, 1.961875893e-02, 1.015606076e-01, 9.916996956e-02, 1.448407769e-01, 4.576274008e-02, 5.131524056e-02, 4.374783859e-02, 3.849630430e-02, 2.601446584e-02, 3.537959978e-02, 5.151320621e-02, 8.829665184e-02, 4.079166427e-02, 2.960272506e-02, 1.090504751e-01, 5.792701244e-02, 3.594436496e-02, -1.557734422e-02, -3.504300257e-03, 2.204211242e-02, 4.292058945e-02, 9.836663306e-02, -3.661875799e-02, 1.952395402e-02, 3.444714844e-02, -5.728744902e-03, -3.295242041e-02, 4.807617143e-02, 4.350983538e-03, 2.201896720e-02, -1.053882241e-01, 1.371607184e-01, 3.824287653e-02, -1.981765591e-02, -2.211833186e-02, 6.133854389e-02, 8.444935828e-02, 7.272756845e-02, 9.907900542e-02, 1.074099466e-01, 7.032794505e-02, 5.806072056e-02, -1.633233391e-02, 5.445203930e-02, 4.283319414e-02, -3.578794748e-02, 1.149211079e-01, 4.347521346e-03, 1.805749536e-01, 7.353863865e-02, 5.909994990e-02, 2.550771646e-02, 5.032512173e-02, 5.975735933e-02, 9.371880442e-02, 1.002902314e-01, 7.875593752e-02, 1.094250903e-01, 8.609257638e-02, 6.239685789e-02, 7.722912729e-02, 2.381736971e-02, 8.060397208e-02, 1.244549900e-01, 4.157206416e-02, 3.329929337e-02, 1.205987856e-01, 1.301745325e-01, 5.730329454e-02, 2.902735770e-02, 6.828857213e-02, 5.733929574e-02, 1.475828327e-02, 6.516396254e-02, 3.972805664e-02, 4.584137350e-02, -1.845228672e-02, 1.101800203e-01, -3.614242747e-02, 4.531840328e-03, -8.259912580e-02, 7.532222569e-02, 3.786145896e-02, 4.272574559e-02, -8.095318079e-02, 2.086538635e-02, -3.493939340e-02, 3.895253316e-02, 1.080921218e-01, 1.168926992e-02, 5.726309121e-02, 1.013123691e-01, 6.175051257e-02, 1.280391067e-01, 8.663630486e-02, 9.239393473e-02, 1.101078838e-01, 5.866277590e-02, 1.324471980e-01, 1.262768507e-01, 9.745331109e-02, 1.785342991e-01, 1.418702006e-01, 1.078039855e-01, 1.059002802e-01, 4.155436158e-02, 6.355129927e-02, 1.141100898e-01, 1.110686138e-01, 5.606726184e-02, 8.283405006e-02, 1.736613661e-01, 8.977636695e-02, 4.882165417e-02, 1.429359019e-01, 1.223344579e-01, 4.001444951e-02, 8.560162783e-02, 1.001257077e-01, 1.105664223e-01, 1.520372927e-01, 1.784003079e-01, 2.070383579e-01, 1.780110449e-01, 1.538541615e-01, 1.512438208e-01, 1.165231019e-01, 1.170611903e-01, 1.505769342e-01, 1.567759216e-01, 2.284076214e-01, 1.077338308e-01, 1.255474091e-01, 1.581995189e-01, 1.446437091e-01, 5.885087326e-02, 1.772387177e-01, 1.667846926e-02, 1.700600237e-01, 1.635742188e-01, 2.156265266e-02, 1.668069363e-01, 9.199061990e-02, 6.714452803e-02, -8.846094832e-03, 9.439986944e-02, 3.095091321e-02, 6.994653493e-02, 1.293056458e-01, -1.208892092e-02, 7.737372816e-02, 1.557632536e-01, 7.966347039e-02, 1.279698908e-01, 1.625758857e-01, 7.017102093e-02, 1.327549070e-01, -1.593866572e-02, 1.241661012e-01, 1.433213353e-01, 1.312612742e-01, 1.624960154e-01, 4.233218729e-02, 1.556076705e-01, 1.852903068e-01, 7.505664974e-02, 1.667349190e-01, 1.971469671e-01, 1.709590703e-01, 1.205324903e-01, 1.559250653e-01, 1.005575731e-01, 8.261466771e-02, 1.286467910e-01, 5.070338026e-02, 2.056334615e-01, 1.799441427e-01, 1.505206078e-01, 1.186014339e-01, 7.418695837e-02, 1.072148830e-01, 1.001916155e-01, 1.528529227e-01, 5.752778798e-02, 8.373454958e-02, 1.868050545e-01, 1.686274111e-01, 2.201639116e-01, 1.017070189e-01, 1.983821392e-01, 7.516327500e-02, 4.438448325e-02, 1.750787348e-01, 1.861143261e-01, 2.029003501e-01, 1.142281741e-01, 1.632360518e-01, 1.934828013e-01, 1.134455651e-01, 1.499381363e-01, 1.209228411e-01, 1.480850875e-01, 8.913256973e-02, 7.775845379e-02, 1.928113550e-01, 1.836939007e-01, 7.874951512e-02, 1.245592758e-01, 1.354020387e-01, 1.224431694e-01, 2.214146554e-01, 1.296937168e-01, 2.564695291e-02, 1.304664016e-01, 1.893555224e-01, 1.616962254e-01, 1.383175850e-01, 1.269363910e-01, 1.990382969e-01, 1.064733416e-01, 2.656935751e-01, 1.828006059e-01, 1.352618933e-01, 5.369454250e-02, 1.045832038e-01, 1.739633530e-01, 1.416266561e-01, 1.195941940e-01, 8.834547549e-02, 1.448706090e-01, 9.885206074e-02, 1.515644938e-01, 1.413846165e-01, 1.957403570e-01, 7.709325850e-02, 1.255601943e-01, 2.140265405e-01, 2.620730102e-01, 1.678973585e-01, 2.341686785e-01, 5.328224972e-02, 1.341728866e-01, 1.542814374e-01, 1.772031486e-01, 1.769656688e-01, 1.665875614e-01, 1.736185104e-01, 2.691681385e-01, 1.479191780e-01, 1.530812532e-01, 1.560466588e-01, 1.444854140e-01, 1.336233914e-01, 1.889061481e-01, 2.418719083e-01, 1.063691229e-01, 1.117169410e-01, 9.334286302e-02, 2.226938456e-01, 5.941867083e-02, 1.432890445e-01, 1.385944188e-01, 1.541407555e-01, 1.243783683e-01, 1.741808802e-01, 2.013402134e-01, 1.087361351e-01, 2.612340450e-01, 2.899251282e-01, 1.385873109e-01, 1.866324097e-01, 1.513058245e-01, 7.765056938e-02, 1.652197242e-01, 1.561497450e-01, 2.000162154e-01, 4.066213965e-02, 2.050870508e-01, 7.896747440e-02, 2.332395315e-01, 2.510353625e-01, 2.897015214e-01, 3.172138035e-01, 3.699781895e-01, 3.269445896e-01, 3.170696795e-01, 2.565788627e-01, 4.099665582e-01, 2.969549894e-01, 3.022111952e-01, 2.991019189e-01, 3.036150336e-01, 3.053450584e-01, 2.653791010e-01, 3.070464134e-01, 4.129155278e-01, 2.705411613e-01, 3.629388511e-01, 2.854831517e-01, 3.029070497e-01, 3.552979529e-01, 3.101961017e-01, 3.015705943e-01, 3.763350844e-01, 3.162332177e-01, 2.596491277e-01, 3.398548663e-01, 2.033612132e-01, 2.101626843e-01, 3.486573994e-01, 1.748580784e-01, 2.533075809e-01, 3.672126830e-01, 3.093253672e-01, 2.640406191e-01, 3.169536591e-01, 3.076192141e-01, 3.187439740e-01, 2.421904355e-01, 3.873198628e-01, 3.460337520e-01, 3.148301542e-01, 3.420093060e-01, 3.098174632e-01, 2.324410230e-01, 2.826800048e-01, 3.391539752e-01, 2.712613642e-01, 2.208912373e-01, 3.071864545e-01, 3.308594227e-01, 1.800532788e-01, 2.997433543e-01, 3.254006207e-01, 2.022835612e-01, 2.723929584e-01, 2.378630191e-01, 2.007033527e-01, 2.093081027e-01, 2.984408736e-01, 3.559060097e-01, 3.556738198e-01, 2.481997013e-01, 5.571559072e-02, 1.029213071e-01, 9.987493604e-02, 4.570343718e-02, 7.454548031e-02, 5.660426617e-02, 7.517256588e-02, 5.634314194e-02, 5.907187611e-02, 9.350349009e-02, 7.052469999e-02, 9.701727331e-02, 6.370133162e-02, 5.104125291e-02, 5.866672099e-02, 5.840903521e-02, 1.434597969e-01, 1.333596110e-01, 1.105512977e-01, 7.163862884e-02, 2.962636948e-02, 3.941760585e-02, 8.166313916e-02, 8.552248031e-02, 5.613040924e-02, 1.097688749e-01, 4.855826125e-02, 5.890864506e-02, 3.959064931e-02, 8.905923367e-02, 7.329979539e-02, 8.530284464e-02, 7.384488732e-02, 1.248544529e-01, 8.555299789e-02, 5.989414826e-02, 8.107111603e-02, 1.336370409e-01, 1.074242964e-01, 1.206493378e-01, 1.079637408e-01, 1.064683273e-01, 1.054617539e-01, 9.492070228e-02, 1.182979941e-01, 6.310985237e-02, 1.225506440e-01, -1.017274894e-02, 1.372122467e-01, 1.060141698e-01, 7.852476090e-02, 7.665603608e-02, 6.160844117e-02, 5.236607790e-02, 1.160849184e-01, 7.766859978e-02, 3.299278021e-02, 1.015388370e-01, 1.134416983e-01, 8.527630568e-02, 1.782452315e-02, 4.391552880e-02, 2.911873162e-02, 4.525163397e-02, -1.481648721e-02, -2.283025533e-02, -6.263420731e-02, 8.623762429e-02, 8.884738386e-02, 4.761912301e-02, 2.866180986e-02, -2.334539965e-02, -1.613260806e-02, 2.804693067e-03, -5.003215373e-02, -5.933029577e-02, 2.307305485e-02, -1.576165482e-02, -3.171513602e-02, -6.105526164e-02, 6.289747357e-02, 3.989782184e-02, 4.598432686e-03, -3.233493865e-02, -4.151633754e-02, -3.351286426e-02, 2.638606727e-02, 4.329039156e-02, -3.678246867e-03, -2.110491320e-02, -2.567755245e-02, -2.610565349e-02, -4.671419039e-03, 2.214348502e-02, 2.711047977e-02, -4.788894579e-02, -2.103224769e-02, 2.372060344e-02, 4.743994400e-02, 5.303571373e-02, -4.222477227e-02, -9.672989137e-03, 3.724872367e-03, -3.373176605e-02, 6.370797753e-03, -2.938150894e-03, 2.834115922e-02, 2.361221239e-03, -1.971806213e-02, -2.660095505e-02, 3.312196210e-02, 2.758249827e-02, -3.325404227e-02, 8.444904350e-03, -1.634715009e-04, -8.957818151e-02, -3.393493965e-02, -8.849402517e-02, 5.057255179e-02, -5.152955279e-02, 5.248304084e-02, 8.361602202e-03, 3.574796487e-03, 4.769131076e-03, -4.691212997e-02, 6.393580139e-02, -1.891169138e-02, -1.468461454e-01, -1.537245046e-02, -6.923869997e-02, -7.393974811e-02, 1.413360424e-02, -3.906236589e-02, -2.259547450e-02, -7.633522898e-02, -1.282501668e-01, 3.320758790e-02, -5.152892321e-02, -9.391536564e-02, -9.120447189e-02, -5.726218689e-03, -1.433690544e-02, 2.116486430e-03, -4.648515955e-02, -1.638933271e-02, -1.034810990e-01, -1.145712808e-01, -6.919778138e-02, -2.711432800e-02, -1.328974515e-01, -8.365403116e-02, -2.258024551e-02, -3.301212564e-02, -3.149330243e-02, -1.099397764e-01, -9.520398080e-02, -2.991334349e-02, -2.591212653e-02, -8.041275293e-02, -8.202141523e-02, -2.260206267e-02, -6.938514113e-02, -8.329176903e-02, -5.021668226e-02, -1.339568496e-01, -1.050657928e-01, -5.911563337e-02, -2.355454862e-02, 1.610815711e-02, -7.547595352e-02, -5.570974201e-02, -2.873868123e-02, -6.569758058e-02, 2.718949458e-03, -2.633886971e-02, -9.871868044e-02, -6.009895355e-02, -4.400261864e-02, -5.280695856e-02, -3.507357556e-03, -4.533476010e-02, -7.869544625e-02, -5.629493296e-02, -4.799439013e-02, 4.284562916e-02, -3.435662366e-04, -4.281956702e-02, -4.485502839e-02, -3.979871422e-02, -4.804245010e-02, -5.559442192e-02, 1.391346566e-02, -4.286839068e-02, -3.627923504e-02, 1.116475184e-02, -2.093521506e-02, -1.043543369e-01, -3.515642136e-02, -7.379206270e-02, -6.132647395e-02, -1.561426930e-02, -2.055581473e-02, -2.617735602e-02, -4.110014439e-02, -6.392503530e-02, -5.932417512e-02, -8.077403903e-02, -1.245563198e-02, -7.785592973e-02, -2.871718444e-02, -4.196209833e-02, 1.165109407e-02, -1.283790022e-01, -6.059108675e-02, -1.270298660e-01, -7.518751174e-02, -2.061865292e-02, -9.358760715e-02, -4.954008386e-02, -9.492669255e-02, -5.801492557e-02, -1.234389991e-01, -3.454796597e-02, -1.057012677e-01, -6.594078988e-02, -4.096095264e-02, -2.384531312e-02, -4.715508968e-02, -1.126472875e-01, -7.109373808e-02, -1.031123698e-01, -1.054607332e-02, -3.588869795e-02, -1.000968143e-01, -3.872743994e-02, -3.869611025e-02, -1.533115506e-01, -1.074590385e-01, -1.053772569e-01, -1.106215119e-01, -5.587102473e-02, -1.052988768e-01, -4.396814108e-02, -7.836598903e-02, -8.017815650e-02, -2.545250952e-02, -4.234906286e-02, 6.080208346e-03, -4.005249217e-02, -2.345530502e-02, -3.984617814e-02, -4.245698825e-02, -2.335351706e-02, -2.741081640e-02, -7.274506986e-02, -2.860928327e-02, -1.118498892e-01, -6.585805118e-02, -6.750763208e-02, -5.905525386e-02, 2.346278401e-03, -1.242587864e-01, -1.093934178e-01, 3.595580161e-02, -8.266700059e-02, -7.052552700e-02, -9.791910648e-02, -1.213575751e-01, -1.026585922e-01, -1.380380988e-01, -1.400395334e-01, -1.485392302e-01, -8.426064998e-02, -5.193179101e-02, -1.145907864e-01, -7.140847296e-02, -1.216047704e-01, -1.383308470e-01, -1.347344816e-01, -3.889915720e-02, -1.090171188e-01, -4.907198995e-02, -7.585490495e-02, -9.656167030e-02, -9.876888245e-02, -1.143246070e-01, -6.352094561e-02, -7.828795910e-02, -5.863000825e-02, -1.298772097e-01, -7.180541009e-02, -1.040284112e-01, -1.007524654e-01, -8.680522442e-02, -1.194099337e-01, -7.886867970e-02, -4.658517614e-02, -8.662363887e-02, -9.497504681e-02, -8.928750455e-02, -8.370891958e-02, -1.271807700e-01, -1.253146976e-01, -1.212869063e-01, -1.027497500e-01, -1.469781697e-01, -7.222235203e-02, -9.310626239e-02, -7.416229695e-02, -4.772087559e-02, -1.191863939e-01, -5.615638196e-02, -7.472907752e-02, -9.064051509e-02, -3.664216772e-02, -7.709144056e-02, -1.049244776e-01, -1.126120389e-01, -7.053260505e-02, -9.653038532e-02, -2.193516642e-01, -2.086772025e-01, -2.554737031e-01, -3.507749438e-01, -3.027942777e-01, -2.924728692e-01, -2.272673845e-01, -2.412521243e-01, -1.995705515e-01, -2.376510799e-01, -2.752824426e-01, -2.799768746e-01, -2.513512969e-01, -2.144566178e-01, -2.277029902e-01, -2.029109150e-01, -2.187489718e-01, -2.340587974e-01, -2.615401149e-01, -2.717110217e-01, -2.400195897e-01, -2.301136106e-01, -2.164258212e-01, -2.271566987e-01, -2.363423109e-01, -2.063040584e-01, -2.262442559e-01, -2.385639548e-01, -2.361824811e-01, -2.549394965e-01, -2.405899316e-01, -1.856446266e-01, -2.599481344e-01, -2.265713960e-01, -2.335579395e-01, -2.155951709e-01, -2.239982784e-01, -2.413901687e-01, -2.195467204e-01, -2.645810544e-01, -2.077247947e-01, -1.811490655e-01, -1.914213598e-01, -2.293404490e-01, -1.853519976e-01, -1.925784349e-01, -2.911180854e-01, -1.992462277e-01, -1.905207932e-01, -2.288612425e-01, -2.230847925e-01, -2.335376590e-01, -2.662617266e-01, -3.526250422e-01, -2.303143293e-01, -2.251513153e-01, -2.347619832e-01, -2.029095888e-01, -1.729820371e-01, -2.186894864e-01, -2.105265856e-01, -2.192977965e-01, -2.221112549e-01, -1.953033209e-01, 8.718783408e-02, 8.605347574e-02, 4.295133054e-02, 1.119719297e-01, -1.010760944e-02, 4.464347661e-02, 9.962071665e-03, 8.425424993e-02, 5.984438211e-02, 6.919267029e-02, 1.340102106e-01, 1.051037107e-02, 3.408457711e-02, 6.850981712e-02, 9.965060651e-02, 1.051085740e-01, 8.370167762e-02, 7.841083407e-02, 3.254088759e-02, 4.215035215e-02, 8.863440901e-02, 7.343472447e-03, 9.075492620e-02, 8.774759620e-02, 7.745278627e-02, 5.950897932e-02, 1.115676165e-01, 8.503447473e-02, 8.818304539e-02, 1.097043008e-01, 8.271117508e-02, 8.355825394e-02, 2.284397371e-02, 6.483482569e-02, 2.109792642e-02, -3.321742639e-02, 9.530729800e-02, 3.773260117e-02, 4.413751140e-02, 1.464895010e-01, 2.711153589e-02, 1.682040398e-03, 3.616263717e-02, 1.514552161e-02, 1.963014528e-02, 1.059857830e-01, 5.321308970e-02, -2.086959081e-03, -9.669525316e-04, 9.249173850e-02, -2.511542477e-02, 7.997433096e-02, 2.125142515e-02, 2.477234975e-02, 4.504438117e-02, -9.733884595e-03, 9.628003091e-02, 5.328240991e-02, 8.387804031e-02, 3.450287972e-03, 6.189609692e-02, 5.681981146e-02, 8.517861366e-02, 3.920284659e-02, 3.823351860e-02, 5.791920424e-02, -3.506479040e-02, 4.131393041e-03, -7.409071922e-02, -1.056488827e-01, -2.380174771e-02, -2.855966054e-02, 6.684876233e-02, 5.530122295e-02, 1.133999042e-02, 8.111221716e-03, 1.067035832e-02, -2.990345843e-02, 6.517127901e-02, 1.431676149e-01, 2.170941047e-02, 5.950273946e-02, 8.292181045e-02, 1.007619426e-01, 9.577360004e-02, -1.306610741e-02, 3.914221376e-02, 8.151990920e-02, 5.937783420e-02, 7.688811421e-02, 4.651057348e-02, -6.070532277e-02, 4.780494049e-02, -9.609085321e-02, 9.246282279e-02, 1.138022691e-01, 5.487881228e-02, 4.500017315e-02, -6.171742827e-02, 3.313675895e-02, 5.002802238e-02, -2.641438507e-02, 1.013155654e-01, -1.084335241e-02, 1.734349877e-01, -3.416556120e-02, 9.610441327e-02, 1.501716822e-01, 1.046873033e-01, 7.169804536e-03, 6.898306310e-02, 3.430233151e-02, 4.733478650e-02, 5.848671868e-02, 8.147184551e-02, -1.103772316e-02, -2.500998229e-02, 2.935997024e-02, 2.126354724e-02, 3.712815791e-02, -2.366386354e-02, -3.453338891e-02, -8.139055222e-02, -3.737135604e-02, -4.306390882e-03, 2.096028998e-02, 1.387012750e-02, -1.579221152e-02, 2.898375690e-02, 1.310412735e-01, 7.703221589e-02, 1.038123146e-01, 2.116883248e-01, -2.674419060e-02, 1.147263050e-01, 1.127730384e-01, 1.717461944e-01, 5.487379059e-02, 1.152712107e-01, 1.616266370e-01, -3.479337692e-02, 8.083849400e-02, 1.505970359e-01, 1.001096219e-01, 1.935580224e-01, 8.660383523e-02, 1.354471892e-01, 1.118699312e-01, 1.067491099e-01, 6.353995949e-02, -4.413028806e-02, 1.195029169e-01, 1.805557907e-01, 9.383870661e-02, 9.096984565e-02, 1.033913866e-01, 1.536283344e-01, 6.787945982e-03, 6.921523064e-02, 2.257152200e-01, 6.868147105e-02, 2.523123026e-01, 1.018300280e-01, 2.922200039e-02, 1.085249856e-01, 1.950798780e-01, -2.518914640e-02, 3.758006915e-02, 4.463395849e-02, 1.226143613e-01, -2.489628829e-02, 7.954102755e-02, 1.817402840e-01, 1.006207243e-01, 2.159151435e-01, 1.178409755e-01, 3.775987029e-02, 1.043993011e-01, 1.415025145e-01, 9.312976152e-02, 6.432227045e-02, 1.544581205e-01, 7.063867897e-02, 7.187370211e-02, 3.048183583e-02, 5.416676030e-02, 1.672698557e-01, 3.406872973e-02, 1.440309733e-01, 1.118281186e-01, 1.073099077e-01, 5.503606796e-02, 3.148123249e-02, 1.878693402e-01, 1.270793080e-01, 2.564991117e-01, 7.746438682e-02, 1.168906465e-01, 1.173739880e-02, 1.440979093e-01, 5.051027238e-02, 1.218901053e-01, 1.286835968e-01, 8.328073472e-02, 1.068502143e-01, 7.832566649e-02, 1.591834426e-01, 1.066481024e-01, 1.489633024e-01, 1.378511190e-01, 9.696879238e-02, 1.151859835e-01, 1.633340865e-01, 1.432716697e-01, 2.448286861e-01, 1.227594763e-01, 7.217898965e-02, 1.683367491e-01, 9.877315909e-02, 1.407385617e-01, 9.404557943e-02, 8.117100596e-02, 5.567543209e-02, 1.580447108e-01, 1.690284014e-01, 2.101788521e-01, 1.410818249e-01, 1.471448690e-01, 2.109486759e-01, 8.185195923e-02, 1.848331094e-01, 1.583105624e-01, 1.302597672e-01, 1.351293772e-01, 1.423544437e-01, 1.672257781e-01, 8.399827778e-02, 7.095421106e-02, 9.428334981e-02, 1.034508869e-01, 1.025711745e-01, 1.522839665e-01, 8.105429262e-02, 1.755251586e-01, 9.058478475e-02, 5.590374023e-02, 6.247128174e-02, 5.183518305e-02, 1.646496207e-01, 1.742651761e-01, 9.176786989e-02, 1.576885432e-01, 3.274832666e-02, 9.853871539e-03, 1.459579468e-01, 1.935596168e-01, 2.068951577e-01, 5.529704317e-02, 2.655946910e-01, 1.742117852e-01, 1.276312619e-01, 2.184234411e-01, 1.326899529e-01, 1.532411277e-01, 6.505066156e-02, 2.236803025e-01, 1.039465442e-01, 9.442052990e-02, 1.770912260e-01, 2.078694105e-01, 1.002035961e-01, 8.635164797e-02, 1.071146801e-01, 9.141511470e-02, 7.914014906e-02, 1.712874770e-01, 1.646122336e-01, 1.228647083e-01, 1.317313015e-01, 1.457048506e-01, 1.196178272e-01, 1.506584883e-01, 2.179315388e-01, 1.546520442e-01, 1.567016840e-01, 2.136887461e-01, 1.288295835e-01, 7.866635919e-02, 2.014420778e-01, 1.609546393e-01, 7.537519932e-02, 1.459641755e-01, 2.066996843e-01, 1.088905185e-01, 1.473298073e-01, 1.417158693e-01, 1.476624608e-01, 9.374208003e-02, 1.309276521e-01, 2.407184243e-01, 1.611548960e-01, 2.395139039e-01, 1.588183939e-01, 1.225133091e-01, 1.403848380e-01, 1.855594963e-01, 2.445492446e-01, 2.117688060e-01, 1.852622628e-01, 9.860690683e-02, 9.500856698e-02, 1.403232515e-01, 1.342268884e-01, 1.471236795e-01, 1.919329613e-01, 9.274841845e-02, 1.983682066e-01, -1.620598137e-02, 1.376698017e-01, 7.275760174e-02, 3.306206763e-01, 2.961785495e-01, 4.378520548e-01, 3.717647195e-01, 3.264071047e-01, 2.586680651e-01, 2.878393233e-01, 3.399755955e-01, 3.149968982e-01, 3.351350725e-01, 3.424699008e-01, 3.508713543e-01, 2.139348239e-01, 2.640331686e-01, 2.384279668e-01, 3.796616197e-01, 3.755791187e-01, 2.717679441e-01, 2.906569242e-01, 3.016729355e-01, 3.269202113e-01, 3.277713954e-01, 3.444112837e-01, 3.800314367e-01, 2.996805608e-01, 3.428803682e-01, 3.230378628e-01, 2.879388630e-01, 3.605970740e-01, 3.386941254e-01, 3.200585246e-01, 2.710450590e-01, 2.590804398e-01, 2.590810657e-01, 3.056439459e-01, 2.101520300e-01, 4.111152291e-01, 2.770006657e-01, 2.660813332e-01, 3.215230703e-01, 3.247215450e-01, 3.897595108e-01, 2.947194576e-01, 3.316476047e-01, 3.621671200e-01, 3.547133207e-01, 3.421189785e-01, 3.337510228e-01, 3.499462306e-01, 2.673303187e-01, 1.900285631e-01, 3.608761728e-01, 2.865422964e-01, 2.874106169e-01, 3.602049053e-01, 2.561257184e-01, 2.656649053e-01, 1.581068635e-01, 2.747567594e-01, 3.265165091e-01, 3.162651658e-01, 3.045598865e-01, 3.429821730e-01, 2.645739913e-01, 7.016049931e-04, 9.909348190e-02, 8.852237463e-02, 5.816180259e-02, 9.761026502e-02, 7.722940296e-02, 5.174319446e-02, 2.981604077e-02, 8.800676465e-02, 9.224374592e-02, 9.291190654e-02, 6.202670187e-02, 7.072604448e-02, 1.095639467e-01, 3.548231348e-02, 6.219347566e-02, 7.419437170e-02, 7.276679575e-02, 1.048930511e-01, 3.772500157e-02, 1.212155372e-01, 8.948269486e-02, 1.125413254e-01, 1.043034792e-01, 6.189689040e-02, 8.965010941e-02, 9.180857241e-02, 5.672587827e-02, 3.621200472e-02, 5.684487894e-02, 7.491385937e-02, 9.268032014e-02, 9.743766487e-02, 5.971293896e-02, 5.691814795e-02, 9.273052961e-02, 4.877476394e-02, 1.084098890e-01, 9.879914671e-02, 9.018962830e-02, 1.278181672e-01, 1.108182147e-01, 1.720513999e-01, 1.409060955e-01, 8.363293856e-02, 4.388149083e-02, 5.980389938e-02, 9.244161844e-02, 1.266807914e-01, 8.868153393e-02, 7.601051033e-02, 5.068171769e-02, 7.665915787e-02, 1.057173237e-01, 7.061782479e-02, 6.533359736e-02, 6.771763414e-02, 1.203422397e-01, 4.480155930e-02, 1.205546260e-01, 5.813861266e-02, 7.467237860e-02, 4.611290246e-02, 7.279011607e-02, -5.943126976e-02, -1.001600455e-02, 4.183583707e-02, 9.158771485e-02, 1.825471595e-02, -1.982147805e-02, -7.853953168e-03, -7.516601682e-02, 2.052879147e-02, 3.739130870e-02, 4.015097767e-02, -3.959490359e-02, -4.773925990e-02, -4.722772539e-02, 1.544942986e-02, -1.041623503e-01, 1.079063937e-01, 2.086762153e-02, 1.555679832e-02, 5.723700300e-02, -6.749578565e-02, -1.426360160e-01, -1.743933931e-02, 4.435590282e-02, -7.762049884e-02, 6.587800384e-02, 1.038444787e-01, 5.969668180e-02, 5.118667334e-02, -5.813277140e-02, 8.815102279e-02, -4.595023394e-02, -3.232477978e-02, -2.550369129e-02, 1.090606954e-02, -2.520923736e-03, 2.954299748e-02, -2.456041053e-02, 6.341066677e-03, 2.033840679e-02, 3.220682964e-02, 1.485885531e-01, 4.696061369e-03, 4.394020140e-02, 1.511497539e-04, -4.428411834e-03, -6.284677982e-02, 9.112295508e-02, 9.852392972e-02, -9.249565192e-03, 3.901008889e-02, 1.118692383e-01, 2.851570491e-03, -3.842505813e-02, -2.953485399e-02, 2.676024288e-02, 1.427289378e-02, -8.842179924e-02, -2.325095795e-02, -6.832706183e-02, -3.337703412e-03, -6.421593949e-03, 5.718115345e-02, 2.477863617e-02, -7.206749916e-02, -2.147955447e-02, 1.761660278e-01, 1.006625518e-01, 1.171600819e-01, 4.933777452e-02, 2.020524256e-02, -1.621081531e-01, 3.538151830e-02, 5.817959551e-03, 1.744701713e-01, 8.920186013e-02, 1.071807519e-01, 2.183240056e-01, 1.052143872e-01, -2.411630191e-02, 3.952246159e-02, -7.762394845e-02, 1.063830107e-01, 1.427069902e-01, 3.619841859e-02, 2.000625581e-01, 5.673065409e-02, 4.798952490e-02, 5.923979729e-02, 1.174740866e-01, 1.774713024e-02, 1.064085737e-01, 7.920587063e-02, 5.972066149e-02, 1.195878983e-01, 1.033179313e-01, 5.636193976e-02, 9.124467522e-02, 9.875445068e-02, 1.169128120e-01, 7.764389366e-02, 1.164903715e-01, 1.771616936e-01, 4.692434147e-02, -1.018489990e-02, 7.896688767e-03, -5.045110825e-03, 6.029951200e-02, -4.097094238e-01, 9.233365208e-02, -3.497799858e-02, 3.511062637e-02, 2.195812762e-02, 1.122548953e-01, -5.583506543e-03, -5.987796001e-03, 1.209043488e-01, 2.422849089e-01, 5.911898986e-02, -5.082805827e-02, 3.938714415e-02, 5.074898899e-02, -7.519998401e-02, 1.197051033e-01, 4.331293702e-02, 1.822801493e-02, 7.329227030e-02, 1.395396143e-01, 1.636338532e-01, 1.397867352e-01, -3.895034268e-02, -3.025409393e-02, 6.909070909e-02, 3.097742563e-03, 4.748402908e-02, 1.577613950e-01, 3.345160931e-02, 1.140569057e-02, 1.516043693e-01, 9.758308530e-02, 1.081933528e-01, 1.332729757e-01, 1.411328167e-01, 8.447168022e-02, -1.750166528e-02, 1.174376383e-01, 1.659968346e-01, 1.318892241e-01, 1.617544517e-02, 4.865093529e-02, 8.469028771e-02, 1.449391395e-01, 1.123351753e-01, -4.933320731e-02, 6.893573701e-02, 4.552802444e-02, 1.880605668e-01, 9.526072443e-02, 1.788443029e-01, 1.294681579e-01, 5.684926361e-02, 4.018311575e-02, 2.042539045e-02, 1.465589553e-01, -4.834839329e-02, -5.754094105e-03, -4.018414300e-03, 9.090492129e-02, 5.850239843e-02, 9.585870802e-02, 7.799757272e-02, 5.215647072e-02, 1.008150652e-01, -1.259680558e-02, 1.074484289e-01, 1.231488883e-01, 7.847557962e-02, 1.459420472e-01, 2.990074083e-02, 5.051074922e-02, 1.702960879e-01, 1.511360556e-01, 4.379152507e-02, 4.839404300e-02, 8.045068383e-02, 1.176293474e-03, 6.845987588e-02, -6.462834775e-02, 4.693482071e-02, 8.830352873e-02, 1.164264008e-01, 9.698026627e-02, 1.135112420e-01, 8.440713584e-02, 2.059922367e-01, 6.233593822e-02, 2.382921576e-01, 1.566867381e-01, 7.171693444e-02, 1.218438596e-01, 2.945734421e-03, 1.465429068e-01, 7.524446398e-02, 2.054637671e-01, 4.238770157e-02, 7.186631858e-02, 1.528733820e-01, 1.951368302e-01, -1.345475391e-02, 9.132240713e-02, 2.917822450e-02, 1.429336220e-01, 1.178852320e-01, 2.270381302e-01, 1.197687685e-01, 7.368270308e-02, -2.287726151e-03, 1.142579615e-01, 1.221031845e-01, 1.080923006e-01, 1.592044532e-01, 1.690889448e-01, 7.833623886e-02, 6.822723895e-02, 1.539219618e-01, 1.143917441e-01, 8.884973824e-02, 1.806777567e-01, 9.357862175e-02, 3.690451756e-02, 1.342884749e-01, 6.203339249e-02, 1.235478595e-01, 4.148595408e-02, 4.404289648e-02, 5.133624747e-02, 2.097115815e-01, 9.585734457e-02, 6.070103496e-02, 1.152376458e-01, 1.208176240e-01, -2.711156569e-02, 1.095548570e-01, 2.045033034e-03, 1.338415593e-01, 1.182337627e-01, 1.838645637e-01, -4.558927938e-02, 8.391534537e-02, 1.919512451e-01, -2.620394528e-01, 1.278145313e-01, -2.478254959e-02, 2.665871084e-01, 1.130458042e-01, 1.365420669e-01, 3.480530977e-01, 2.084689289e-01, 2.748952806e-01, 2.071959823e-01, 2.582123876e-01, 3.670316339e-01, 1.848189533e-01, 3.027088344e-01, 2.755722106e-01, 3.228367269e-01, 1.841035485e-01, 3.372753561e-01, 3.099019527e-01, 3.230955303e-01, 3.093213737e-01, 2.471705228e-01, 2.519593835e-01, 2.621014416e-01, 2.774144709e-01, 3.409870863e-01, 2.596839070e-01, 2.128995210e-01, 2.432851791e-01, 2.481558174e-01, 2.605268061e-01, 1.601662785e-01, 2.857042849e-01, 2.299800813e-01, 2.224879861e-01, 3.954893649e-01, 3.176429868e-01, 2.921791971e-01, 2.044903636e-01, 2.201834321e-01, 3.744422495e-01, 3.352892399e-01, 2.816953957e-01, 2.339552045e-01, 2.115723640e-01, 2.672713995e-01, 3.973855972e-01, 2.796910107e-01, 2.777676880e-01, 1.330666393e-01, 3.089129627e-01, 2.086039633e-01, 3.256286085e-01, 2.727789879e-01, 2.906379998e-01, 2.510889471e-01, 3.244357705e-01, 3.782765567e-01, 1.356753707e-01, 2.333368212e-01, 2.075644732e-01, 3.145105839e-01, 3.326007724e-01, 3.497914076e-01, 2.113775760e-01, 2.920784652e-01, 3.423041403e-01, 3.472624719e-01, 2.398035824e-01, 2.364106029e-01, 3.407980502e-02, 2.734995075e-02, -1.659145579e-02, -1.491949055e-02, -1.217300296e-01, 3.515719250e-02, 5.474198982e-02, -6.636299193e-03, 3.863310069e-02, 1.988710463e-02, 7.564359903e-02, 2.670595050e-02, 1.628832668e-01, 4.225082323e-02, -8.485604776e-04, 2.569080330e-02, 1.183392256e-01, 9.926211834e-02, 7.933864743e-02, 7.151649892e-02, 7.874188572e-02, 9.182945639e-02, 4.168793559e-02, 5.984256789e-02, 5.557192862e-02, 4.478709772e-02, 1.253310032e-02, 7.069429755e-02, 5.837379768e-02, 6.134424731e-02, -7.543547545e-03, 5.793681368e-02, 1.334201694e-01, 9.566769749e-02, 3.282087669e-02, -1.138301007e-02, -3.005290776e-02, 6.702785939e-02, 1.653164811e-02, 9.698806703e-02, 7.564388216e-02, -5.132666975e-02, 3.347711265e-02, 7.754197717e-02, 3.990757838e-02, 7.361265272e-02, -2.783857286e-02, 9.173943102e-02, 9.219673276e-02, 6.755227596e-02, 1.933887973e-02, 3.231718391e-02, 4.075988755e-02, 1.263141353e-02, -1.094104815e-02, 2.464031987e-02, 6.960852444e-02, 3.532705083e-02, 1.564867422e-02, 4.702690989e-03, 9.458407760e-02, 4.958698153e-02, 5.629553646e-02, 4.122659937e-02, -2.522970736e-02, 4.555752128e-02, -5.667351931e-02, 3.090061247e-02, -6.189091131e-02, 4.760324955e-02, -8.517821133e-02, 1.412131451e-02, -3.710225970e-02, 7.690314949e-02, 3.767932206e-02, 3.031341732e-02, -2.874407545e-02, -7.763674855e-02, -1.126844902e-03, -2.875278238e-03, 3.086020239e-02, -5.527542904e-02, 3.267892078e-02, -5.809569359e-02, 1.067385972e-01, 6.530067418e-03, 8.051936328e-02, 3.392663226e-02, 6.923715025e-02, 5.563240126e-02, -7.549902797e-02, 4.768795520e-02, 3.290649876e-02, 1.271709614e-02, 1.416068058e-03, -4.992381856e-02, 3.460085019e-02, 2.965258434e-02, -7.336261217e-03, 1.530831121e-02, 2.881593257e-02, 3.076667711e-02, 7.511452585e-02, -3.404350579e-02, -2.017711289e-02, -6.571073830e-02, 6.034491584e-02, 4.010851309e-02, -4.592918232e-02, 6.486433744e-02, 6.708734483e-02, 4.469244927e-02, 1.056476831e-01, -2.602720261e-02, 4.623434041e-03, 1.878878102e-02, 2.253071591e-02, -6.768053770e-02, 9.938470274e-02, 3.458972648e-02, 3.279627487e-02, 9.545066394e-03, -1.208131853e-02, 4.612769186e-02, -2.447533794e-02, -6.324864179e-02, -3.508114815e-02, -5.567393079e-02, -3.201831132e-03, -1.566475607e-03, -6.174606271e-03, -6.355746835e-02, 2.429962717e-02, -4.471033067e-02, -1.633965671e-01, -5.150307436e-03, 4.295052215e-02, -1.910031028e-02, 2.977257408e-02, -1.743904548e-03, -1.238717958e-01, -1.591177136e-01, -6.596153229e-02, 9.379114211e-02, -2.961687930e-02, -4.900416359e-02, 5.295333639e-02, -4.596062750e-02, -8.467234671e-02, 4.042381421e-02, 1.331025362e-02, -7.951655239e-02, -5.205430835e-02, -2.310923301e-02, -5.929974094e-02, -4.413725063e-02, -5.678973719e-02, -3.235500306e-02, 5.364172161e-03, 1.780016348e-02, -7.132861018e-02, -6.371846795e-02, -2.430998720e-02, 2.232134901e-02, 2.300173044e-02, -6.629527360e-02, -2.074667253e-02, 4.452427384e-03, -2.151587233e-02, -8.536697179e-02, -4.748525470e-02, -7.748736441e-02, -1.133707911e-02, -3.339669108e-02, 1.589069027e-03, -6.737120450e-02, 2.118206758e-04, -1.040942445e-01, -1.819133461e-01, -2.368594855e-01, -9.989609569e-02, -8.346550167e-02, -3.327671438e-02, 6.853194535e-02, 6.466265768e-02, -5.205538869e-02, 3.331353888e-02, -1.127366051e-01, -7.141425461e-02, -8.193314075e-02, 2.849767543e-02, -8.681402542e-03, -2.026471542e-03, 1.242368445e-01, -1.224760488e-01, -9.612693638e-02, -4.337204620e-02, -1.773948781e-02, 1.486650389e-02, 1.350334100e-02, -5.841150507e-02, -6.896455772e-03, -2.693951130e-02, -2.693049237e-02, -5.619716644e-02, -1.941030100e-02, 1.245520078e-02, -5.803275481e-02, 5.993742030e-03, -4.376174416e-03, -3.745599836e-02, -3.774284571e-02, -7.549443096e-02, 4.659933969e-02, 1.226858497e-01, -1.364014596e-01, 3.412425891e-02, -8.247881383e-02, 3.760609031e-02, -4.540102556e-02, -1.059571430e-01, -4.417485371e-02, 1.287053898e-02, 8.924581110e-03, 1.146867685e-02, -4.806383699e-02, -4.803386703e-02, -1.435749873e-04, -3.362176195e-02, -5.666141585e-02, -9.631143510e-02, -5.077275448e-03, 4.845767468e-02, -6.629042327e-02, 3.294986859e-02, -6.505575776e-02, -9.713409096e-02, -1.483083069e-01, -3.739942983e-02, 1.628916524e-02, -6.601918489e-02, 3.941420466e-02, 2.677081502e-04, -1.027368605e-01, 3.044850938e-02, -1.323972940e-01, -2.537384331e-01, -1.236853600e-01, -5.444880947e-02, -6.316629797e-02, 6.909316871e-03, -2.258155793e-01, -1.399661452e-01, -9.473942220e-02, 6.389186531e-02, 5.198347941e-02, -1.579475217e-02, -4.068933055e-02, -1.308639348e-01, -1.112833992e-01, -1.509001013e-02, -8.859696984e-02, -7.367422432e-02, -6.246082485e-02, -4.545063525e-02, -8.118858933e-02, -1.983356476e-01, -5.212420970e-02, -5.138226599e-02, -2.533864789e-02, 8.765764534e-03, -1.577297598e-02, 1.224427484e-02, -1.175519750e-01, -6.438794546e-03, -7.009496540e-02, -6.487441063e-02, -6.874193251e-02, -1.120728403e-01, -3.909761086e-02, -2.950247936e-02, -8.227448561e-04, -3.632793948e-02, -3.187053278e-02, -1.678800136e-01, -2.828197181e-01, -1.785597205e-02, -1.637473330e-02, -2.906431258e-02, -8.283703774e-02, -1.327435523e-01, -7.191304862e-02, -1.178545728e-01, -4.702273011e-02, -6.092646345e-02, -7.804404944e-02, -7.317304611e-02, -4.038283974e-02, -8.732853085e-02, -5.992750823e-02, -9.361677617e-02, -5.666025355e-02, -8.204979450e-02, -2.698338628e-01, -6.323529035e-02, -8.720545471e-02, -1.216489896e-01, -5.269508809e-02, -1.641551852e-01, -9.382796288e-02, -1.155127864e-02, -1.897169836e-02, -1.229946241e-01, -1.016156748e-02, -8.350779116e-02, -6.390593201e-02, -5.971867591e-02, -2.703186590e-03, -2.660372294e-02, -7.391080260e-02, -2.206970751e-01, -2.538083792e-01, -2.067337781e-01, -2.790816426e-01, -1.746342480e-01, -2.742653489e-01, -3.517051935e-01, -3.397314548e-01, -2.438835055e-01, -2.070114762e-01, -4.771000147e-01, -2.050672323e-01, -2.281865031e-01, -2.141556740e-01, -2.611426115e-01, -1.925968379e-01, -2.037335932e-01, -1.951529831e-01, -2.358140498e-01, -2.934360504e-01, -1.953600943e-01, -2.644211948e-01, -1.919577718e-01, -1.862972230e-01, -1.070598364e-01, -1.563488990e-01, -2.492635399e-01, -1.259162873e-01, -1.493981630e-01, -1.954867989e-01, -2.278541625e-01, -2.988210022e-01, -2.127414197e-01, -3.079082966e-01, -2.012087703e-01, -1.888505071e-01, -2.091072053e-01, -1.940308958e-01, -3.020657003e-01, -2.838994861e-01, -2.200959027e-01, -1.986936927e-01, -1.684254408e-01, -1.428127140e-01, -2.177320421e-01, -2.003978193e-01, -2.333784848e-01, -1.765442789e-01, -2.486569285e-01, -2.149742693e-01, -1.927689463e-01, -2.074303776e-01, -2.031936049e-01, -1.565328091e-01, -3.288543820e-01, -2.088607103e-01, -2.453935891e-01, -2.280288488e-01, -1.703147590e-01, -1.834336519e-01, -6.101942658e-01, -2.984282970e-01, -1.926607192e-01, -2.158955485e-01, -1.604930684e-02, 1.310921758e-01, 5.914204568e-02, 2.214905061e-02, -5.663482845e-02, 9.290689230e-02, 3.555541858e-02, -1.029135883e-01, 1.591083966e-02, -7.156082243e-02, 2.568626963e-02, 1.299162209e-01, -3.360185772e-02, 8.522371948e-02, 7.278320193e-02, 9.093104303e-02, -3.126385808e-02, 1.698433235e-02, 5.737788975e-02, 7.550729904e-03, -6.887059659e-02, 3.389440104e-02, 3.495715931e-02, 1.172742620e-02, 7.945243269e-02, 8.526345342e-02, 1.029536948e-01, -2.491700090e-02, 9.456174076e-02, 6.369789690e-02, 7.625064347e-03, 2.816760354e-02, 1.403276175e-01, 8.282910287e-02, 8.009011857e-03, 8.110747486e-02, 2.427708358e-02, 7.278992236e-02, 6.175613403e-02, 1.488295197e-01, -1.353411842e-02, 1.000759378e-01, 6.210546568e-02, 1.095382124e-01, 3.075806610e-02, 3.830894828e-02, 7.089143991e-02, -3.252004832e-02, 1.540435106e-01, -6.048378721e-02, 1.023034081e-01, 1.312139332e-01, 9.539811313e-02, 6.834549457e-02, 3.855923191e-02, 6.446323544e-02, 1.560960859e-01, 1.054681838e-01, -3.001405858e-02, -1.079894379e-01, 2.660887316e-02, 1.040313765e-01, -9.434099309e-03, 1.618958265e-01, 1.276924391e-03, 3.926286101e-02, -3.475451097e-02, 9.743447602e-02, 2.207908966e-02, -3.933935985e-02, -8.984161913e-02, -6.069184467e-02, -8.211738616e-02, -3.156376630e-02, 1.721212640e-02, -6.807125360e-02, -4.916957021e-02, -1.009672042e-02, -5.895534158e-02, -5.026692897e-02, -2.685931697e-02, -2.209091373e-02, 3.682087734e-02, -1.433229260e-02, 2.496385761e-02, 1.074039936e-02, -1.837794296e-02, 1.144038886e-01, -1.178385876e-02, -3.229895607e-02, -1.260813978e-02, 8.276873827e-02, 1.246536500e-03, 1.816397347e-02, 6.853494793e-02, 2.964623459e-02, -1.095689833e-02, 9.438411891e-02, 4.030570271e-04, 8.537977003e-03, 1.834176108e-02, 5.399208516e-02, -4.976680793e-05, 5.956617370e-02, 2.050922066e-02, 5.536745489e-02, -3.583240323e-03, 3.422568785e-03, -1.433823351e-02, -1.351807732e-02, -8.609433658e-03, 4.755968228e-02, -1.567037776e-02, 2.169120125e-03, -3.003801592e-02, -3.983766213e-02, 4.618039355e-03, -2.597149927e-03, -6.885610987e-03, -9.770561010e-03, 7.832084782e-03, 4.245829210e-02, 3.820132464e-02, 6.655415148e-02, 5.654434487e-02, -6.356788427e-02, 7.205032557e-02, 1.543005928e-02, -3.259833902e-02, 3.340476751e-02, -7.204268128e-02, -6.398914754e-02, -5.532713979e-02, -3.603816032e-02, -6.274339557e-02, -7.308910042e-02, -1.656866819e-02, 3.586068284e-03, -1.078057960e-01, -6.492326409e-02, -6.852831692e-02, -4.535927251e-02, -4.290683940e-02, -5.106757581e-02, -4.223284125e-02, -1.112763584e-02, -6.477368623e-02, -4.803209007e-02, -4.272160307e-02, -1.275594383e-01, -1.183229387e-01, -1.007423922e-02, -8.792801201e-02, -6.165719032e-02, -1.650510705e-03, -5.294136703e-02, -9.569286555e-02, -5.968134478e-02, -1.708794385e-02, -2.785239182e-02, -9.340703487e-02, -6.789976358e-02, -7.978469878e-02, -6.292167306e-02, -7.596629113e-02, -3.945377097e-02, -8.188164234e-02, -5.742049962e-02, -7.439418137e-02, -6.570477784e-02, -8.050867170e-02, -7.330434024e-02, -8.470170200e-02, 1.476002764e-02, -2.097708173e-02, -9.831042588e-02, -8.570282906e-02, -3.868573532e-02, 1.463418361e-02, -7.226299495e-02, -4.769843817e-02, -7.400763035e-02, -1.049505640e-02, -5.026736110e-02, 4.357273132e-02, -2.263855003e-02, 1.033264026e-02, 8.128914982e-03, -2.884349227e-02, -8.766373247e-02, -3.930059075e-02, 2.631332353e-02, -4.781512916e-02, -7.736606151e-02, -6.974113733e-02, -7.034084946e-02, -8.667959273e-02, -5.339413136e-02, -4.967609420e-02, -8.363676816e-02, -1.438666135e-01, -1.190483794e-01, -9.167656302e-02, -5.503596365e-02, -5.997961015e-02, -1.166597474e-02, -1.623838246e-01, -2.103926241e-02, -5.434969440e-02, -7.729219645e-02, -3.837481141e-02, -1.075802520e-01, -6.247215346e-02, -9.108214080e-02, -1.973430254e-02, -3.536369279e-02, -1.076618508e-01, -5.397388339e-02, -7.959227264e-02, -6.272907555e-02, -6.642051786e-02, -1.148866490e-01, -6.568338722e-02, -1.109018847e-01, -1.289343648e-02, -9.839268029e-02, -4.097675905e-02, -7.243457437e-02, -4.799864814e-02, -5.482889339e-02, -1.115929931e-01, -5.097122490e-02, -7.119347155e-02, -6.620844454e-02, -5.872257799e-02, -7.101699710e-02, -9.342311323e-02, -1.198909134e-01, -7.289691269e-02, -1.156290323e-01, -4.099833593e-02, -1.120523140e-01, 2.100477554e-02, -6.543818861e-02, -6.792643666e-02, -5.172050372e-02, -1.074454784e-01, -7.506872993e-03, -1.037101969e-01, -5.649294704e-02, -5.131477863e-02, -7.250943780e-02, -3.836904094e-02, -7.573731244e-02, 7.883331180e-02, -8.326719701e-02, -1.177463681e-01, -6.196567416e-02, -9.365442395e-02, -1.086488143e-01, -8.314150572e-02, -9.124242514e-02, -7.290557772e-02, -1.508123577e-01, -7.950688899e-02, -6.310764700e-02, -9.598369151e-02, -1.210885197e-01, -1.421998292e-01, -1.022720933e-01, -1.192272529e-01, -1.515973657e-01, -8.846324682e-02, -9.894113243e-02, -1.174496934e-01, -7.855748385e-02, -1.361977309e-01, -1.325836629e-01, -1.115645841e-01, -7.845059037e-02, -5.323872901e-03, -8.302564919e-02, -8.600237221e-02, -9.398697317e-02, -1.112004146e-01, -7.736364007e-02, -9.259404987e-02, -9.098713845e-02, -8.594203740e-02, -1.259447336e-01, -6.566872448e-02, -4.174071178e-02, -1.099960282e-01, -6.681013852e-02, -8.306363225e-02, -1.449016333e-01, -7.416483015e-02, -2.245870046e-02, -3.865786269e-02, -6.161857024e-02, -2.510379627e-02, -1.001323760e-01, -2.598606795e-02, -5.479598790e-02, -1.098462194e-01, -7.382717729e-02, -7.939483970e-02, -6.847546250e-02, -6.761202216e-02, -7.844213396e-02, -1.059152782e-01, -1.192250196e-02, -3.095597588e-02, -1.644703746e-01, -9.923792630e-02, -7.597114146e-02, -8.885794878e-02, -9.237211943e-02, -6.992895901e-02, -1.192244664e-01, -2.289941609e-01, -2.464151531e-01, -1.921282858e-01, -2.619214058e-01, -2.561228573e-01, -2.127768546e-01, -2.330709994e-01, -1.982547939e-01, -2.422407866e-01, -1.961685568e-01, -2.562230229e-01, -2.622019947e-01, -2.610881925e-01, -2.464332581e-01, -2.151472569e-01, -2.119339108e-01, -1.833580881e-01, -2.741744220e-01, -2.178234160e-01, -2.527948916e-01, -2.012510896e-01, -1.911047548e-01, -2.412120402e-01, -2.100171745e-01, -2.379646748e-01, -2.372070104e-01, -2.251507342e-01, -2.265255898e-01, -2.240208834e-01, -2.748481929e-01, -1.806862354e-01, -2.144649327e-01, -2.131838500e-01, -1.248156801e-01, -2.593673170e-01, -1.369139254e-01, -2.524045408e-01, -2.326797098e-01, -2.356011868e-01, -2.809074819e-01, -1.716041714e-01, -2.155890316e-01, -2.053669542e-01, -2.524372637e-01, -2.204144150e-01, -2.113026381e-01, -2.189753056e-01, -1.964239329e-01, -2.067430615e-01, -2.297649831e-01, -2.115442902e-01, -1.405930966e-01, -2.121885717e-01, -2.650929689e-01, -2.389329225e-01, -2.396265566e-01, -2.153789252e-01, -1.916786432e-01, -2.185080349e-01, -2.437983304e-01, -2.174637616e-01, -1.966669559e-01, -2.135964483e-01, -2.226169258e-01, 3.452856466e-02, 1.100227907e-01, 6.688652933e-02, 7.771849632e-02, 8.524681441e-03, 2.879526466e-02, 7.282508910e-02, 1.286941767e-01, 5.419631302e-02, 9.590442479e-02, 8.143440634e-02, 6.689719111e-02, 8.283652365e-02, 3.688244522e-02, 4.315437749e-02, 7.904832810e-02, 2.572175674e-02, 6.052910909e-02, 8.978059888e-02, 7.147028297e-02, 2.583647706e-02, 7.137192041e-02, 7.713469118e-02, 7.470850646e-02, 4.704508558e-02, 6.960877031e-02, 9.222958982e-02, 1.134726182e-01, 8.335009962e-02, 6.396798790e-02, 1.004278585e-01, 8.135350049e-02, 1.131113619e-01, 6.517256051e-02, 1.274967194e-01, 7.420995831e-02, 5.585478991e-02, 1.101605818e-01, 5.266438797e-02, 1.405006796e-01, 1.505904049e-01, 7.860524207e-02, 8.679102361e-02, 9.794288129e-02, 5.914764851e-02, 5.832991004e-02, 4.067763314e-02, 7.591643184e-02, 2.348452061e-02, 5.608823150e-02, 1.373015344e-01, 7.130989432e-02, 9.125814587e-02, 1.430972200e-02, 4.242068902e-02, 7.239446044e-03, 4.684384540e-02, 6.262902915e-02, 6.232183427e-02, 7.289563864e-02, 4.779566452e-02, -6.244476885e-03, 6.363227963e-02, 3.860112280e-03, -1.582155749e-02, 1.603293046e-02, -2.441981435e-02, 6.739646941e-02, 2.887237584e-03, -1.648086123e-02, 1.066313032e-02, 6.350186467e-02, 1.059459820e-01, 4.816677538e-04, 4.616703838e-03, -1.106811967e-02, 1.573649049e-01, 3.450348973e-02, 6.398889236e-04, 2.249607071e-02, 2.153406106e-02, 5.843981355e-02, 7.031891495e-02, 8.090114594e-02, 5.804867670e-02, 7.479796186e-04, 6.580797583e-02, 6.067584082e-02, 1.454000771e-01, 1.037908159e-02, -5.238266196e-03, 2.703012899e-03, 3.798723593e-02, 3.442376852e-02, 4.078270122e-02, 2.887082472e-02, 4.013579711e-02, -3.078576550e-02, 1.898903749e-03, 4.762002081e-02, -4.435187578e-02, 1.697325706e-02, 3.718350455e-02, 1.200105473e-01, 5.889873207e-02, 1.063052937e-01, -3.600189090e-02, 8.819145709e-02, 8.235041797e-02, 1.361545324e-01, 8.717104048e-02, -6.820613146e-02, 2.964820340e-02, 1.545873880e-01, 1.258354336e-01, 2.814103104e-02, 1.538190618e-02, 1.694502532e-01, -1.838121377e-02, 4.877528176e-02, -6.169049069e-02, -4.046455491e-03, -3.820542619e-02, 2.686015330e-03, -3.299327567e-03, -2.069734037e-02, -9.248808771e-02, 4.643331096e-02, 4.563872889e-02, 9.603644907e-02, 1.334035546e-01, 2.026991695e-01, 1.159809604e-01, 9.805446863e-02, 1.426109523e-01, 1.204452738e-01, 6.473393738e-02, 9.386880696e-02, 9.318894893e-02, 9.916803986e-02, 1.488339454e-01, 8.494655602e-03, 1.138492525e-01, 1.088477075e-01, 1.852833033e-01, 7.124354690e-02, 9.752262384e-02, 2.101262063e-01, 1.315744966e-01, 1.160404533e-01, 8.538109809e-02, 1.073134318e-01, 4.182622582e-02, 9.217797220e-02, 1.204183847e-01, 9.782714397e-02, 1.513304114e-01, 1.140100881e-01, 2.078237385e-01, 8.883780241e-02, 4.381374642e-02, 1.162682176e-01, 1.557553560e-01, 1.982218325e-01, 1.596758962e-01, 1.552087665e-01, 1.660873741e-01, 1.493976712e-01, 9.960421175e-02, 2.227026075e-01, 4.376695305e-02, 1.082253829e-01, 8.127997816e-02, 1.736049950e-01, 1.299273670e-01, 1.501653194e-01, 5.973993987e-02, 9.381506592e-02, 1.230039001e-01, 2.207390815e-01, 1.380642205e-01, 1.308423281e-01, 2.830978297e-02, 6.370423734e-02, 1.463204771e-01, 5.198235065e-02, 3.835811093e-02, 6.318722665e-02, 2.136848634e-03, 6.699985266e-02, 8.948466927e-02, 1.160593554e-01, 3.060019575e-02, 8.632475138e-02, 1.052673236e-01, 1.004693583e-01, 1.889700443e-01, 1.440640241e-01, 9.217464924e-02, 5.785398558e-02, -2.243775688e-02, 1.534284502e-01, 9.066203982e-02, 1.685184985e-01, -4.961622762e-04, 1.639119536e-01, 1.515272856e-01, -6.315037026e-04, 9.135707468e-02, 1.280128658e-01, 1.027672440e-01, 1.059192643e-01, 1.642604619e-01, 9.238613397e-02, 9.812738001e-02, 1.525715292e-01, 1.082855165e-01, 5.579800159e-02, 1.734937131e-01, 1.454205215e-01, 9.149079770e-02, 8.505445719e-02, 1.361491829e-01, 8.265724778e-02, 1.226026639e-01, 5.477853119e-02, 1.446408182e-01, 1.851131767e-01, 1.218248457e-01, 8.985492587e-02, 1.366515160e-01, 1.116015613e-01, 3.906124830e-02, 1.693430990e-01, 4.608897865e-02, 1.162009686e-01, 6.334479153e-02, 1.745484322e-01, 1.810700893e-01, 7.655651867e-02, 1.690315306e-01, 1.754176468e-01, 2.307156175e-01, 6.172699109e-02, 4.900008813e-02, 1.103014275e-01, 1.457822770e-01, 1.179711968e-01, 1.478474289e-01, 1.051223651e-01, 1.275477409e-01, 1.005456150e-01, -1.616411470e-02, 4.872090369e-02, 1.065152511e-01, 1.155390590e-01, 1.006594375e-01, 2.014387846e-01, 1.407033354e-01, 1.328209490e-01, 1.698457897e-01, 1.511888206e-01, 1.489319652e-01, 1.021602303e-01, 9.985771030e-02, 1.242641285e-01, 1.027149111e-01, 1.701554507e-01, 2.112113684e-01, 1.958674788e-01, 1.415891349e-01, 1.531248838e-01, 1.033060774e-01, 8.890822530e-02, 1.652411669e-01, -3.255300969e-02, 8.612582833e-02, 5.449836701e-02, 2.091339231e-01, 1.259421259e-01, 1.133244783e-01, 1.186793819e-01, 3.538144752e-02, 1.126309708e-01, 2.258574814e-01, 5.345642567e-02, 1.610672772e-01, 1.762067080e-01, 1.220069900e-01, 1.046407148e-01, 1.766529977e-01, 1.328011304e-01, 1.936758310e-01, 1.754390746e-01, 1.453948468e-01, 1.629893333e-01, 5.784213915e-02, 1.698749363e-01, 2.333661914e-01, 1.797607839e-01, 1.797984093e-01, 1.355914772e-01, 1.687684506e-01, 2.236032039e-01, 1.616483331e-01, 1.593281478e-01, 1.464218944e-01, 1.394603401e-01, 1.575053483e-01, 3.394635618e-01, 1.075939462e-01, 1.749381125e-01, 1.649607271e-01, 1.103721932e-01, 1.365124881e-01, 2.454979904e-02, 1.017052531e-01, 1.861665994e-01, 5.071819574e-02, 1.505554020e-01, 3.033343852e-01, 3.150206506e-01, 1.863176376e-01, 3.611516356e-01, 3.034234047e-01, 3.133650720e-01, 2.968658507e-01, 3.213378787e-01, 2.822062671e-01, 2.936024368e-01, 2.837007642e-01, 2.626809478e-01, 2.482529730e-01, 3.085678816e-01, 2.653834224e-01, 2.754306495e-01, 2.829609811e-01, 3.602858782e-01, 2.350494266e-01, 2.967508733e-01, 2.853900194e-01, 1.805117726e-01, 3.616168201e-01, 3.222026229e-01, 3.612724543e-01, 3.417966068e-01, 2.587374747e-01, 2.504663467e-01, 2.268782407e-01, 3.098815084e-01, 2.963150442e-01, 2.720173299e-01, 2.486883402e-01, 3.225692809e-01, 2.895388007e-01, 2.332523912e-01, 3.404515684e-01, 2.998562157e-01, 2.699294388e-01, 3.740457296e-01, 3.575934768e-01, 2.355461121e-01, 2.317109555e-01, 3.118785620e-01, 2.997923791e-01, 2.767525315e-01, 2.785741091e-01, 1.823863834e-01, 3.028721809e-01, 2.444714308e-01, 2.782792151e-01, 1.935895383e-01, 2.007252872e-01, 3.553174436e-01, 3.356973529e-01, 3.253661096e-01, 2.429735363e-01, 2.932983339e-01, 1.741342694e-01, 2.130850255e-01, 2.551574111e-01, 2.647881806e-01, 2.672974765e-01, 3.387385607e-01, 6.316609681e-02, 9.433986992e-02, 1.221890822e-01, 2.813983522e-02, 5.704657733e-02, 4.389959574e-02, 3.767519072e-02, 9.121812135e-02, 9.383661300e-02, 7.308371365e-02, 8.535114676e-02, 4.095264524e-02, 2.141357027e-02, 4.347020760e-02, 9.648072720e-02, 5.917845666e-02, 7.545410097e-02, 8.629772812e-02, 6.918752939e-02, 5.113590509e-02, 4.164970294e-02, 3.521608934e-02, 6.799692661e-02, 5.356538668e-02, 4.246550426e-02, 7.139166445e-02, 9.241580963e-02, 8.420331031e-02, 1.048731133e-01, 8.556605875e-02, 9.671512246e-02, 9.237781167e-02, 7.316163927e-02, 9.411744028e-02, 3.691649064e-02, 1.216920167e-01, 7.127091289e-02, 4.888828471e-02, 7.146336883e-02, 8.394733071e-02, 8.084147424e-02, 9.272463620e-02, 1.568540782e-01, 1.077082753e-01, 1.146657467e-01, 1.064435169e-01, 8.723533899e-02, 9.134329110e-02, 1.062000245e-01, 7.291723043e-02, 6.711217016e-02, 8.361080289e-02, 6.413491070e-02, 6.803002954e-02, 6.836564094e-02, 8.892840892e-02, 3.070723033e-03, 8.356404305e-02, 8.574386686e-02, 9.680957347e-02, 8.138685673e-02, 1.069205254e-01, 6.548947841e-02, 5.210087076e-02, 4.526320472e-02, -1.647702605e-02, 2.860076539e-02, 1.970307529e-02, -8.689446002e-02, 5.801800638e-03, -9.224206209e-02, -4.633966833e-02, -5.589856207e-02, -1.162477303e-02, 3.426272795e-02, 1.045931280e-01, 4.250349104e-02, 7.507552952e-02, -3.148755059e-03, -2.202016301e-02, 3.488192335e-03, -2.370633930e-02, 7.241275907e-02, 7.177099586e-02, 1.085001826e-01, 9.429985285e-02, 1.107791439e-01, 7.072570920e-02, 9.670776129e-02, 6.082549691e-02, 1.405819599e-02, 8.059298247e-02, 9.593918920e-02, 6.256910414e-02, 4.529736936e-02, 9.312926233e-02, 3.652852401e-02, 1.162268519e-01, 4.564918205e-02, 1.468648762e-01, 1.141775921e-01, 8.708482236e-02, 4.768094420e-02, 1.280468404e-01, 1.137649268e-01, 8.283262700e-02, 1.379144145e-03, 5.406791344e-02, 1.065786704e-01, 3.207933530e-02, -7.032644749e-02, 5.006307364e-02, 1.143412944e-02, 2.811730839e-02, -3.118766472e-02, -5.388617516e-02, 1.634232327e-02, -1.408418827e-02, 4.513822496e-03, 4.038045555e-02, 5.499509722e-02, 2.354974300e-02, -2.099177055e-02, -9.396427870e-02, 1.670023985e-02, -4.794408008e-02, 1.840579323e-02, 1.070607640e-02, 7.779018581e-02, 1.114019845e-02, 1.327036619e-01, 1.524243802e-01, 1.483577937e-01, 1.207750514e-01, 5.941791832e-02, 1.323604286e-01, 7.189448923e-02, 1.111429557e-01, 1.397778541e-01, 1.679842919e-01, 1.251935959e-01, 1.314450949e-01, 1.858413965e-01, 8.030609041e-02, 7.358966023e-02, 9.206659347e-02, 3.512036055e-02, 9.968654811e-02, 1.997580528e-01, 8.898924291e-02, 1.429225951e-01, 1.040740684e-01, 1.386437863e-01, 9.740322828e-02, 5.700376257e-02, 1.141971052e-01, 2.164602876e-01, 1.785699278e-01, 9.595803171e-02, 1.065498218e-01, 1.131327674e-01, 1.657576412e-01, 1.526498944e-01, 8.585704863e-02, 1.571936458e-01, 1.358680278e-01, 8.354364336e-02, 8.744913340e-02, 5.214497820e-02, 1.241153404e-01, 3.921768814e-02, 1.461649537e-01, 1.224293336e-01, 1.254561245e-01, 5.231371149e-02, 1.419075578e-01, 7.218317688e-02, -6.926453859e-02, 1.646783799e-01, 1.362938732e-01, 1.268116236e-01, 7.277298719e-02, 1.628482342e-01, -1.603366807e-02, 1.090460271e-01, 1.456168145e-01, 1.218024492e-01, 7.658240199e-02, 5.555124953e-02, 7.464334369e-02, 1.739044487e-01, 1.189683601e-01, 1.117988750e-01, 8.874959499e-02, 1.262205839e-01, 5.984582007e-02, 1.713854671e-01, 1.353245527e-01, 1.098594815e-01, 1.802220643e-01, 9.915756434e-02, 1.434812099e-01, 9.542822838e-02, 1.914047599e-01, 2.103739679e-01, 2.114415020e-01, 1.461005062e-01, 7.309868187e-02, 1.077396795e-01, 2.228421867e-01, 1.233477369e-01, 1.020158008e-01, 1.451016814e-01, 4.175690562e-02, 1.778141409e-01, 6.672359258e-02, 9.675830603e-02, 1.869176328e-02, 3.703051433e-02, 1.750095934e-01, 8.966984600e-02, 2.174104601e-01, 2.512965202e-01, 1.459088027e-01, 1.363216639e-01, 1.416694280e-02, 1.673590839e-01, 3.386469930e-02, 1.164223179e-01, 9.743071161e-03, 1.488848031e-01, 1.920689791e-01, 2.293841690e-01, 9.265965223e-02, 5.589874461e-02, 8.902306110e-02, 1.903348863e-01, 1.404630393e-01, 1.664182991e-01, 1.219797730e-01, 1.764082760e-01, 1.264982969e-01, 1.000270471e-01, 3.031574003e-02, 1.399351358e-01, 8.984985948e-02, 8.649280667e-02, 2.305341698e-02, 1.220980957e-01, 1.607797146e-01, 1.117642298e-01, 7.127245516e-02, 6.804526597e-02, 1.662163287e-01, 9.703360498e-02, 4.118955135e-02, 2.024660408e-01, 1.736252755e-01, 2.110978514e-01, 2.150938511e-01, 2.316263467e-01, 1.873332709e-01, 2.088522315e-01, 1.480550021e-01, 1.979913563e-01, 1.122187600e-01, 1.719292551e-01, 8.736138791e-02, 1.391616464e-01, 1.465579867e-01, 1.886000931e-01, 1.557668000e-01, 1.083521917e-01, 1.841550767e-01, 9.815926105e-02, 1.089442596e-01, 1.725718230e-01, 2.326578200e-01, 1.912008822e-01, 8.943428844e-02, 1.721574515e-01, 1.911122203e-01, 6.215118989e-02, 1.885998696e-01, 1.406088918e-01, 1.697525233e-01, 1.624947190e-01, 1.914422065e-01, 1.881301105e-01, 1.319044232e-01, 9.513541311e-02, 3.975712880e-02, 1.427154392e-01, 1.803371459e-01, 5.175387114e-02, 2.063432336e-01, 1.071342602e-01, 1.418353766e-01, 1.307353824e-01, 1.363713890e-01, 1.909821182e-01, 2.008997351e-01, 2.028927952e-01, 6.556424499e-02, 1.632829905e-01, 1.797555536e-01, 1.586947292e-01, 1.695773751e-01, 1.522959769e-01, 1.403177828e-01, 1.437626332e-01, 1.422303468e-01, 1.093402877e-01, 2.115876377e-01, 2.310973257e-01, 7.447314262e-02, 2.345024794e-01, 1.846711785e-01, 1.068594381e-01, 1.667292416e-01, 2.338957340e-01, 2.686116695e-01, 3.587984741e-01, 2.503675520e-01, 2.244222760e-01, 1.528296769e-01, 2.373564243e-01, 3.179186583e-01, 2.838253379e-01, 2.269192785e-01, 1.675514430e-01, 2.256696969e-01, 2.870522141e-01, 2.707460523e-01, 1.978312433e-01, 1.639375538e-01, 2.468390018e-01, 2.067037970e-01, 2.544338405e-01, 3.033445179e-01, 2.863529921e-01, 2.262198627e-01, 3.525292575e-01, 3.704631031e-01, 2.511567771e-01, 3.575772643e-01, 3.274598420e-01, 2.326822430e-01, 1.552984416e-01, 3.180889785e-01, 2.668278217e-01, 3.267072141e-01, 2.974059582e-01, 2.195537239e-01, 3.022582531e-01, 2.947819531e-01, 3.271901309e-01, 6.427232921e-02, 3.037494123e-01, -6.795669347e-02, 2.494457364e-01, 2.220752537e-01, 2.980974019e-01, 2.086510211e-01, 2.213681489e-01, 1.875384003e-01, 2.313813418e-01, 3.098544776e-01, 2.658540010e-01, 3.141176999e-01, 2.873428464e-01, 3.295189142e-01, 1.392581314e-01, -9.792191535e-02, 2.373610437e-01, 3.072817326e-01, 3.367248178e-01, 2.358696610e-01, 2.094494849e-01, 2.606593072e-01, 3.005342782e-01, 2.944724262e-01, 2.399380952e-01, 1.479985286e-02, 9.092972428e-02, 1.066656336e-01, 1.215465516e-01, 2.002180666e-01, -1.424220297e-02, 5.298301578e-02, 1.492231637e-01, 6.829717010e-02, 1.292719096e-01, 7.494402677e-02, 6.396058202e-02, 9.552783519e-02, 1.054391712e-01, 5.668468773e-02, 9.200547636e-02, 8.576442301e-02, 8.405354619e-02, 1.436823606e-01, 3.000150062e-02, 1.654994488e-02, 4.446696863e-02, 1.187243760e-01, 1.070805788e-01, 8.469736576e-02, 1.006369740e-01, 8.315017819e-02, 9.393059462e-02, 3.936699405e-02, 1.313454751e-02, 7.044184208e-02, 4.681283981e-02, 1.046077758e-01, 7.468962669e-02, 8.379367739e-02, 6.223028526e-02, 1.876125298e-02, -1.527360990e-03, 5.444630608e-02, 6.844018400e-02, 6.177083030e-02, 5.834797770e-02, 6.440027058e-02, 1.083992869e-01, 1.555659436e-02, -7.036847528e-03, 3.705842793e-02, 4.031411186e-02, 3.968909383e-02, 4.824227840e-02, 6.713252515e-02, 7.235431671e-02, 6.709843408e-03, 3.778034821e-02, 1.041058302e-01, 8.596451581e-02, 4.848258570e-02, 6.580764800e-02, 4.060506821e-02, 4.046564177e-02, 2.817841060e-02, 7.468006760e-02, 9.167297930e-02, 6.066900864e-02, 2.383948863e-02, -3.927611560e-02, 2.855770476e-02, 1.476065535e-02, -3.740847111e-02, 5.199228972e-02, 9.645561688e-03, 2.205358446e-02, 2.789717726e-02, -6.391082704e-02, 1.719892956e-02, -5.840947386e-03, 1.139469165e-02, 6.225521117e-02, 8.940261602e-02, 7.882167585e-03, 3.156941617e-03, -6.296863779e-03, 4.280207679e-02, -9.041112848e-03, 6.702547427e-03, 4.948499426e-02, 8.979474008e-02, 8.126866817e-02, -1.500779414e-03, 6.745933741e-02, 2.140126191e-02, 1.304028556e-03, 5.099273100e-02, -1.884842217e-01, -2.120140754e-02, 2.890551649e-02, -3.266783804e-02, 2.095365711e-02, -7.356826961e-02, 4.190312326e-02, -2.119255997e-02, -2.863823250e-02, -5.036875233e-02, -3.292641789e-02, -7.398051093e-04, -3.537503537e-03, -1.496731490e-02, -2.681107819e-02, -1.282234862e-02, -8.212178946e-03, -2.498402260e-02, 4.618899152e-02, 2.315614186e-02, -1.221795976e-01, -6.732917577e-02, 2.096216008e-02, -1.449415982e-01, -7.563566417e-02, -2.198353969e-02, -3.654062003e-02, -2.185895480e-02, -3.931977972e-02, -9.682066739e-03, 1.071348041e-02, 7.350895554e-02, -4.378620535e-02, -4.090466350e-02, -7.481355965e-02, 5.871614441e-02, -8.035488427e-02, -3.998294473e-02, 6.659392267e-03, -5.606315099e-03, -3.579358757e-02, -2.328152955e-02, -6.903804094e-02, -3.791183699e-03, -3.340266272e-02, -3.331524506e-02, 4.778324440e-02, -6.254616380e-02, -6.763653457e-02, -1.905028010e-03, -5.614969879e-02, -1.060979962e-01, -3.994392604e-02, -1.481889468e-02, -3.861323372e-02, 1.443472505e-02, -3.641921282e-02, -5.423875153e-02, 2.163304389e-02, -1.025987640e-01, -6.373368949e-02, -1.119189411e-01, -7.511447370e-02, -6.324315909e-03, -3.058587760e-02, 5.742034875e-03, -1.200607643e-01, -1.197846457e-01, -2.113396116e-02, -1.585324854e-01, -1.239070669e-02, -4.395589978e-02, -1.116413400e-01, 2.018159954e-03, 6.225403026e-02, -3.217868507e-02, -8.163353056e-02, -6.815685332e-02, -6.930906326e-02, -5.961869657e-02, -7.507311553e-02, -5.780434236e-02, -1.078966781e-01, -4.621011391e-02, -7.270152867e-02, -7.859621942e-02, -5.919636786e-02, -6.868597120e-02, -4.633310437e-02, -6.396583468e-02, -6.282716990e-02, -3.389969468e-02, -4.979772959e-03, -9.824986011e-02, -1.012375951e-01, 5.685678124e-02, -1.066933125e-01, -6.062927842e-02, -8.818783611e-02, 1.153272763e-02, -5.355625227e-02, -9.254835546e-02, -2.300857380e-02, -4.643617198e-02, -1.196215600e-01, -3.653373197e-02, -6.837115437e-02, -1.266142819e-02, -1.205155998e-01, -6.010675803e-03, -1.315869987e-01, 9.948681109e-03, -1.238492727e-01, -7.531789690e-02, -1.252867877e-01, -5.068406463e-02, -9.216268361e-02, -6.569355726e-02, -8.273366094e-02, -1.808645949e-02, -3.594209254e-02, -2.387902886e-02, -4.931990802e-02, -1.033147275e-01, -7.479646057e-02, -1.164962500e-01, -3.568768129e-02, -6.675505638e-02, -3.197453916e-02, -1.091685146e-01, -5.568489432e-02, -6.987803429e-02, -4.705508798e-02, -9.612664580e-02, -6.390385330e-02, -7.730288804e-02, -6.516345590e-02, -8.416412026e-02, -5.495360121e-02, 2.444899827e-02, -8.071346581e-02, -4.162989184e-02, 1.104043517e-02, -1.166766286e-01, -1.070211083e-01, -4.460917413e-02, -1.083231047e-01, -7.456040382e-02, -6.646908820e-02, -6.949257106e-02, -8.830180019e-02, -2.815450355e-02, -1.658678651e-01, -1.171129942e-01, -2.084120363e-02, -4.292824864e-02, -1.224975139e-01, -1.052369773e-01, -1.076530516e-01, -1.253012866e-01, -1.157605499e-01, -1.226807162e-01, -3.775939718e-02, -5.118857324e-02, -5.986370519e-02, -5.072160438e-02, -1.028102413e-01, -3.780978918e-02, -1.004016474e-01, -6.160262972e-02, -5.164857209e-02, -2.994986437e-02, -1.283414215e-01, -4.513893276e-02, -1.188446879e-01, -9.655603766e-02, -1.113444418e-01, 6.783532444e-03, -9.734672308e-02, -9.788121283e-02, -3.002524748e-02, -8.726141602e-02, -9.740392119e-02, -4.910039902e-02, -7.596566528e-02, -1.370110661e-01, -6.583389640e-02, -8.656903356e-02, -1.262304932e-02, -1.303635091e-01, -1.049077138e-01, -8.768713474e-02, -8.350651711e-02, -5.283533037e-02, -7.619575411e-02, -3.801293299e-02, -5.994740129e-02, -8.087924868e-02, -8.152710646e-02, -9.134802967e-02, -8.901460469e-02, -6.640753150e-02, -5.363157019e-02, -9.726599604e-02, -1.320398301e-01, -9.502723068e-02, -7.133953273e-02, -8.387301117e-02, -9.377882630e-02, -9.986714274e-02, -7.885923237e-02, -6.351393461e-02, -7.093875855e-02, -6.427843124e-02, -1.745067984e-01, -1.416232884e-01, -1.327648908e-01, -1.200678498e-01, -1.227814183e-01, -1.355898231e-01, -9.965173900e-02, -3.984438255e-02, -1.014250740e-01, -1.424455792e-01, -1.120880842e-01, -4.591532052e-02, -1.546854973e-01, -1.632493287e-01, -1.539932936e-01, -2.538397312e-01, -2.281937897e-01, -2.366178483e-01, -1.830855310e-01, -1.929830909e-01, -1.415032893e-01, -1.414515376e-01, -2.343560308e-01, -2.696579695e-01, -3.376110494e-01, -8.635843545e-02, -2.201425284e-01, -1.975545585e-01, -1.788646132e-01, -1.512000859e-01, -1.818279624e-01, -1.823371947e-01, -2.276093960e-01, -2.054689229e-01, -1.941464692e-01, -1.463558823e-01, -2.270066142e-01, -2.788953185e-01, -1.950006038e-01, -1.562108696e-01, -1.345654577e-01, -1.353009641e-01, -1.867411286e-01, -1.260129809e-01, -2.025808245e-01, -2.343912423e-01, -2.515959442e-01, -1.558060795e-01, -2.466754466e-01, -2.523852587e-01, -2.314745486e-01, -1.868088543e-01, -1.320230365e-01, -2.724440098e-01, -1.933208555e-01, -2.134942561e-01, -2.223766148e-01, -2.323430628e-01, -2.485253960e-01, -1.763298661e-01, -1.724248976e-01, -2.470577508e-01, -2.532625794e-01, -1.669214368e-01, -1.390101016e-01, -1.687168330e-01, -1.654403955e-01, -1.746496260e-01, -2.147069275e-01, -2.018495947e-01, -1.481227875e-01, -2.653498352e-01, -2.384948879e-01, -2.162272334e-01, -2.286019176e-01, -2.392177433e-01, -2.102792114e-01, -1.569782943e-01, -3.326100111e-02, 8.730068803e-03, 3.467486799e-02, 1.700082235e-02, 5.249883235e-02, 1.170471460e-01, -8.161964826e-03, 1.363720745e-01, 1.178210825e-01, 9.949183464e-02, 3.770304099e-02, 5.076651275e-02, 1.327991486e-02, 1.353056431e-01, 5.108533800e-02, 1.744033396e-02, 9.985957295e-02, 6.401066482e-02, 7.807604969e-02, 8.981626481e-02, 5.225106701e-02, 3.577424958e-02, 2.806698903e-02, 8.684511483e-02, 8.153279871e-02, 6.431940198e-02, 7.403252274e-02, 5.890095979e-02, 1.176516712e-01, 1.587927788e-01, 1.008320078e-01, 5.244740099e-02, 1.330873668e-01, 1.437920928e-01, 9.920045733e-02, 9.781534225e-02, 8.012074232e-02, 1.015891507e-01, 8.281541616e-02, 9.379434586e-02, 8.761408180e-02, 5.151212215e-02, 9.923337400e-02, 7.676120847e-02, 9.406249225e-02, 1.396973878e-01, 7.947833836e-02, 3.962288797e-02, 8.111631125e-02, -7.276019314e-04, 1.130170673e-01, 8.153755218e-02, 8.876648545e-02, 4.120085016e-02, 7.474625856e-02, 6.472975761e-02, 8.979607373e-02, 8.664321154e-02, 3.776634112e-02, 1.162154302e-01, 1.141420286e-02, 4.933906347e-02, 9.947308153e-02, 5.229623988e-02, -2.749044634e-02, -1.146991402e-01, -2.522158250e-02, 3.350835666e-02, -6.175054610e-02, -7.127743214e-03, -7.642948534e-03, 1.331411768e-02, -2.206431469e-03, 4.204137623e-02, -5.759150907e-02, 6.850884855e-02, 2.426847257e-02, 8.766399114e-04, 4.851993546e-02, -3.184036911e-02, -7.174422592e-02, 1.004113480e-01, 9.848376736e-03, 3.309825435e-02, 2.688178793e-02, -3.256793693e-02, -5.038358644e-02, 3.496104851e-02, 3.374555707e-02, -2.514303429e-03, 7.952412218e-02, 7.743792958e-04, 6.962630898e-02, 4.857056588e-02, 3.669841960e-02, -7.669731975e-02, -5.575256050e-02, -7.663714141e-02, -8.242099732e-02, -1.060806066e-01, 8.641876280e-02, 3.750098869e-02, -1.033241022e-02, 7.027310133e-02, 2.870484628e-02, 4.035029560e-03, -3.941766545e-02, -6.118951365e-02, -9.200543165e-02, -2.750984393e-02, -4.072252661e-02, -5.265031755e-02, 8.672603406e-03, 6.084261462e-02, 2.261257172e-02, 8.471576869e-02, -5.019536987e-02, -1.636480354e-02, 1.035788804e-01, 1.959245466e-02, -5.812267214e-02, -3.941272944e-02, -1.949775266e-03, 6.744738668e-02, 4.861079529e-02, 5.878044665e-02, -1.447306760e-02, -7.232876867e-02, 2.441193722e-02, 2.747053048e-03, 1.110265851e-01, -1.441162825e-01, 1.665924937e-01, 4.790274426e-02, 4.438441992e-02, 2.526775561e-02, 1.682818234e-01, 1.762683876e-02, 4.374953732e-02, 1.476098448e-01, 9.771401063e-03, -2.948496304e-02, 2.230446041e-02, 1.045039669e-01, 2.677413449e-02, 3.369291313e-03, 9.813398123e-02, 4.119001096e-05, 2.278790437e-02, 3.715484589e-02, 1.466973126e-02, 5.752988905e-02, 6.848122180e-02, -8.224664629e-02, -7.412279025e-03, 1.047288924e-01, 1.214291751e-01, 4.730786383e-02, 5.666792020e-02, 1.275451928e-01, 3.758307174e-02, 1.763892174e-01, 7.237102836e-02, 9.610237926e-02, 6.379038095e-02, 2.634425275e-02, -5.539759528e-03, 2.042585462e-01, -6.952136010e-02, 8.870586008e-02, 7.034713775e-02, -1.476462483e-01, -1.940304488e-01, 1.435583532e-01, 1.243501063e-02, 1.322370768e-01, -6.761285663e-02, 1.077384427e-01, 1.543187201e-01, 1.366990358e-01, 1.614566445e-01, 2.007427253e-02, 7.738776505e-02, 9.332158370e-04, -1.055245008e-02, 6.917576492e-02, 1.032651216e-02, -2.295298316e-02, 1.676148921e-01, 6.706549227e-02, 7.103680074e-02, 8.234854788e-02, 7.467132062e-02, -2.555502392e-02, -9.697692469e-03, 7.862463593e-02, 1.950314790e-01, 3.841896355e-02, 1.271494478e-01, 8.322224766e-02, 1.045177057e-01, 1.007589698e-01, 1.568152606e-01, 1.246271953e-01, 5.932856351e-02, 2.139721513e-01, -1.004639491e-01, 7.624883950e-02, 1.217526570e-01, 2.556106448e-01, 3.863978013e-02, 1.450945735e-01, -5.076489970e-02, 1.553741693e-01, 1.238619089e-01, 1.141737178e-01, 1.004242226e-01, 1.706553400e-01, 1.376310140e-01, 2.533666557e-03, 1.004564315e-01, 1.321476698e-01, 1.394710094e-01, 6.712270528e-02, -4.457078129e-02, 4.787342250e-02, -1.228596047e-01, 4.242759570e-02, 6.440552324e-02, 2.655906603e-02, 4.197978228e-02, 8.747283369e-02, 1.019158587e-01, 5.431256816e-02, 1.271831095e-01, 1.597709954e-01, 1.748321652e-01, 9.071566910e-02, -3.102111258e-02, 9.106391668e-02, -1.372772362e-02, 9.821733087e-02, 6.860506535e-02, -2.137956768e-01, 1.348574460e-01, 9.544136375e-02, 7.469932735e-02, 5.289760605e-02, 6.270880252e-02, 9.740651399e-02, 7.611636817e-02, 2.116979100e-02, 1.501098555e-02, 6.174228713e-02, 1.317947507e-01, -9.053586423e-02, 6.824831665e-02, 1.281760782e-01, 1.462096572e-01, 6.763511151e-02, 1.681187153e-01, 1.329383850e-01, 7.700871676e-02, 4.118654877e-02, 1.410078555e-01, 7.357802242e-02, 2.099890858e-01, 1.458582729e-01, 2.414381504e-01, 2.024060041e-01, 1.233616322e-01, 7.337914407e-02, 1.367923617e-01, 4.071748257e-02, 4.142926261e-02, 3.817141801e-02, 1.057222262e-01, 7.339212298e-02, 1.073127836e-01, -8.944185823e-02, 1.547161043e-01, 1.087469459e-01, 1.441476643e-01, 1.996541470e-01, 9.245517850e-02, 1.055998653e-01, 1.914909333e-01, 5.630878359e-02, 1.030457094e-01, 2.351852832e-03, 1.340213120e-01, 1.258376092e-01, 4.414077476e-02, 1.417872906e-01, 5.692882836e-02, -1.330369152e-02, -2.611773834e-02, 2.799622118e-01, 5.844970047e-02, 1.138109416e-01, 1.184040606e-01, 1.059023738e-01, 1.187116057e-01, 1.277003139e-01, 2.416842990e-02, 4.617606103e-02, 1.471969783e-01, 4.509468749e-02, 1.509409547e-01, 1.235561222e-01, 6.401555240e-02, 4.161887243e-02, 9.076359123e-02, 1.361131668e-01, 9.712532163e-02, 9.503118694e-02, 1.325178742e-01, 6.843291968e-02, 1.473943144e-01, 5.161363631e-02, 1.746697724e-01, 2.234088629e-01, 2.590725422e-01, 1.495643705e-01, 1.081192568e-01, 2.171682119e-01, 2.464074939e-01, 2.803292871e-01, 2.787545323e-01, 3.208081722e-01, 1.858321130e-01, 3.047558963e-01, 1.514035910e-01, 2.281446755e-01, 2.101213038e-01, 2.773349881e-01, 2.182312757e-01, 2.197915465e-01, 2.244627029e-01, 2.685590982e-01, 2.116367817e-01, 1.288755089e-01, 1.646795273e-01, 3.084399998e-01, 1.928575039e-01, 2.438317388e-01, 2.780804336e-01, 3.195341527e-01, 2.575461268e-01, 2.704498172e-01, 3.652797043e-01, 2.567979991e-01, 2.832719386e-01, 1.214976311e-01, 3.276061714e-01, 1.875838488e-01, 3.192283511e-01, 1.739574075e-01, 2.152386010e-01, 2.726364136e-01, 3.043044806e-01, 2.021313161e-01, 2.247183919e-01, 2.985472083e-01, 2.362357825e-01, 1.414147019e-01, 2.805991173e-01, 2.299246937e-01, 2.051606774e-01, 3.343710303e-01, 1.857686639e-01, 2.899475992e-01, 1.500976831e-01, 3.815990090e-01, -2.997265663e-03, 2.383554280e-01, 2.552326620e-01, 2.371687144e-01, 2.235907763e-01, 2.921135724e-01, 2.267087996e-01, 2.386490554e-01, 2.692510486e-01, 2.248712629e-01, 4.287616536e-02, 7.486562431e-02, 1.441169977e-01, -5.195300281e-02, 2.510026842e-02, 1.911544614e-02, -1.607840694e-02, -1.302550826e-02, 6.748477370e-02, 2.956581488e-02, 1.969592273e-02, 4.650713876e-02, -2.836665139e-02, -2.691944875e-02, 2.657959610e-02, -4.904001579e-02, 1.705363765e-02, 8.306168765e-02, -1.311910301e-01, 4.132673610e-03, -3.281078488e-02, -3.947998583e-02, -1.619237103e-02, 6.277323514e-02, 1.096762270e-01, 4.576842859e-02, 1.223079301e-02, 4.290720448e-02, 8.520779014e-02, 6.672567129e-02, 5.873535201e-02, 5.059734732e-02, 4.383124039e-02, 5.602167454e-03, 6.091456488e-02, 5.307042226e-02, 6.484519690e-03, 6.089133769e-02, 2.754589729e-02, 4.651533067e-02, 5.062254518e-02, 5.208611116e-02, 8.797863126e-02, -4.471027479e-02, 2.862653881e-02, 1.004727110e-01, 9.904562682e-02, -1.283241715e-02, 7.559923083e-02, 9.959432483e-02, 7.912653685e-02, -5.968203768e-03, 5.020903051e-02, 9.611141682e-02, 9.319066256e-02, 5.137949064e-02, 1.551087759e-02, 7.838992029e-02, 8.510622382e-02, 4.571470618e-02, 6.820499897e-02, 1.012551412e-01, 5.283015594e-02, 6.869743019e-02, -7.286024839e-02, 5.175215006e-02, -5.552746728e-02, -3.223787993e-02, -9.303981811e-02, 8.578689769e-03, -7.831015438e-02, -6.999105215e-02, -1.303714067e-01, 2.048485912e-02, 2.210897766e-02, 4.742219299e-02, 1.213383377e-01, -1.871572062e-02, 7.253697515e-02, -1.467479765e-02, 8.186865598e-02, 5.688767880e-02, -6.977231801e-02, 8.411331475e-02, 7.550007105e-02, 2.230422571e-02, 3.938948736e-02, -1.483252086e-02, 2.020718716e-02, -5.338106304e-02, -4.337720573e-02, 6.430482864e-02, -5.167359114e-02, -6.368753035e-03, 5.469202250e-02, 4.238259047e-02, 1.967258006e-02, 1.948697120e-02, 1.175941713e-02, 5.635315552e-02, 5.935305357e-02, 5.483022332e-02, 7.259313017e-02, -7.437480241e-02, 3.507883474e-02, -2.243808098e-02, 4.459953308e-02, -9.067943320e-03, -1.013363451e-01, 4.915602505e-02, 4.356467724e-02, -5.375808477e-02, -6.192111596e-02, -9.016565233e-02, -3.736264631e-02, -7.025292609e-03, -3.354712948e-02, -7.890646905e-02, 7.749559730e-02, 1.059572492e-02, -9.267831594e-02, -1.779328682e-03, 2.301947773e-02, 1.562461909e-02, 4.890621454e-02, -5.467149243e-02, 4.060893506e-02, 1.639645919e-02, 2.055327781e-02, -1.364349201e-02, -9.871358424e-02, -9.813641757e-02, -1.588782296e-02, 1.846108586e-02, -6.546360254e-02, 1.067457069e-02, -2.857562341e-02, 5.916569382e-02, 6.622110959e-03, -8.795839548e-02, -6.970147789e-02, -1.465412676e-01, -1.137316003e-01, 3.310703859e-02, 1.461774483e-02, 3.037073836e-02, -6.100244820e-02, -1.129532084e-01, -1.333348732e-02, -6.685272604e-02, -6.585147977e-02, -5.693002045e-02, 3.962881118e-02, -4.983659089e-02, -1.451587304e-02, -7.964326069e-03, 6.139512733e-02, -6.034675054e-03, -8.889633417e-02, -1.131696976e-03, 6.355564110e-03, -1.026679799e-01, 3.804422915e-02, -1.092163473e-02, -4.795427993e-02, -1.134551242e-01, -3.550602868e-02, -8.026043326e-02, -2.463860624e-02, -1.017759144e-01, -8.046130091e-02, -4.674867168e-02, -1.364888549e-01, -5.281343684e-02, -5.894942209e-02, -3.005454317e-02, -6.103013083e-02, 2.708692104e-02, 3.757504374e-02, -9.285883605e-02, -9.500210732e-02, 1.219039783e-02, -8.311890066e-02, -2.264048457e-01, -1.608941555e-01, -4.500980675e-02, -4.069350287e-02, -4.349330068e-02, -6.822042167e-02, -8.953959495e-02, -2.783554979e-02, 4.674405232e-02, -1.309233997e-02, 2.958840504e-02, -6.356671453e-02, -8.084598929e-02, 1.441733167e-02, -9.222724289e-02, -7.897598296e-02, -1.301607937e-01, -1.059278920e-01, 4.195402935e-02, -5.845096335e-02, -1.060264632e-01, -1.693507135e-01, 1.431798562e-03, -3.127465025e-02, -1.182228625e-01, 1.280694827e-02, 1.249430701e-02, -7.824786939e-03, -7.331003249e-02, 2.222102508e-02, 3.682325780e-02, 1.949219778e-02, -8.259352297e-02, -6.932472438e-02, -2.432275191e-02, 2.064956538e-02, -1.202606559e-01, 3.192293644e-02, 2.570739947e-02, -8.123737574e-02, 1.679661684e-02, 3.911213204e-02, -1.023655087e-01, -1.695794165e-01, -3.047485463e-02, -8.542767167e-02, -4.632380232e-02, -8.790471405e-02, -1.004529968e-01, -5.746868253e-02, -2.000656277e-01, 1.510213688e-02, -4.063949361e-02, -3.446117043e-02, 3.441350907e-02, -1.822715849e-01, 3.989765421e-02, -3.967295960e-02, -2.008687705e-02, -3.106003813e-02, -5.874460191e-02, -2.027804218e-02, -7.090736181e-03, -1.146509871e-01, -1.955510527e-01, -1.661215723e-01, -6.813438237e-02, -4.004447907e-02, -4.229479004e-03, 1.276942436e-02, -3.824413568e-02, 3.151667491e-02, 4.683316685e-03, 2.924929559e-02, -3.816369921e-02, -6.658080965e-02, -1.756454706e-01, -6.548050791e-02, -9.189596772e-02, -6.628648937e-02, 4.226360470e-03, -2.715634368e-02, -6.762354076e-02, -1.722430997e-02, -1.289376318e-01, -6.401959807e-02, -7.943882048e-02, -5.143813789e-02, -1.062196121e-02, -4.308345169e-02, -4.130807519e-02, -8.450028300e-02, -3.616684675e-02, -3.792471439e-02, -3.571496531e-02, -5.413926020e-02, -4.920640215e-02, -2.084516361e-02, -2.528160065e-02, -1.205687448e-01, 6.801386178e-02, -2.971539795e-01, -9.483971447e-02, -4.817197472e-02, -7.041233033e-02, -1.588458717e-01, -5.357034132e-02, -9.955763817e-02, -7.956421003e-03, -1.414965689e-01, -1.522704959e-01, -2.483053878e-02, -5.903073773e-02, -4.281241447e-02, -7.575120777e-02, -9.589724243e-02, -2.384993248e-02, -1.401564926e-01, -5.990209058e-02, -4.845985025e-02, -1.086940169e-01, -1.248545870e-01, -6.272295862e-02, -1.309265345e-01, -1.157948896e-01, -5.399838462e-02, -8.377754688e-02, -1.668489724e-02, -1.156422794e-01, -1.660783589e-01, -3.307143971e-02, -1.420623660e-01, -1.670600921e-01, -4.840038344e-02, -6.744830171e-05, -7.783935219e-02, -8.520677686e-02, -1.273486018e-01, -2.366726398e-01, -1.976784915e-01, -2.213423550e-01, -1.667932570e-01, -1.861898750e-01, -6.787241101e-01, -1.767147332e-01, -1.442636400e-01, -2.077816427e-01, -1.830155849e-01, -1.192287356e-01, -1.805756241e-01, -2.368689775e-01, -1.442118585e-01, -3.376591802e-01, -1.992919594e-01, -1.031575203e-01, -2.238001227e-01, -2.525185049e-01, -2.600075603e-01, -1.412765086e-01, -2.031684071e-01, -1.684994549e-01, -1.690507829e-01, -1.974483430e-01, -1.882507652e-01, -2.752550840e-01, -1.510940045e-01, -2.930708528e-01, -1.304771900e-01, -1.230883449e-01, -1.121162400e-01, -1.488328725e-01, -1.712151915e-01, -2.286601812e-01, -1.661667228e-01, -2.657297850e-01, -1.539771557e-01, -1.378828585e-01, -1.422017366e-01, -2.486342192e-01, -2.034842819e-01, -1.896849424e-01, -2.583033144e-01, -2.180408537e-01, -2.187505215e-01, -9.055209160e-02, -2.136311084e-01, -1.507983208e-01, -2.440352142e-01, -1.872078180e-01, -2.194784433e-01, -2.078149468e-01, -2.538886666e-01, -2.248523384e-01, -2.709130943e-01, -1.564457417e-01, -1.908513010e-01, -1.947534978e-01, -3.814188838e-01, -1.894003153e-01, -1.812661886e-01, -1.823152304e-01, 6.063748896e-02, -2.929715440e-02, -9.628283978e-02, -6.796207279e-03, -7.606876548e-03, -1.243032664e-01, -5.079718772e-03, -5.286725238e-02, -7.204262167e-02, 2.146636508e-02, 6.450638175e-02, 7.443401497e-03, -1.393422484e-02, -1.035764143e-01, -6.479145959e-04, -1.751064137e-02, -5.335267168e-03, 3.970149159e-02, -3.699965030e-02, -1.648250520e-01, 4.145054519e-02, 6.321357936e-02, -5.191071332e-02, -9.724039584e-02, 8.239987493e-02, 1.857112721e-02, -1.133557707e-01, -1.307334304e-01, 6.706807762e-02, 8.535817266e-02, 1.102345735e-01, -8.855963498e-02, 3.785021976e-02, 7.526981831e-02, -6.892436743e-02, 4.767314345e-02, 1.702745818e-02, 7.125958800e-02, -7.743952796e-03, 8.592985570e-02, -4.219092429e-02, 1.945454068e-02, 7.350349426e-02, 2.677854896e-02, 7.208995521e-02, 9.099270217e-03, -6.010576151e-03, 1.011771783e-01, 3.009685501e-02, 4.238750413e-02, 2.823471278e-02, 9.539321810e-02, -5.890218075e-03, 7.322783023e-02, 5.324722826e-02, 1.354150940e-02, 2.993290313e-02, 1.495299675e-02, 2.162661590e-02, 5.424132571e-03, 7.913632691e-02, 6.514015049e-02, 5.910630152e-02, 9.235224873e-02, 9.139080066e-04, 3.831976559e-03, 7.064470649e-02, -1.325796358e-02, 1.118087694e-01, -2.309966646e-02, 1.871065237e-02, -6.412205845e-02, -2.385348082e-02, 5.989625305e-02, 3.990701213e-02, 1.253447682e-01, 4.391004145e-02, 9.808935970e-02, 8.948396891e-02, -3.687853366e-02, 7.195135951e-02, 1.651365869e-02, 7.785558701e-02, 7.207996398e-02, 1.136131510e-01, 8.407019824e-02, -1.150363591e-02, 2.442872711e-02, 5.710862577e-02, 5.889749527e-02, 2.963140793e-02, 1.187125891e-01, 4.906011745e-02, 5.946939439e-02, 1.496040076e-01, 9.212471545e-03, 1.099247038e-01, 4.651928693e-02, 9.631888568e-02, 7.634820044e-02, 6.818080321e-03, 7.453667372e-02, -4.412584379e-02, 7.351407409e-02, 5.911005661e-03, 7.058706880e-02, 1.154893935e-01, 1.018366441e-01, 7.333026081e-02, 1.069561392e-01, 9.290695190e-02, 1.144961566e-01, 2.640350722e-02, 1.430768520e-01, 1.026393622e-01, 1.034885645e-01, 2.741262503e-02, 1.234747693e-01, 1.284097880e-01, 1.115612686e-01, 1.399218570e-03, 5.616921466e-03, -8.896219730e-02, -1.585958898e-02, 2.886867523e-02, 3.129389510e-02, -4.340679199e-02, 5.496967584e-02, -3.304225206e-02, -1.322788186e-02, 1.435357034e-01, 6.819146127e-02, 5.382127315e-02, 8.556861430e-02, 5.208951980e-02, 2.958573960e-02, 7.691436261e-02, 5.623955280e-02, 2.305028029e-02, 1.453265250e-01, 1.038933322e-01, 1.142527685e-01, 1.491252929e-01, 1.364207417e-01, 1.155146211e-01, 1.849837229e-02, 8.028503507e-02, 1.055168584e-01, 2.049811482e-01, 7.903205603e-02, 7.802972198e-02, 1.152045652e-01, 1.511149108e-01, 1.192028672e-01, 1.022906452e-01, 1.025470942e-01, 1.069603637e-01, 7.271612436e-02, 1.438946277e-01, 1.304158121e-01, 1.263764948e-01, 1.746501774e-01, 1.683233529e-01, 1.287176609e-01, 8.315616846e-02, 5.240838602e-02, 2.401421368e-01, 1.963544339e-01, 7.779973000e-02, 1.838676184e-01, 8.352320641e-02, 8.952431381e-02, -3.811056316e-01, 8.657437563e-02, 1.568201780e-01, 9.822563827e-02, 1.875878125e-01, 1.468248218e-01, -6.564378738e-03, 1.775959432e-01, 1.270920485e-01, 1.493783593e-01, 9.221076965e-02, 8.860536665e-02, 1.035141721e-01, 1.243172064e-01, 2.016151510e-02, 8.699156344e-02, 9.773755074e-02, 1.394562572e-01, -5.162890255e-02, 1.068445295e-01, 7.376123965e-02, 7.862419635e-02, 2.612663060e-02, 8.477910608e-02, 1.079328582e-01, 1.195305884e-01, 1.440740526e-01, 1.869048625e-01, 6.627779454e-02, 8.595640212e-02, 5.002848431e-02, 2.086697668e-01, 1.082396582e-01, 2.269443423e-01, 8.647382259e-02, 1.266489271e-02, 1.599065363e-01, 1.177735999e-01, 1.635080576e-01, 1.992388964e-01, 5.500497296e-02, 1.207878292e-01, 1.517047733e-01, 1.091660559e-01, 9.160678089e-02, 1.230970547e-01, 1.113058403e-01, 2.145507187e-01, 1.643161774e-01, 1.918367743e-01, 1.277130693e-01, 7.954069972e-02, 1.324967891e-01, 1.412445754e-01, 1.648476571e-01, 7.162363082e-02, 1.318070441e-01, 1.475717127e-01, 1.512991637e-01, 1.196046472e-01, 8.949819952e-02, 1.204767376e-01, 8.316075802e-02, 1.320594251e-01, 1.042663604e-01, 6.940763444e-02, 1.269874722e-01, 1.222347170e-01, 1.166350096e-01, 1.474680454e-01, 1.050755978e-01, 1.568414122e-01, 2.319034785e-01, 8.487217128e-02, 1.376106590e-01, 1.303175837e-01, 9.936656803e-02, 1.067627370e-01, 9.296564013e-02, 2.133207023e-01, 1.650292128e-01, 1.685382128e-01, 1.635022312e-01, 1.207930967e-01, 1.141050011e-01, 1.266872436e-01, 1.468927115e-01, 2.053558230e-01, 1.611026227e-01, 1.569486111e-01, 1.492971033e-01, 1.073604524e-01, 1.036486402e-01, 5.159362406e-02, 1.727216244e-01, 1.262483448e-01, 9.580322355e-02, 5.922568962e-02, 1.221321672e-01, 1.204621196e-01, 1.804142445e-01, 1.720896810e-01, 1.237761453e-01, 1.087157652e-01, 2.296794802e-01, 1.446472406e-01, 7.776886225e-02, 1.354266703e-01, 1.059885100e-01, -1.016450301e-01, 1.735080779e-01, 1.070043519e-01, 1.883070618e-01, 1.438669264e-01, 1.107291132e-01, 9.440898895e-02, 9.018015116e-02, 1.276030689e-01, 1.939810365e-01, 1.104057506e-01, 1.394001842e-01, 1.975297928e-01, 1.591062993e-01, 1.729029268e-01, 1.483570188e-01, 8.647466451e-02, 2.454825044e-01, 5.369582400e-02, 2.241346687e-01, 1.814208925e-01, 1.176794693e-01, 1.771301180e-01, 1.049470007e-01, 1.509493291e-01, 8.513694257e-02, 1.835052073e-01, 2.160860747e-01, 1.567501724e-01, 7.106104493e-02, 1.388075948e-01, 1.400174052e-01, 1.043502167e-01, 1.785363443e-02, 1.742293686e-01, 3.568554670e-02, 1.341727078e-01, 1.417022943e-01, 9.622123837e-02, 2.516971231e-01, 2.252088189e-01, 3.146439791e-01, 1.616480052e-01, 3.288534880e-01, 3.217993081e-01, 2.031646967e-01, 4.261817038e-01, 2.804795802e-01, 2.746968865e-01, 1.740403771e-01, 2.981932461e-01, 1.225749254e-01, 2.736254334e-01, 3.427953422e-01, 1.986519247e-01, 2.564226687e-01, 2.432970703e-01, 2.852442563e-01, 3.128529489e-01, 2.882509828e-01, 3.319514394e-01, 3.178998530e-01, 2.916277647e-01, 3.699718714e-01, 1.866705567e-01, 2.868041396e-01, 3.198685348e-01, 2.190713137e-01, 3.516506553e-01, 4.251386225e-01, 3.091685176e-01, 1.630071402e-01, 1.648023874e-01, 2.887558937e-01, 1.998485327e-01, 2.976343632e-01, 2.545503676e-01, 2.974537611e-01, 2.817235291e-01, 2.006262690e-01, 2.258642316e-01, 2.681072056e-01, 2.641952634e-01, 2.675530612e-01, 2.417132705e-01, 2.467224598e-01, 2.930685282e-01, 2.274037153e-01, 1.818345040e-01, 1.873481423e-01, 2.210043371e-01, 2.941803336e-01, 1.960115433e-01, 2.282730192e-01, 2.870456576e-01, 2.674075365e-01, 2.720052898e-01, 2.776687741e-01, 3.101939857e-01, 2.122474909e-01, 3.005200922e-01, 2.903048098e-01, 2.798638642e-01, 7.503198576e-04, 1.788221002e-01, 8.397564292e-02, 2.656034753e-02, 1.412397157e-02, 5.891367048e-02, 2.470501699e-02, 6.346100569e-02, 1.097529978e-01, 4.136201367e-02, 7.814709097e-02, 9.496080130e-02, 7.326648384e-02, 1.370347105e-02, 5.516288802e-02, 1.898972504e-02, 1.102941781e-01, 9.110689163e-02, 6.872280687e-02, 4.837311432e-02, 7.798094302e-02, 7.567983121e-02, 4.868473485e-02, 1.111455113e-01, 2.739117667e-02, 9.435903281e-02, 7.400772721e-02, 6.479603797e-02, -8.449594490e-03, 8.828259259e-02, 9.669329971e-02, 3.428222612e-02, 3.474980593e-02, 4.957408085e-02, 6.199643761e-02, 3.167138994e-02, 1.021981463e-01, 4.533758014e-02, 5.399006233e-02, 8.262512833e-02, 3.360172734e-02, 4.440005869e-02, 3.686034679e-02, 1.010631956e-02, 2.339129336e-02, 8.386298269e-02, 1.208426952e-01, 3.755291924e-02, 8.131157607e-02, 1.135237291e-01, 2.892503515e-02, 3.177250922e-02, 2.127362788e-02, 9.534405172e-02, 4.580343515e-02, 8.657341450e-02, 4.447972029e-02, 4.528937861e-02, 3.245646507e-02, 4.582024366e-02, 3.419092670e-02, 2.847258374e-02, 6.261824071e-02, 4.390495270e-02, -5.186638236e-02, -3.553809971e-02, -8.285191841e-03, -8.221113123e-03, -8.716361970e-02, 7.985612610e-04, -6.778184325e-02, -2.551790327e-02, -1.277134866e-01, -4.477385432e-02, 3.275852278e-02, -2.687231824e-02, -1.469413470e-02, 1.234554406e-02, -6.347951293e-02, -4.833059385e-03, -1.637070626e-02, 4.172518477e-02, 1.176056452e-02, -7.899136841e-02, -4.937722534e-02, 2.212689631e-02, -5.818272941e-03, 5.588207394e-02, 4.205049947e-03, 1.487117354e-02, -1.162087824e-02, -1.958020218e-02, 7.584013790e-02, -1.910670102e-02, 4.874495789e-02, 1.075775623e-01, -4.393129610e-03, -1.790429279e-02, 9.732997045e-03, -4.053635150e-02, 5.008463562e-02, -1.601131819e-02, 1.359901391e-02, -3.823247552e-02, 5.377858132e-02, -1.280080378e-01, 4.872601107e-02, 8.942231536e-02, 2.293336019e-02, -6.457861047e-03, 3.559270874e-02, 3.306708112e-02, 3.819855675e-02, -3.381298482e-02, -5.936570093e-02, -7.440683991e-02, -3.328415379e-02, -7.724848390e-02, -1.636806689e-02, 2.076322027e-02, -1.706552319e-02, -4.080684856e-02, -1.143461186e-02, -2.790566161e-02, 2.783797495e-02, -5.210012943e-02, 9.439910948e-02, -7.430689037e-02, -7.359869778e-02, -9.350716323e-02, -1.418721117e-02, -7.330322266e-02, -7.415594161e-02, 5.014109425e-03, -1.078253910e-01, -8.028783649e-02, -1.952113025e-02, -6.256075948e-02, -4.141340032e-02, -1.619071066e-01, -1.295712292e-01, -4.029462859e-02, -1.382756885e-02, -8.101537079e-02, -1.134611219e-01, -1.272734106e-01, -3.794812784e-02, -1.392633319e-01, 3.025652096e-02, -6.563963741e-02, -4.452466965e-02, -8.004111797e-02, 5.298915785e-03, -2.665784024e-02, -2.414010651e-02, -3.481214494e-02, 3.273359267e-03, -1.074718907e-01, -4.366625473e-02, -2.847346850e-02, -5.855211243e-02, -4.711946473e-02, -3.898941353e-02, -6.840492040e-02, -6.693749875e-02, -3.877926245e-02, -5.314726755e-02, -8.337625116e-02, -8.309417963e-02, -6.663550436e-02, -3.142518550e-02, -5.784004554e-02, -1.322402060e-01, -7.378724962e-02, -1.076616943e-01, -1.040890217e-01, -9.072872810e-03, -5.407020822e-02, -9.573769569e-02, -2.530242801e-01, -4.267987981e-02, -6.065555662e-02, -8.046051115e-02, -8.155398071e-03, -5.341750756e-02, -2.250939794e-02, -2.446739748e-02, -4.452896118e-02, -6.134292483e-02, -5.919682980e-02, -5.138364062e-02, -8.148052730e-03, 3.935613483e-02, 6.063295156e-02, -1.888292469e-02, -9.060830809e-03, -4.057425633e-02, -3.511022031e-02, -8.950040489e-02, -4.234899580e-02, -8.172340691e-03, 3.695203736e-02, -3.349013254e-02, -1.063159704e-01, -4.983319715e-02, -7.710226625e-02, -7.039101422e-02, -8.964976668e-02, -9.104958177e-02, -6.810404360e-02, -1.213994473e-01, -6.357418746e-02, -8.956342191e-02, -8.519448340e-02, -2.018294856e-02, -6.673070043e-02, -1.024186984e-02, -1.483627409e-01, -5.820776895e-02, -1.124024540e-01, -4.825633764e-02, -3.419753537e-02, -3.454729915e-02, -8.997929096e-02, -2.245087363e-02, -8.738832921e-02, -7.893438451e-03, -4.863458872e-02, -8.089038730e-02, -1.336448193e-01, -5.530646816e-02, -2.611801960e-02, -8.191791177e-02, -8.614527434e-02, -6.474037468e-02, -1.080529615e-01, -8.156517148e-02, -3.903344274e-02, -6.095136702e-02, -5.567341670e-02, -5.138341337e-02, -5.259307101e-02, -3.481354937e-02, -6.375215948e-02, -5.337641388e-02, -8.372811228e-02, -2.767392099e-01, -1.489709765e-01, -5.190361664e-02, -7.506524678e-03, -1.574571282e-01, -1.104630679e-01, -1.147307307e-01, -5.945610255e-02, -4.461567849e-03, -3.586469591e-02, -1.060866043e-01, -9.396607056e-03, -1.185089722e-02, -9.613556415e-02, -9.718466550e-02, -6.854850054e-02, -4.054871947e-02, -7.958865166e-02, -3.818183765e-02, -7.076039910e-02, -7.182721794e-02, 1.565906964e-02, -4.812804237e-02, 1.336551178e-02, -8.477208018e-02, 2.276472747e-02, 1.437449083e-02, -1.130971983e-01, -4.596012086e-02, -6.827577204e-02, -6.663497537e-02, -7.927499712e-02, -1.228448972e-01, -9.788440913e-02, -2.975895442e-02, -2.193207666e-02, -5.397959799e-02, -5.651962385e-02, -1.042009369e-01, -7.532840967e-02, -4.837480560e-02, -7.457493246e-02, -7.648237050e-02, -1.540525630e-02, -7.775076479e-02, -4.887790605e-02, -7.294337451e-02, -6.821495295e-02, -5.143431947e-02, -8.981449902e-02, -7.631758600e-02, -8.756206185e-02, -5.376113206e-02, -1.192338914e-01, -5.489423499e-02, -5.385841057e-02, -9.701015055e-02, -5.885148048e-02, -7.224665582e-02, -6.577225775e-02, -4.013065994e-02, -9.167616069e-02, -2.052083053e-02, -1.193770915e-01, -3.532869369e-02, -8.323345333e-02, -1.016541198e-01, -3.284402564e-02, -7.551683486e-02, -7.691443712e-02, -4.355559498e-02, -1.097339615e-01, -7.693250477e-02, -8.407604694e-02, -1.669092923e-01, -2.240621001e-01, -2.216936499e-01, -2.132638097e-01, -1.558542997e-01, -2.051520646e-01, -2.006850839e-01, -2.110624164e-01, -1.659726053e-01, -2.216472924e-01, -1.948142201e-01, -1.670112312e-01, -1.711478978e-01, -1.721646488e-01, -2.151574492e-01, -1.970694810e-01, -2.042371929e-01, -1.955359429e-01, -1.454375982e-01, -1.773208529e-01, -1.959132105e-01, -1.871863753e-01, -1.991489381e-01, -2.275275588e-01, -1.882072538e-01, -1.793060154e-01, -1.556529552e-01, -1.980110854e-01, -1.300785542e-01, -1.836079359e-01, -1.786500067e-01, -1.989232749e-01, -1.720136255e-01, -1.986259967e-01, -1.744820178e-01, -2.119032592e-01, -2.425884008e-01, -1.797834039e-01, -1.411707997e-01, -1.436903179e-01, -2.934082150e-01, -2.158446759e-01, -2.366034985e-01, -1.695647240e-01, -1.905051619e-01, -2.569197714e-01, -2.651480734e-01, -1.836086959e-01, -1.742280275e-01, -1.694495380e-01, -2.115726322e-01, -1.775072217e-01, -2.293683738e-01, -2.265221030e-01, -1.989067495e-01, -2.562882304e-01, -1.992106438e-01, -2.173220813e-01, -2.453124374e-01, -2.324685454e-01, -6.031294465e-01, -2.809699178e-01, -1.665927470e-01, -2.787713110e-01, 2.315455861e-02, -4.017508030e-02, 3.724633157e-02, 4.473543912e-02, 5.661866441e-02, 5.141428486e-02, 6.677339785e-03, 8.367999643e-02, 6.041863561e-02, 4.945195094e-02, 2.132540643e-01, 1.014547199e-01, 7.044322789e-02, 3.683499992e-02, 7.831589878e-02, 2.524215262e-03, 9.510062635e-02, 4.343499616e-02, 6.759987772e-02, 5.385484174e-02, 8.792299032e-02, 5.361808464e-02, 2.458234318e-02, 2.758916840e-02, 5.079254135e-02, 1.238117218e-01, 5.925702304e-02, 9.392935783e-02, 5.660165474e-02, 1.462506354e-01, 1.326710135e-01, 1.281680763e-01, 6.884244829e-02, 1.021519229e-01, 1.014889404e-01, 9.077244252e-02, 1.196708754e-01, 9.494768083e-02, 4.390196502e-02, 8.236397803e-02, 5.433406308e-02, 5.147591606e-02, 5.650335550e-02, 8.182819188e-02, 7.049331069e-02, 3.761096671e-02, 7.928843051e-02, 7.303504646e-02, 9.822633862e-02, 1.225152388e-01, 6.453523040e-02, 9.626816958e-02, 8.880267292e-02, 9.626632929e-02, 1.266046464e-01, 1.031266674e-01, 4.286928475e-02, 8.364780247e-02, 8.179055154e-02, -1.313871741e-01, 1.470936835e-02, 8.954526484e-02, 9.785959870e-02, 8.506581932e-02, 7.298059762e-02, 2.162276581e-02, 3.413102031e-02, 3.925064579e-02, -3.095430136e-02, -1.178500131e-01, -2.986389585e-02, -3.979406878e-02, -2.818300389e-02, 8.934642375e-02, 9.959218651e-02, 1.397867203e-01, 1.224693060e-01, 9.920127690e-02, -2.078258991e-02, -1.612468995e-02, 1.440709978e-01, -1.139151305e-02, 1.122881621e-01, 3.936646879e-02, 8.313877136e-02, 1.534819305e-01, 1.057200432e-01, 2.054256201e-02, 2.645976096e-02, 1.018046290e-01, 1.338665634e-01, 3.528378904e-02, 5.670081824e-02, 1.718103699e-02, 1.074139923e-01, 1.700256951e-02, 4.250724800e-03, 1.052564457e-01, 1.380766332e-01, 1.919700801e-01, 4.492028430e-02, 7.585268468e-03, 1.526615699e-03, 5.414717831e-03, 4.556450248e-02, 8.590155840e-02, 1.279559880e-01, 1.032352820e-01, 2.142951638e-02, 7.110018283e-02, 6.310982257e-02, 5.885290727e-02, 8.993493766e-02, 7.296714932e-02, 5.570703372e-02, 7.924231142e-02, -3.255862370e-02, 9.012790769e-02, 5.867160484e-02, 5.000025779e-02, -5.948870257e-02, 4.581950605e-02, -4.942285363e-03, 3.305089474e-02, 8.115290850e-02, 1.225214265e-02, 1.059581712e-02, -4.384073243e-02, -4.832913633e-03, 9.760294110e-02, 2.105297595e-01, 9.634337574e-02, 1.486735791e-01, 2.601481602e-02, 7.796627283e-02, 2.994264849e-02, 1.681178063e-01, 7.061063498e-02, 1.812171936e-01, 1.551785618e-01, 1.336663514e-01, 1.515874714e-01, 1.117991135e-01, 1.317840517e-01, 1.464190781e-01, 2.294888049e-01, 1.423304975e-01, 1.592966467e-01, 1.373189986e-01, 9.453699738e-02, 8.317609131e-02, 9.472992271e-02, 1.228517592e-01, 3.931980208e-02, 7.629585266e-02, 1.734966934e-01, 4.998179153e-02, 1.408589184e-01, 2.312074304e-01, 1.333437860e-01, 8.713527024e-02, 4.910104722e-02, 1.367632896e-01, 1.503905058e-01, 7.033489645e-02, 1.371084452e-01, 1.022048518e-01, 1.411179602e-01, 3.297273070e-02, 1.381868869e-01, 1.072372943e-01, 1.326000392e-01, 4.635549337e-02, 1.796807945e-01, 1.574501395e-01, 2.720618621e-03, 4.400318116e-02, 1.485777181e-02, 3.599563241e-02, 9.071689099e-02, 1.373102665e-01, 2.489565760e-01, 5.246259272e-02, 8.270721883e-02, 5.184952170e-02, 1.530673802e-01, 1.621102840e-01, 1.016498506e-01, 9.174843132e-02, 5.319271609e-02, 1.691073179e-01, 8.666627109e-02, 8.075263351e-02, 1.366437078e-01, 1.573660374e-01, 6.294801831e-02, 6.048115343e-02, 6.067736074e-02, 1.146452650e-01, 7.533217967e-02, 1.084827259e-01, 2.372858524e-01, 1.159423962e-01, 1.107468754e-01, 3.556129336e-02, 1.511093229e-01, 1.525506526e-01, 1.189262643e-01, 8.124976605e-02, 6.359793246e-02, 1.060132906e-01, 9.975343198e-02, 1.500483602e-01, 5.596604943e-02, 1.322498620e-01, 1.032387763e-01, 1.498588771e-01, 7.745764405e-02, 1.170939952e-01, 6.308622658e-02, 1.038427427e-01, 2.169793472e-02, 2.180520445e-01, 1.697975248e-01, 7.680957764e-02, 1.528564095e-01, 1.282851249e-01, 1.310179383e-01, 9.394626319e-02, 3.289206326e-02, 6.639210135e-02, 8.076925576e-02, 2.009768188e-01, 5.083139613e-02, 1.423384547e-01, 1.973324567e-01, 7.726788521e-02, -1.582553051e-02, 1.888705641e-01, 1.039464176e-01, 1.757276207e-01, 1.966941953e-01, 8.230178803e-02, 2.104258388e-01, 1.653126627e-02, 1.529491097e-01, 9.549640864e-02, 1.189351827e-01, 2.309576236e-02, 1.959639192e-01, 1.109796613e-01, 8.180729300e-02, 2.824405767e-02, 1.548335701e-01, 2.054806948e-01, 6.040685624e-02, 1.527488381e-01, 9.226265550e-02, 1.337566227e-01, 1.494340152e-01, 1.581447423e-01, 1.300835460e-01, 2.069337368e-01, 2.403877117e-02, 1.430348158e-01, 1.970369369e-01, 1.992605180e-01, 2.106518149e-01, 1.949503720e-01, 2.010021657e-01, 1.757080257e-01, 5.630489066e-02, 2.204154134e-01, 1.552201509e-01, 1.680115759e-01, 1.504142880e-01, 1.009152457e-01, 1.522231102e-01, 9.983812273e-02, 1.825336963e-01, 1.662633568e-01, 1.925465018e-01, 7.642406970e-02, 1.609830558e-01, 1.160273254e-01, 1.570129246e-01, 2.147694975e-01, 1.318249255e-01, 1.744117439e-01, 9.178442508e-02, 1.914931089e-01, 2.218444496e-01, 1.794153601e-01, 2.000235915e-01, 2.082192451e-01, 1.336960346e-01, 1.036175340e-01, 1.249124855e-01, 1.564928889e-01, 1.562586278e-01, 1.640467495e-01, 1.971229613e-01, 2.102309167e-01, 1.507003903e-01, 1.050861403e-01, 1.372301579e-01, 8.866663277e-02, 1.772518158e-01, 9.828212857e-02, 1.638114899e-01, 1.776263714e-01, 2.312056124e-01, 1.031146720e-01, 1.948231459e-01, 1.435982138e-01, 1.498153806e-01, 8.187059313e-02, 8.339411765e-02, 1.093375757e-01, 1.380388439e-01, 2.852623761e-01, 1.915732622e-01, 2.788842022e-01, 2.767826915e-01, 2.735590637e-01, 3.060884178e-01, 2.959512174e-01, 1.998325586e-01, 2.107835561e-01, 2.575731874e-01, 2.285565436e-01, 2.126920372e-01, 2.950693369e-01, 2.957439721e-01, 3.014743626e-01, 2.819764316e-01, 2.744514644e-01, 3.074814379e-01, 2.399123609e-01, 2.186659575e-01, 2.369539142e-01, 2.586826384e-01, 3.484877646e-01, 2.722902000e-01, 3.408244252e-01, 3.536050618e-01, 1.999269724e-01, 2.974217236e-01, 3.180409074e-01, 2.309924960e-01, 2.774741054e-01, 3.458736837e-01, 2.750626802e-01, 3.165509105e-01, 2.590847909e-01, 3.003109396e-01, 2.446123660e-01, 3.131383955e-01, 2.638942003e-01, 2.531658411e-01, 3.198887706e-01, 2.482882142e-01, 2.938513160e-01, 2.423176020e-01, 2.885900736e-01, 2.267207950e-01, 2.689414024e-01, 2.378127277e-01, 3.588657975e-01, 2.842977345e-01, 2.324210852e-01, 1.894632578e-01, 2.374711931e-01, 2.922660112e-01, 2.213614881e-01, 1.646663845e-01, 2.611261606e-01, 3.027861714e-01, 2.290875316e-01, 2.707056403e-01, 2.892714441e-01, 2.639437020e-01, 4.152814150e-01, 2.900837660e-01, 7.397060841e-02, 1.215577647e-01, 8.061131090e-02, 5.855602399e-02, 2.595796250e-02, 1.389017105e-01, 1.081568971e-01, 1.115524694e-01, 1.120697260e-01, 6.077216193e-02, 1.298813373e-01, 4.308454320e-02, 4.544976354e-02, 1.124574766e-01, 1.087914333e-01, 1.269823611e-01, 1.231744066e-01, 9.185050428e-02, 3.698314726e-02, 1.451978236e-01, 1.204479039e-01, 1.030612066e-01, 8.579314500e-02, 1.440839767e-01, 8.333452791e-02, 6.070920825e-02, 9.796365350e-02, 5.446462333e-02, 8.704563230e-02, 8.245833218e-02, 7.723430544e-02, 6.759063900e-02, 5.064648390e-02, 8.120378852e-02, 7.786206901e-02, 8.583124727e-02, 7.496725023e-02, 6.042841822e-02, 5.097428709e-02, 5.779453367e-02, 5.451095477e-02, 6.208589301e-02, 4.461014271e-02, 8.019417524e-02, 5.348024890e-02, 6.769890338e-02, 6.031014398e-02, 5.914667621e-02, 4.896606877e-02, 5.217623338e-02, 7.725398242e-02, 2.929374017e-02, 